<?xml version="1.0"?>
<MethodSetup Method="MLP::MLPBNN2">
  <GeneralInfo>
    <Info name="TMVA Release" value="4.2.1 [262657]"/>
    <Info name="ROOT Release" value="6.10/09 [395785]"/>
    <Info name="Creator" value="tasheng"/>
    <Info name="Date" value="Mon Jan 17 19:36:33 2022"/>
    <Info name="Host" value="Linux cmsbuild64.cern.ch 2.6.32-696.30.1.el6.x86_64 #1 SMP Tue May 22 06:09:36 CEST 2018 x86_64 x86_64 x86_64 GNU/Linux"/>
    <Info name="Dir" value="/home/tasheng/bmva/TMVA/BP/train"/>
    <Info name="Training events" value="57215"/>
    <Info name="TrainingTime" value="9.32955858e+02"/>
    <Info name="AnalysisType" value="Classification"/>
  </GeneralInfo>
  <Options>
    <Option name="NCycles" modified="Yes">600</Option>
    <Option name="HiddenLayers" modified="Yes">N+5,N</Option>
    <Option name="NeuronType" modified="Yes">tanh</Option>
    <Option name="RandomSeed" modified="No">1</Option>
    <Option name="EstimatorType" modified="No">CE</Option>
    <Option name="NeuronInputType" modified="No">sum</Option>
    <Option name="V" modified="Yes">False</Option>
    <Option name="VerbosityLevel" modified="No">Default</Option>
    <Option name="VarTransform" modified="Yes">N</Option>
    <Option name="H" modified="Yes">True</Option>
    <Option name="CreateMVAPdfs" modified="No">False</Option>
    <Option name="IgnoreNegWeightsInTraining" modified="No">False</Option>
    <Option name="TrainingMethod" modified="Yes">BFGS</Option>
    <Option name="LearningRate" modified="No">2.000000e-02</Option>
    <Option name="DecayRate" modified="No">1.000000e-02</Option>
    <Option name="TestRate" modified="Yes">5</Option>
    <Option name="EpochMonitoring" modified="No">False</Option>
    <Option name="Sampling" modified="No">1.000000e+00</Option>
    <Option name="SamplingEpoch" modified="No">1.000000e+00</Option>
    <Option name="SamplingImportance" modified="No">1.000000e+00</Option>
    <Option name="SamplingTraining" modified="No">True</Option>
    <Option name="SamplingTesting" modified="No">False</Option>
    <Option name="ResetStep" modified="No">50</Option>
    <Option name="Tau" modified="No">3.000000e+00</Option>
    <Option name="BPMode" modified="No">sequential</Option>
    <Option name="BatchSize" modified="No">-1</Option>
    <Option name="ConvergenceImprove" modified="No">1.000000e-30</Option>
    <Option name="ConvergenceTests" modified="No">-1</Option>
    <Option name="UseRegulator" modified="Yes">True</Option>
    <Option name="UpdateLimit" modified="No">10000</Option>
    <Option name="CalculateErrors" modified="No">False</Option>
    <Option name="WeightRange" modified="No">1.000000e+00</Option>
  </Options>
  <Variables NVar="6">
    <Variable VarIndex="0" Expression="Btrk1Pt" Label="Btrk1Pt" Title="Btrk1Pt" Unit="" Internal="Btrk1Pt" Type="F" Min="2.00013399e-01" Max="1.00547304e+01"/>
    <Variable VarIndex="1" Expression="abs(Btrk1Dz1/Btrk1DzError1)" Label="Trk1DCAz" Title="Trk1DCAz" Unit="" Internal="Trk1DCAz" Type="F" Min="4.01805992e-05" Max="8.23362500e+03"/>
    <Variable VarIndex="2" Expression="abs(Btrk1Dxy1/Btrk1DxyError1)" Label="Trk1DCAxy" Title="Trk1DCAxy" Unit="" Internal="Trk1DCAxy" Type="F" Min="9.54853531e-05" Max="2.27588608e+02"/>
    <Variable VarIndex="3" Expression="BsvpvDistance/BsvpvDisErr" Label="dls" Title="dls" Unit="" Internal="dls" Type="F" Min="2.00039959e+00" Max="9.31062891e+03"/>
    <Variable VarIndex="4" Expression="Balpha" Label="Balpha" Title="Balpha" Unit="" Internal="Balpha" Type="F" Min="4.76321657e-05" Max="3.14021730e+00"/>
    <Variable VarIndex="5" Expression="Bchi2cl" Label="Bchi2cl" Title="Bchi2cl" Unit="" Internal="Bchi2cl" Type="F" Min="5.00016920e-02" Max="9.99972939e-01"/>
  </Variables>
  <Spectators NSpec="0"/>
  <Classes NClass="2">
    <Class Name="Signal" Index="0"/>
    <Class Name="Background" Index="1"/>
  </Classes>
  <Transformations NTransformations="1">
    <Transform Name="Normalize">
      <Selection>
        <Input NInputs="6">
          <Input Type="Variable" Label="Btrk1Pt" Expression="Btrk1Pt"/>
          <Input Type="Variable" Label="Trk1DCAz" Expression="abs(Btrk1Dz1/Btrk1DzError1)"/>
          <Input Type="Variable" Label="Trk1DCAxy" Expression="abs(Btrk1Dxy1/Btrk1DxyError1)"/>
          <Input Type="Variable" Label="dls" Expression="BsvpvDistance/BsvpvDisErr"/>
          <Input Type="Variable" Label="Balpha" Expression="Balpha"/>
          <Input Type="Variable" Label="Bchi2cl" Expression="Bchi2cl"/>
        </Input>
        <Output NOutputs="6">
          <Output Type="Variable" Label="Btrk1Pt" Expression="Btrk1Pt"/>
          <Output Type="Variable" Label="Trk1DCAz" Expression="abs(Btrk1Dz1/Btrk1DzError1)"/>
          <Output Type="Variable" Label="Trk1DCAxy" Expression="abs(Btrk1Dxy1/Btrk1DxyError1)"/>
          <Output Type="Variable" Label="dls" Expression="BsvpvDistance/BsvpvDisErr"/>
          <Output Type="Variable" Label="Balpha" Expression="Balpha"/>
          <Output Type="Variable" Label="Bchi2cl" Expression="Bchi2cl"/>
        </Output>
      </Selection>
      <Class ClassIndex="0">
        <Ranges>
          <Range Index="0" Min="2.0055849850177765e-01" Max="1.0054730415344238e+01"/>
          <Range Index="1" Min="4.0180599171435460e-05" Max="8.2336250000000000e+03"/>
          <Range Index="2" Min="3.2792278216220438e-04" Max="2.2758860778808594e+02"/>
          <Range Index="3" Min="2.0009975433349609e+00" Max="9.3106289062500000e+03"/>
          <Range Index="4" Min="4.7632165660616010e-05" Max="3.0939915180206299e+00"/>
          <Range Index="5" Min="5.0001692026853561e-02" Max="9.9997293949127197e-01"/>
        </Ranges>
      </Class>
      <Class ClassIndex="1">
        <Ranges>
          <Range Index="0" Min="2.0001339912414551e-01" Max="9.5628461837768555e+00"/>
          <Range Index="1" Min="8.4410829003900290e-04" Max="3.2567260742187500e+03"/>
          <Range Index="2" Min="9.5485353085678071e-05" Max="3.1622268676757812e+01"/>
          <Range Index="3" Min="2.0003995895385742e+00" Max="7.5661132812500000e+03"/>
          <Range Index="4" Min="7.7949196565896273e-04" Max="3.1402173042297363e+00"/>
          <Range Index="5" Min="5.0018373876810074e-02" Max="9.9996358156204224e-01"/>
        </Ranges>
      </Class>
      <Class ClassIndex="2">
        <Ranges>
          <Range Index="0" Min="2.0001339912414551e-01" Max="1.0054730415344238e+01"/>
          <Range Index="1" Min="4.0180599171435460e-05" Max="8.2336250000000000e+03"/>
          <Range Index="2" Min="9.5485353085678071e-05" Max="2.2758860778808594e+02"/>
          <Range Index="3" Min="2.0003995895385742e+00" Max="9.3106289062500000e+03"/>
          <Range Index="4" Min="4.7632165660616010e-05" Max="3.1402173042297363e+00"/>
          <Range Index="5" Min="5.0001692026853561e-02" Max="9.9997293949127197e-01"/>
        </Ranges>
      </Class>
    </Transform>
  </Transformations>
  <MVAPdfs/>
  <Weights>
    <Layout NLayers="4">
      <Layer Index="0" NNeurons="7">
        <Neuron NSynapses="11">
          -4.3005535573991710e-01 9.8408976656282454e-01 3.4786907011106882e-01 4.4019306330242197e-01 -1.6310673261337449e+00 5.1748341477773838e-02 -5.4495257875460124e-01 4.7607314002348716e-01 -1.9278271508223602e-01 -4.9202112973683038e-01 -2.1513595572243815e+00 
        </Neuron>
        <Neuron NSynapses="11">
          -6.2975614484519604e-01 -3.5548941850610272e-01 -6.8145297446969422e-01 -1.2251925997000375e+00 3.6804782511932593e-01 -5.6883093225747372e-01 1.5563908278662346e+00 -4.2499797201355793e-01 1.9959966216848957e+00 -4.5614662376977533e-01 4.3440659535138793e-01 
        </Neuron>
        <Neuron NSynapses="11">
          -2.4817566870418076e-01 3.9981510279381403e+00 2.7038290462634179e-01 2.8214938705776826e-01 1.3152930869651058e+00 -4.6127075857788622e+00 -9.8560856294839805e-01 2.3127765071120563e+00 -1.5684113846112500e+00 1.1898062783382588e+00 -9.7311021935136632e-02 
        </Neuron>
        <Neuron NSynapses="11">
          -9.6824458618851417e-01 3.4945554401170051e+00 2.2290215384712120e-01 -4.8067527098066076e-01 1.6307063746421950e+00 -3.1908961949851755e-01 9.7045206541695483e-01 6.1850580661036526e-02 2.1545540609587275e+00 8.4790056797297686e-01 4.6151354304477449e-02 
        </Neuron>
        <Neuron NSynapses="11">
          -5.7989544863375231e-01 -6.9561132060419499e+00 7.1131317016770068e-01 -2.5187898768786074e+00 1.0650722872170579e+00 -5.8687024741115368e-02 -3.1832833665101129e-03 -4.6604279897392836e-01 -2.0015026518968266e+00 1.7864383188709605e+00 -4.6602761933255821e-01 
        </Neuron>
        <Neuron NSynapses="11">
          1.6940668373732079e-01 5.4466396553354536e-02 -6.5127765777599111e-01 2.5796606198843036e-01 -9.7289389827693223e-02 -2.5380752510434190e-01 4.4356159663271366e-01 -2.0988549853827798e-01 -1.0088399830879580e-01 3.2427806210425747e-01 -1.1203604317342977e-01 
        </Neuron>
        <Neuron NSynapses="11">
          6.2454317453146690e-01 -1.4407885516131114e-01 1.1765187170823828e+00 1.4093503581328206e+00 -9.4380543179032039e-01 -4.7219963275281547e+00 1.0399709940577523e-01 3.0291077621234037e+00 4.3292684841673008e+00 -2.8335149267629312e-01 -2.6232098187734834e+00 
        </Neuron>
      </Layer>
      <Layer Index="1" NNeurons="12">
        <Neuron NSynapses="6">
          -1.5393280045024642e+00 1.3504805483305391e+00 9.1305356909560842e-01 2.4297133634497099e+00 4.4001774580515540e-01 1.6848121084019325e+00 
        </Neuron>
        <Neuron NSynapses="6">
          -6.3666635763826018e-01 -2.1207440799469506e+00 -4.4679162184125137e-01 3.1088173452651509e+00 -1.0289627597190738e+00 -2.2727821476484724e+00 
        </Neuron>
        <Neuron NSynapses="6">
          -1.4092978065967785e+00 -7.6183757794054757e-02 8.4814296569482939e-01 1.1789157568736222e+00 -1.4300631810667501e+00 8.7294290259448404e-02 
        </Neuron>
        <Neuron NSynapses="6">
          1.5765666179533562e+00 1.3569564484922844e-01 -8.1275085208514275e-01 -7.0658195544462377e-01 1.2128082026532624e-01 -1.6359509459726547e+00 
        </Neuron>
        <Neuron NSynapses="6">
          -1.7072680271120171e+00 2.6903976894615528e-01 1.2739651152819453e+00 -2.0778156151428337e+00 1.7243129199504039e+00 -1.5241874102694262e+00 
        </Neuron>
        <Neuron NSynapses="6">
          -7.7650371139080288e-01 3.0818988336342366e+00 1.5487690938235552e+00 -4.4646416047579907e+00 4.9290227466591685e-01 1.2356099124259037e+00 
        </Neuron>
        <Neuron NSynapses="6">
          2.1515917723519298e-01 9.3004906523839859e-01 9.1397699675622668e-01 -6.8549989303271752e-01 -7.0808080575558263e-01 -4.0064806328673923e-02 
        </Neuron>
        <Neuron NSynapses="6">
          -1.0962419116997251e+00 -2.6286695419608073e+00 -3.3730961567201034e-01 1.2273628450690564e+00 1.7441974312764557e+00 1.9537186196685233e-01 
        </Neuron>
        <Neuron NSynapses="6">
          2.5347682441769509e-01 -1.4962246517610263e+00 -4.4072986095991390e-01 -2.8692374394522293e+00 8.9102365140912931e-01 7.4570101012110257e-01 
        </Neuron>
        <Neuron NSynapses="6">
          -1.8473504461525767e+00 -7.9766926612825118e-01 -1.7431019685847655e+00 -6.6551772868116477e-01 1.0101696862756362e+00 9.1453504337039560e-01 
        </Neuron>
        <Neuron NSynapses="6">
          -1.5755604021652618e+00 1.7130804500946470e+00 1.0775521724110413e+00 6.4324889049015999e-01 4.1015761083676161e-01 -1.3334158899814628e+00 
        </Neuron>
        <Neuron NSynapses="6">
          3.5357745383107292e-02 -1.0919403074905283e+00 1.6380668331520449e+00 2.1398500870468347e+00 -6.6330855436868374e-01 2.9611142330102658e-01 
        </Neuron>
      </Layer>
      <Layer Index="2" NNeurons="7">
        <Neuron NSynapses="1">
          2.5608129976105887e-01 
        </Neuron>
        <Neuron NSynapses="1">
          -7.1124354894718076e+00 
        </Neuron>
        <Neuron NSynapses="1">
          -1.0809963729406804e+00 
        </Neuron>
        <Neuron NSynapses="1">
          3.3857826037280718e+00 
        </Neuron>
        <Neuron NSynapses="1">
          1.1863872382350222e+00 
        </Neuron>
        <Neuron NSynapses="1">
          -2.1889058151459024e+00 
        </Neuron>
        <Neuron NSynapses="1">
          9.2235569427175992e-02 
        </Neuron>
      </Layer>
      <Layer Index="3" NNeurons="1">
        <Neuron NSynapses="0"/>
      </Layer>
    </Layout>
    <InverseHessian NElements="24336" NRows="156" NCols="156">
      <Row Index="0">
        6.4526326010473953e+00 -1.5214663567817172e-01 -2.7992176943557534e-01 -2.6191501008086937e-01 -2.7302385066255965e+00 1.5233040573496900e-01 1.2998707411346544e-01 -2.8451937259126381e-01 1.9535002349638422e-01 -5.7392404546373521e-01 -5.0828648134507526e-01 2.2054525755694643e+00 1.5249950898876255e-01 5.5909083439483698e-01 1.5545163908889061e+00 -5.9196723230462378e-01 9.4329691868492271e-02 -5.9901076480638527e-01 1.9866552788252795e-01 8.0031769662834285e-01 -3.3802671322165634e-01 1.4055809317034279e-01 9.8541903813742611e+00 -6.8779764912775071e-02 -1.1070666113286025e-01 4.6104716396023484e+00 -3.8666028813914708e+00 3.1122621781740767e+00 2.0931857313033875e-02 -5.7625218821917743e+00 1.0642195249913826e+00 6.2023480008625720e-01 -3.8483389069547813e-01 2.3312200877087594e+00 -3.6510111184978977e-01 -3.8153928442815455e-01 -2.3240495844238215e-01 1.1742982324577320e-01 3.2915456146066696e-02 -3.9526849853223722e-01 -2.5329999749314586e-01 4.0009117666914251e-01 -4.3186741265688794e-01 2.2731957795354446e-02 -1.4748941856491588e-02 6.0284193380450146e-01 -4.2812871050176116e-01 1.9828918261016395e+00 3.0384723110492029e-01 -2.1191746028092182e-01 9.5929414741079716e-02 9.0279493766897673e-02 -1.0191525617039729e-01 -4.6491475084458311e-01 -1.4552126973841042e-01 -8.2317857141242001e-01 5.5316807025618800e-03 2.0758497491131858e-01 -8.1524702821445472e-02 -3.8043870189573620e-01 8.2121759334301686e-03 -1.0492219495259003e-01 1.6291931694789184e-02 -8.9325457788088078e-02 1.7912853920746913e-01 -5.1980840368991844e-02 1.3622880299562576e+01 -6.1770016728144306e-03 -4.8580058977048335e-01 4.2789913035954257e+00 -6.4056779988889065e+00 3.2181874446489740e+00 -6.0998475225958582e-01 -6.0291552878289956e+00 2.3742193629218029e+00 -6.2158011291639426e-01 -6.7884804824822487e-01 3.4924436403894088e+00 8.8353524087920583e+00 4.7948514939361582e+00 2.0816852805750976e+01 -1.0857132352935039e+00 1.8327246335928749e+01 -3.5400078686038157e+00 -5.6730970087827259e-01 -2.4570939935733827e-01 1.3693562262404626e+00 -9.1245791666810361e-01 -1.9554988828875537e+00 -9.5713715032634052e+00 8.2672687617067891e-02 5.5815372794879359e-02 7.4873973346905742e-01 -4.7506806660999312e-01 8.6746149709476583e-01 2.9720350712083099e-01 -2.1743553573605268e-01 1.6564165208224022e+00 -1.5211755057166323e+00 -1.8044082917650517e-01 3.5849925306646696e+01 7.8192592549967532e+00 1.5818561766970478e+00 4.6290257072288945e+00 4.9381211331556738e+00 1.2084976652476831e-01 3.8367826388353024e+00 8.4562354877125259e+00 2.8318016218229363e+00 7.7302166275494288e-01 -3.0736658285727456e+00 4.8041086513559783e-01 3.5116927788656227e-01 -1.3757685358048291e+00 1.0271434567592277e+00 1.4005675612282165e-01 -1.7983765899410525e-01 -6.0954175984306969e-01 5.7756744073383004e-01 -1.1074523168706431e+01 -2.5415008881942622e+00 5.0220415271842445e-01 2.6972488762609230e+00 2.4476008392599446e-02 -1.0476033049217222e+01 -2.4254093779429313e+00 6.3376188924581456e-01 3.1518891754203260e-01 5.6900000680639518e-01 2.7657212858481728e-01 -5.4006014850001520e+00 -7.8016170031230203e+00 -1.5955644268022756e-01 1.9910805651290142e+00 -4.8440281454763534e-01 1.9994434462118789e+00 -1.8584247442122802e+01 1.4435285336768814e+01 -8.3530393685122051e-01 8.7841322892605767e-02 -4.5201717855332119e-01 8.0300042494629198e-01 -1.2651596930905953e+00 1.9618867097144403e+01 -8.2614563455877050e+00 -1.6387356410574512e+00 -1.4713840977923541e+01 2.5413112547768053e+00 -5.4872358977820340e+01 -1.1202380674329659e-02 -7.3064629240310730e-01 -3.9654638463006664e-01 1.2098685437913462e-01 9.5707712008847756e-02 5.9261768389965628e+00 -6.2392810784867834e+00 
      </Row>
      <Row Index="1">
        -1.5214663431505251e-01 2.5745773122453947e-01 4.3220951205279454e-02 4.1372902568261147e-04 -1.3758618313560644e-01 4.4153059305553480e-02 3.0378657592038599e-02 -7.7842898000737612e-02 -1.3894364064426618e-02 2.8749586504824287e-02 5.9779806814621320e-02 -1.0345416514201816e-01 -7.3728644916736391e-02 -7.2658993108631997e-02 -1.7157896854316346e-01 1.4513655194394581e-01 -3.4019516006868325e-02 -1.0491200329880863e-01 -2.4758969352569604e-02 -1.3232223601133047e-02 -1.9695245386040186e-02 -5.0752643402668413e-02 5.6075148723396376e-02 1.0434093099431270e+00 -5.5422351322643459e-01 -4.8287512859817278e-02 1.2490359308961121e-01 4.3891001991731793e-01 8.7960415509500145e-01 -7.9294034010687364e-01 -6.8816624287756381e-02 9.5406204907385228e-01 5.9137453123690931e-01 -8.8202497528106868e-02 5.1396752717635530e-01 4.8004924289387914e-02 -4.3583284164574257e-02 -3.3930593431359117e-02 -4.2376948337928405e-03 -6.0327491825364114e-02 -1.4425252176173067e-02 -2.6618254124856442e-02 1.6636333167996067e-01 1.7014114638514155e-02 6.5014823625363594e-02 -8.5521896778519890e-01 5.7344533783321744e-02 -1.8395949608192036e-01 -5.8209002966138346e-02 -2.3225558898402308e-02 2.0384655780799829e-02 1.5166187086453586e-01 -1.7084930524777952e-02 1.2437180114717460e-01 -1.2733572887233813e-03 2.9553275488938624e-03 1.0327546687136499e-03 -1.3876588124296563e-01 2.6725341628673752e-02 1.6846047096474210e-02 1.6913005378315243e-03 -2.6022178811794951e-02 1.4224850297081430e-02 1.1813304490382362e-02 1.2499983434615128e-02 -8.4132663468894468e-03 -1.1526543659515553e-01 1.1532999447600922e+00 -4.9660179142956007e-01 -1.2039398293068260e-01 9.9004329735651098e-02 4.3182569119840408e-01 7.7064476543158156e-01 -9.3343314719336812e-01 -1.0480892414390977e-01 1.0314613561123429e+00 6.2868506527368861e-01 -2.9515471088886081e+00 -3.6379066033820368e-01 -7.7396440098366348e-01 -7.6139285020863468e-01 5.8296390214822316e-02 -1.0112355158098012e+00 -5.6719634438779565e+00 1.1676427527723976e+00 1.4496274094338052e-01 -2.3957338345089174e+00 7.4309142813040407e-01 -1.7343939931358534e+00 -3.7532126771763323e+00 7.1839071574184760e-02 -2.9345713645222393e-01 -3.3286183801574637e-01 3.2942812436391078e-01 -3.8128368066210783e-01 2.3608401920990482e-01 -1.9511457582819927e-02 1.2336843672433928e-02 1.5409896496333292e-01 1.8011059937771712e-01 3.7770359769027158e+00 -2.3850992821304176e+00 -1.8423402075288295e-02 1.5171444415199198e-01 -1.0619973691529239e-01 6.7863565295526063e-02 6.5861911585122357e-01 -2.8340292749691448e-01 4.0037913573360295e-01 2.2257311437680519e-01 -4.7188500386713089e-01 8.8710790257398031e-03 -6.8225217723561471e-01 4.8379018795549372e-01 1.2307756036098252e-01 5.0956941434388781e-02 -2.3761859691642379e-01 -2.7133489725278681e-03 -2.3912093808283785e-01 1.4973030174303590e+00 -5.1614536141494438e-01 2.1630698513983140e-01 3.8683955355934585e-01 -8.7751683682817294e-01 -1.3894158800822538e+00 -2.0464379779421221e-01 2.8076871200826747e-02 8.8286231861859576e-02 4.3101331765094453e-02 9.3940939105612964e-02 1.2871660501537008e+00 -4.3543130123467261e-01 1.7582418039504560e-01 2.2600552315523009e-01 5.2870275329017252e-02 -4.8365030086306121e-01 -4.0063397521339539e-01 1.5536332065554892e+00 -5.0640445194128685e-02 -2.9944207934040135e-01 5.6432808363597209e-02 -2.6092143472171991e-01 7.2054022208119761e-01 8.5172131532971207e-02 1.6124138305770042e+00 8.3308208809294371e-01 -1.6780652138916607e+00 2.9871256138341806e-01 -3.4919125982753485e-02 -1.7981987773438224e-01 -1.7490245030049167e-01 1.0069410527935030e-01 1.6531110962335707e-01 2.2980918024355337e-01 -7.5139692539626224e-01 6.9732463810269807e-01 
      </Row>
      <Row Index="2">
        -2.7992176859837825e-01 4.3220951482839227e-02 7.2691895272802975e-01 8.0526668294530396e-02 2.2058157320263921e-01 1.0432476219011883e-02 -1.5922596130610464e-01 -5.3689255856264322e-02 -1.6642730199869137e-02 2.1056372067059816e-02 -7.0418592762951773e-02 -1.4434136472761069e-01 5.9121384357420294e-02 -5.5857064054733641e-01 -2.9878556563930313e-02 -1.8751933208948825e-02 8.4278684675853532e-02 3.8533334325968749e-01 1.0714167285467208e-01 -8.8841892357804000e-02 9.4985140301861309e-02 5.6131314312012404e-02 2.0126638134584867e+00 1.0233474618535356e+00 2.7967848091351755e+00 -1.0035016529876313e+00 -6.2134225245355834e-01 -7.3214707571403159e-01 -2.1104200813424883e+00 -1.8585989548033712e+00 -5.3738236031033848e-01 -9.7173770203730370e-01 6.3663044655900869e-01 -6.9769294988591291e-01 1.9092315524731446e-01 3.6233630537704942e-01 -2.9936281866062620e-01 -4.4352699616156172e-01 6.8599657998375946e-02 1.9269623645154160e-01 -7.2237195730874573e-02 -5.5941212667642258e-02 -1.4723268523108629e-01 -3.9613599772922985e-03 -6.9160616892592064e-01 -2.7276349090960350e-01 1.3451619904263509e-01 -5.2444848993766102e-01 -2.0686630632786809e-01 -9.5021323441488684e-02 2.7963006218122203e-02 3.1220079792303804e-02 -2.9090154954189013e-02 -2.2411234911400046e-01 -5.8147907338934893e-02 6.0701381463726493e-02 -7.1821911736454141e-03 -2.2170366288435311e-01 3.5745291141443987e-02 -2.5175740018138690e-02 3.9374154232135063e-02 6.6957859885680551e-02 2.2770776842686927e-02 8.6891857376368842e-03 -3.4833886585835118e-02 -1.2132934579570587e-02 2.2364640402272622e+00 1.0221182707622778e+00 3.3053047208342319e+00 -9.3447212378717692e-01 -5.1364830729317390e-01 -5.6353649878272560e-01 -1.7889338440933842e+00 -1.8090930147416231e+00 -6.3159977235427978e-01 -8.2180517006975529e-01 6.0474294649679028e-01 -7.0376970403074344e+00 -6.9113222340591296e-01 1.7050148233016738e+00 -1.2477116541436091e+00 8.3476643925405902e-01 2.0614648800784465e+00 -2.4003967833116349e+01 -5.6863820799186726e-03 -8.4936825436788443e-01 -4.7403711490379641e-01 6.8963989508455215e-01 6.5711789517627039e-01 -4.1373703734433640e+00 1.0142648451799294e-01 2.7985870326442880e-01 -7.1626025743692745e-01 5.0936903261522404e-01 2.4397914433576773e-01 -1.0960156595496682e+00 2.0384638013838774e-02 2.2459532352611555e-01 2.8727778627515849e-01 3.7773203734556993e-01 -1.2277690665992491e+01 -2.2487025728488264e-02 7.8513742731540770e-03 1.2793977328977526e+00 -8.8858545352970486e-01 3.3452014868864222e-01 -3.6250732756807196e+00 4.3876539446539964e-01 3.1982459307778544e-02 -1.1850468433169241e-01 1.3085755619542581e+00 -1.0098522575169584e+00 -8.6265793675556779e-01 -6.0501068318266582e-01 -5.4354765913323977e-01 -5.8266154487221100e-01 7.4578075286717693e-01 -1.4434928775571670e-01 1.0736025781911920e+00 -6.6826670298851176e-01 -1.1950289561444767e+00 -5.5864669806796696e-01 -2.8353588473563962e-01 7.7591797059645451e-01 1.3235862427611664e+00 -1.2718407617224184e-01 -1.6701542632357430e-02 2.3095843893258738e-01 -3.0460261072223827e-02 2.3436045461201394e-01 -3.2309403776994259e+00 -8.9426264595819327e-01 -1.7312705816319257e-01 -6.7052955611531895e-01 -1.1555289676226604e-01 4.1079891474743113e-01 -3.1209957912887063e+00 2.6114566906390615e+00 -1.4238411100577272e-01 8.6088436231707088e-02 2.3400505166768182e-01 -1.0237194287201834e+00 2.3121100069570950e+00 -1.1039147327818114e+01 7.7664013762671302e-01 -1.9961715301828065e+00 1.9303693088310236e-01 -1.2923101441118288e+00 7.9981583739509219e+00 -9.9306774547027354e-02 -5.8404863965917153e-02 4.0521526117495066e-01 7.7313952026322991e-02 1.1720524294292527e-01 -2.3986025546126677e+00 1.9621835467831632e+00 
      </Row>
      <Row Index="3">
        -2.6191500906668719e-01 4.1372859133292916e-04 8.0526668242625610e-02 2.4418920387152858e+00 3.0247200002278922e+00 5.2646239362551660e-02 1.1892982302760623e-01 2.1973505091676598e-01 -6.6811740825468827e-02 4.7394484226389311e-03 -4.6338056925988397e-01 -6.3078305953757896e-01 4.6407844539685481e-02 -5.6122504809460835e-02 -1.1249757670506630e+00 -1.9834250805260309e-01 -2.0537307483027307e-02 -7.5963391224209073e-03 6.8139548805991379e-02 2.8797989821275038e-01 -7.2754521182256809e-02 1.9775796404180962e-01 2.4485446354549603e+00 3.0372663708318137e-01 -1.2948656045309899e+00 6.8679654963482228e+00 -6.2947830096797093e+00 -2.5571368760443408e-01 -1.1075721193815764e+00 8.0880597060702242e-01 5.9731258113780228e-01 -8.7415485381285729e-01 2.8117372061907675e-03 3.3606351146414182e-01 -3.5377469375245468e-02 9.4188149755291384e-02 -1.2713848862334834e-01 -1.1682115928908599e+00 -7.5037425853691636e-03 6.9886744548582494e-03 9.1412250359401509e-02 3.1103587302172742e-01 3.7632493193041860e-01 4.5137424106223817e-02 6.9548490613787162e-01 1.5393019080291592e-01 1.4275117556498942e-01 -1.6541855811352895e+00 1.7295276012812756e-02 -4.7317283706533049e-02 6.7781642553299923e-02 5.1551273471064918e-04 -9.3796129801173703e-02 -1.3999683162244009e-01 -1.0556230835267158e-01 2.1800479038644294e-01 -2.5442935547155526e-03 -1.4616165336154480e-01 1.0174149473533500e-01 -3.8092441464535165e-02 2.2225957178081176e-03 -4.6369578346851306e-03 3.5467108891595843e-02 1.5541545973944918e-03 -1.2968042020973036e-01 -2.0748377078067128e-02 2.5613496422098194e+00 2.9169086418916068e-01 -1.0812706721568353e+00 8.3355342671537400e+00 -4.4725327740565435e+00 -3.1885813827493470e-01 -9.4279908426623793e-01 1.2409532955001070e+00 1.1638918970185568e+00 -6.8018530642164077e-01 -1.6802713397044272e-01 1.4571621091861278e+01 3.7420900760774525e+00 -5.2390579181148333e-01 -3.2037087858017474e+00 2.9119291352367789e+00 -8.1292041607784995e+00 2.0559442683499576e+01 -9.4227913743396552e-01 -1.8125867473838597e-01 7.4949837584982604e-01 -2.1555617686312895e-01 -8.9998229686784725e-01 5.3520821245983612e+00 1.9518945422855663e-02 -7.7792234343317246e-01 -4.2844032241417823e-01 3.2994522064589360e-01 -4.2995774953141108e-01 -5.5600285269356728e+00 -3.1225097151849812e-01 2.3316008963532253e-02 2.7354431281168723e-01 -1.4263563808578588e+00 2.0288517868952713e+01 1.0361317915003337e+01 1.1651666006994783e+00 5.7032435903877854e-01 -5.0462736377226278e+00 1.1820471396062153e+00 4.6291461254553496e+00 6.5718035617078518e+00 -6.0268883300033949e-01 -5.1738542888176542e-01 3.7244458330204078e-01 6.2237241863328707e-01 9.3128586102102417e-01 3.5327678194050716e+00 8.3631062980366044e-02 5.4940771842999081e-01 -1.4632184449698835e-01 9.7523101120948852e-01 -1.8524302608733478e-01 4.6170575294513183e-01 1.9751763653999876e-01 3.1733674136018548e+00 7.4453670605054167e-01 2.0039691008340927e+00 4.5536661010892203e+00 -1.1538966607487806e+00 2.2253796689796548e-01 -9.3374850009591981e-01 4.5252303451733111e-01 -9.4549257292063871e-01 -1.7378695678613440e+01 5.4048695356315672e+00 -2.6999654566708706e-02 8.8586353020041753e-01 1.9829996057456278e-01 1.1776112964408929e-01 -2.9814231476227768e+01 -4.4287502363442748e+00 -5.6830167066069226e-01 -4.4243926085072172e-01 -1.9443954876764374e-01 -1.2130690614068119e-01 2.8901265600239867e-01 7.5746161848175007e+00 -3.3912150461246569e+00 4.9077273280605027e-01 -2.6473792116231749e+00 -1.0124593084051872e+00 -2.3212113420595870e+01 6.4596252425336820e-01 4.4260768577725051e-01 -3.5720387474930071e-01 -1.3549615293473391e-01 8.7083000872199473e-02 2.3082777620317558e+00 -2.3141985607997935e+00 
      </Row>
      <Row Index="4">
        -2.7302384926577634e+00 -1.3758618624206087e-01 2.2058157388521382e-01 3.0247200034610899e+00 3.1049162695543490e+01 3.7689485375693492e-02 9.3884213578706410e-02 9.0723717805193144e-02 -2.3272454474065207e-01 8.4485243143772237e-01 -1.3132451691993423e+00 -5.9556927512281774e+00 5.8802826668421171e-01 5.4306421796495619e-01 2.3394687776383587e+00 -6.7281952122967148e+00 3.2490847227941494e-01 7.0577476155875640e-01 2.5601328678258484e-01 8.5312258420629261e-01 -1.3066265079289598e+00 8.4515668403747368e-01 4.3305570561416260e+01 -2.3285112761437818e+00 2.4763591425965856e+00 -9.5669243444121292e+00 1.1290273765514165e+01 7.2508514776622923e-01 -4.2745504257830440e+00 4.4245267993466779e+00 4.0803180532821717e+00 1.5407183354438203e-01 -2.3501154178948838e+00 4.7946307233219922e+00 -2.5739703831563726e-01 -9.5281380343490052e-01 -3.8819063006747139e+00 -8.2134511153391969e+00 -2.4503548062623271e-02 2.7527244154993358e-01 7.0415204747056592e-02 1.3523450792138394e+00 1.7677657931060857e+00 2.8798315322273832e-01 2.8897311672357380e+00 -3.1278728525584681e-01 -2.0608359501258042e-01 -6.8840111205015919e-01 -1.7083596778109396e+00 2.5003103693540397e-02 -4.3714233492006205e-02 1.6715665149400072e-01 2.8235026120404849e-02 2.9075139337933908e-01 3.7369408732795373e-01 1.6558620492506289e+00 9.7323001177129723e-03 2.6958310784138467e-01 1.5368834191659192e-01 6.5225315544757301e-01 1.2854148443212629e-02 2.4747572813786858e-01 -8.9507837293009346e-02 4.7669038775255614e-02 -3.2360762761088513e-02 1.0346356377265037e-01 4.0332140127373414e+01 -1.5946069425763474e+00 2.0448071477035192e+00 -7.5550330559010170e+00 2.8598682827872786e+01 7.8322512671942102e-01 -3.3030948162999874e+00 5.0763838326201363e+00 5.9123252021398711e+00 9.1691989243232896e-01 -2.2579832977079870e+00 8.6465076503718436e+01 2.7293838319149497e+00 7.0835867353253921e+00 -1.9255126295439506e+01 9.6664241850415067e+00 -6.7872329439577015e+01 4.7611032740404880e+01 2.8969356358780005e+00 3.1590827788515163e-01 -3.2005502766937433e+00 -1.6877194315407129e-01 -2.3150684439583529e+00 2.7913454527214526e+01 1.8039348162458735e-01 1.9037470228403672e+00 8.8886773010366049e-01 -1.2551164061138322e+00 -7.7810683737111219e-01 -6.9128974723426246e+00 -1.3175205139008817e-01 6.4329998963801005e-01 -1.8922037236307649e+00 8.4652789270353246e-01 1.6366230476665595e+02 3.0842030320929759e+01 4.5844458563716826e+00 -2.3838899125751638e+00 -3.7942986379747879e+01 2.2818367290578422e+01 4.6153036221128900e+01 -1.0870471425391717e+00 -1.3883865442494248e+00 2.0630885429766113e+00 5.7846518624247523e-01 2.9071803016816773e+00 2.7532645753526594e+00 -5.7451072157628644e+00 -8.1590324700893913e-01 2.2553531878241726e+00 1.7156962875237696e+00 3.1873797460008801e-01 3.5069596527761071e+00 6.7148269499849427e+00 1.8068639061096450e+00 3.7668774092667183e+00 1.5537552452492926e+00 4.7568967343783140e+00 3.9499673075873943e+01 9.5611445456306967e+00 5.0068384152274481e-01 -4.1180101358635559e+00 1.0355449495772835e+00 -4.0757585872198243e+00 -1.0539815890173850e+02 1.4784068647575491e+01 6.4437001420064333e-01 -9.5381428557987213e-01 1.4153932975093064e+00 -2.8184156038306987e+00 -1.5336158126248597e+02 -3.6554922803716472e+01 -1.4669045050653912e-01 1.6071595629778646e+00 7.0486594989698448e-02 1.1623959082908453e-01 -5.7710958963980374e-01 -7.5026532978342402e+01 4.9844963560817481e+00 -8.3784752024374711e+00 -2.1569386810943556e+01 1.0419177624499042e+01 -1.3140809939973849e+02 1.4071492461789179e+00 2.0905163213824527e+00 -2.0740327621123988e-01 -1.1658904274782924e+00 -7.2869327070943712e-01 4.6842180497175745e+00 -3.6566003726872225e+00 
      </Row>
      <Row Index="5">
        1.5233040607610321e-01 4.4153059409151436e-02 1.0432476186915264e-02 5.2646239114250343e-02 3.7689485154623906e-02 1.2027228135853968e-01 8.1218979056483939e-02 -1.0368725776656908e-01 1.1705529184682000e-02 -9.3928499177504121e-03 -1.0478377263573409e-01 -3.6820575482467366e-02 -8.2950983199469204e-03 1.9297616745541514e-02 -6.9381679813974965e-03 5.4877207313306382e-03 -2.1526460261751288e-02 -1.8520867110558534e-01 -4.9658155278898414e-02 4.9082926281404579e-02 -7.1273584770825293e-02 1.7504118508495196e-02 8.0507829743338966e-01 2.3967865058110455e-01 -6.5897058526351449e-01 5.3109475668153971e-01 3.4348929060957478e-01 1.3965958684710267e+00 1.0001011907624997e+00 -2.2527415220336340e+00 3.3089593480357749e-01 1.0766637201141720e+00 4.7506138001890791e-01 -1.5756208868985024e-02 7.4473878017267583e-02 -2.9765386284901198e-02 5.7522287059080683e-02 -1.5978679502040034e-02 5.2322712782851409e-02 -1.1099468848402733e-01 -8.0482320788899359e-02 1.0056005650877969e-01 1.6913473045604346e-01 1.5140316555156502e-02 -1.7048783933131259e-01 -1.1816515345519009e-01 -1.5140483572458178e-02 -2.4089224219454364e-02 -9.3780308368498072e-02 -6.6038700134653891e-02 2.2212683932395456e-02 1.8026043780715334e-01 -1.2585400330108748e-02 9.1827844172234413e-02 -2.7289037227913111e-02 -1.6598367120928232e-02 2.3316507010570334e-03 2.0999025874794595e-02 -8.0103100633427404e-03 -1.8894859384371566e-02 -3.5597252470328071e-03 -3.3775775105852675e-02 -4.6830958900766669e-03 -5.3344829775987430e-03 1.5381619290621987e-02 -3.9096763346613602e-03 1.0043747972841146e+00 2.8170335645929379e-01 -6.4624956016929269e-01 5.7804248102271472e-01 3.0134015555317617e-01 1.4747946757960866e+00 8.4439794400624946e-01 -2.4645617535105431e+00 4.8147801750306213e-01 1.0599933466613458e+00 4.1769615270206195e-01 2.8313989552447034e+00 6.1798832499701595e-01 -4.5116953529848880e-01 5.2918632351294237e-01 -4.5699001927897775e-01 2.6378637247624681e+00 4.4723191915434768e-01 1.7877577498874042e-01 -1.6734088227402730e-01 -4.1843292724518194e-01 -8.8337030101928116e-02 -1.8505231654029330e-01 -1.8557686888194027e+00 -2.2477390380431540e-03 -3.4101751353324342e-02 8.0825987425958049e-02 -8.6419004479490760e-02 9.9178770024431095e-02 -3.0043507370974193e-01 -4.0535460105463279e-02 4.4373432156289583e-02 -2.9632270571253765e-02 9.6912923454963551e-02 -6.2446030989981747e+00 2.1299689041101724e+00 9.1428961775540607e-02 3.5538768287811173e-01 -2.1115963746037103e-01 -3.0209392646080691e-02 -2.2371977999672197e+00 -4.8599508833080329e-01 1.4076132566419410e+00 4.6556194674855639e-01 -1.4842813079407824e+00 1.4743391798582173e-01 -6.8841417853718667e-01 -5.2189665653144179e-01 2.8253971338099937e-01 1.9082625008508319e-01 -2.9892547085609050e-01 7.2455523028339297e-02 9.2981961530245627e-02 -5.6706516979700483e-01 -1.1893122711249089e+00 5.6410501190128604e-01 1.5600997779776962e+00 2.7966270272058702e-01 -1.5624909287760715e+00 -6.0481495974302524e-02 7.2369290026827154e-02 1.2627042596903948e-02 1.1527194847274139e-01 -1.5914330914430952e-02 5.3750535087451681e+00 -5.2543314968437826e-01 1.8487705835207685e-01 4.5477020767580623e-01 6.7704917377323981e-02 3.4976101501693557e-02 5.1111406300041544e+00 -1.2323740922020088e+00 -1.8610332423167983e-01 1.0183014870524398e-01 -6.1844466681016522e-02 -1.6690586387784301e-01 8.9006717351482223e-01 6.2996437282747308e-01 -2.8804707932550633e-01 3.7077252263151195e-01 -1.6800192653981685e+00 1.2118358713729016e-01 2.9548024590405362e+00 -2.3542879226617536e-02 -3.4156616274799864e-02 8.2041853123343084e-02 8.7089553316328602e-02 1.0469280073909232e-01 6.3637079776795974e-02 -2.1112074958006710e-01 
      </Row>
      <Row Index="6">
        1.2998707412677390e-01 3.0378657633810077e-02 -1.5922596188704691e-01 1.1892982317619992e-01 9.3884222204990431e-02 8.1218978248151913e-02 1.0156695402304068e+00 -4.5551611311580711e-02 -6.4041805565343224e-02 -2.2373159869280311e-02 1.4288753517715497e-01 -2.1115508615948297e-02 -6.6814582826677002e-02 -3.0245417342422615e-02 1.4186141316510442e-01 2.7527264499984561e-01 -3.6957493964725430e-01 -1.3411944491254939e+00 -8.0768580371509913e-02 8.0119694221967630e-02 4.0914170870159211e-01 3.8600667434967262e-02 8.8026905880704986e-01 6.0659955958460909e-01 -1.9078029314240279e+00 4.0564730887470146e-01 4.6778195656856614e-01 9.4684841975289069e-01 8.8874233183975822e+00 -5.7590879726129518e-01 -8.4489267213773256e-01 1.1400076474919425e+00 -1.7003753869304913e-01 2.3139472300433175e-01 6.0786874701801524e-02 -1.0059727362058120e-01 -8.8403604265755456e-02 -1.3537667846922302e-01 -2.9570338485452258e-01 -6.0901053912645520e-01 -6.0427850079944938e-02 1.2163287446459821e-01 -2.4474265851594540e-02 1.7793960655146532e-02 5.8310717462278372e-01 -2.5838059027156302e-02 7.4696288671613986e-02 2.1343461225340293e-01 -4.7029987539266460e-02 2.1374666701243213e-02 6.5568894277679979e-02 4.7266397185230322e-03 -1.7066952131779119e-02 -1.1085100632226239e-01 -1.4622568220843384e-03 -7.3548199211791357e-02 -2.5106124920471259e-03 -3.1591084141588302e-02 -6.7239097555090388e-02 1.3618330921833399e-02 -8.2042512704265519e-02 -2.2521783779346013e-01 -1.4251935000238556e-03 -2.4142273978185212e-02 1.8221072463214028e-02 2.5241048245805749e-02 5.4838643473028803e-02 5.5534490967115113e-01 -2.0861871207982534e+00 3.2690586884172301e-01 9.6646494409614836e-01 3.7506329423098494e-01 8.1574990497839153e+00 -6.8333469940823521e-01 -6.5904505053278006e-01 1.5123369618099289e+00 2.4799441085334717e-02 1.3411468680441700e+00 -2.8215153098306045e-01 4.7466646742291863e-01 -1.3960848192702513e+00 -2.4890109279102237e+00 -7.4119399834380069e+00 1.4174301448240515e+01 -1.0175231418327835e-01 3.8179203502556947e-01 6.4760721957820899e-02 -5.8394187792968677e-02 -5.4994749903143259e-01 -7.9099631922230129e+00 3.3952200748747038e-02 1.1023642117591216e-01 1.0581351983830034e-02 1.1605398482954554e-02 -1.2891844597189106e-01 2.9272578167727625e-01 -2.5292686283159047e-02 -2.8100462699788842e-01 -1.8399291779796551e-01 5.5984113912052491e-01 1.6288901178841584e+01 2.1269681917298122e-01 -7.1857240991447968e-02 1.2746550062604882e+00 5.9707872107847493e-01 -1.7335205442995747e+00 4.7248458883697708e+00 -1.3028480226000729e+00 1.7131909530408147e+00 1.1307772386599793e+00 -1.5302286656786668e+00 -3.5589633213870819e-01 -6.5170282125654921e-01 -3.4582327090855536e-01 2.0270780810158096e+00 1.3506362995238685e+00 -2.1491010916262430e+00 -2.9305697007341913e-01 -1.0075338999606132e+00 1.4342258432386175e+00 -5.1113752881949126e-01 7.3662294775558768e-01 7.2384522780346572e-02 -2.3114984947199702e-01 -5.7595047222885114e+00 1.9538425212454025e-01 9.5438879419046857e-02 3.9301746158873940e-01 1.0870831120434810e-01 1.2401556770118898e+00 -3.2654025507608821e+00 -1.3293219028717296e+00 -8.6899588876976241e-02 1.2238007931927858e-01 -1.3981649197893753e-01 6.6587254637152204e-01 -5.0941123866111013e+00 1.1088271665743044e+00 1.7784261135570181e-01 1.2107113734107429e+00 -2.9377514188565060e-02 -1.9888016147838306e-01 7.4889836486778272e-02 2.1242753475343420e+01 7.5873044735015283e-01 1.7532443635248569e+00 1.5003430244589220e+00 -5.5870801428183547e-01 -1.2941465754872752e+00 -2.8841240928217776e-01 -1.2407554019241762e-02 1.8846827948158279e-01 3.0695057393939024e-01 2.8756958416243289e-01 3.6217157923771043e-01 -3.4737383830038837e-01 
      </Row>
      <Row Index="7">
        -2.8451937378165137e-01 -7.7842897939356670e-02 -5.3689256257575646e-02 2.1973505155001105e-01 9.0723720171120639e-02 -1.0368725762597296e-01 -4.5551611746844245e-02 6.9185796790327558e-01 9.2689156080950880e-02 -4.2063503289900511e-01 -6.3516515054741784e-01 2.7934426336199569e-01 -3.8247274018833738e-02 1.5898873414556591e-02 -1.4347751195701447e-01 4.7143386483127867e-02 -4.0647452780226717e-02 2.0778291729817397e-01 -8.1614836376597139e-02 -4.7627134457877709e-02 -1.6828548731068457e-01 1.2817979753116043e-01 -2.8802003585098341e+00 -6.9977564372643619e-01 5.3011484675714884e-02 -6.7541591167088688e-01 -3.2538833020104918e-01 -2.4469855331762851e+00 -9.8073805477672382e-01 6.7001021487889592e+00 7.7899994921391391e-01 -2.1679312115486700e+00 -4.1911719779367440e-01 -1.5121421531842330e-01 -8.9148923398916780e-02 -2.2727259951593581e-02 6.6872978547345627e-02 1.9635644360488527e-01 -1.1028288083483326e-01 1.9716501581105450e-01 2.8628563846599286e-01 7.8104955210732782e-02 -2.4748817226806830e-02 3.8033921185941254e-02 1.0974944900354233e-01 1.6734639880977814e-01 -1.5007181826237831e-01 -2.4383340036482182e-01 1.2369009509392764e-01 1.8657671907228102e-01 -5.3704988983940112e-02 -3.1103745437621216e-01 1.8264901390884096e-02 1.9522855372309839e-01 -1.0718646259402319e-01 -4.0255888017764807e-02 1.9220983277251424e-04 7.4906337853607854e-02 4.9166845577982982e-02 4.9746539264714396e-02 -1.2785378037729077e-02 5.0341398980315553e-02 1.1772232211976756e-02 5.4841016372144721e-03 -1.7853738477673242e-02 -4.1824802059908253e-02 -3.1071735435644392e+00 -8.0275488819954255e-01 -1.5085197107752846e-01 -3.6851359922131399e-01 9.1832241486284660e-02 -2.5900057892334631e+00 -7.2578752974203731e-01 7.3993785296664001e+00 8.4011155120565895e-01 -2.7233538100562518e+00 -8.6775736138504822e-01 9.8869289664567397e+00 -3.3736074456306664e-01 2.3478147416532029e+00 -6.9000929233784980e-01 -1.5891820555177496e+00 -3.0146153071675599e+00 1.0465021469372672e+01 -4.6594771640826682e-01 2.4876581505920292e-01 6.6730311657980257e-01 -2.3185157731710920e-01 4.1220390692761555e-01 1.6220567146327561e+01 -1.1637255599632615e-01 1.9150307369789737e-01 2.3482127911348377e-01 -2.1570493535982249e-01 1.0204740480299535e-01 -1.1022381643933084e+00 4.3948963432404085e-02 1.8674301183064590e-01 1.2170825817642550e-01 -4.1992925916366486e-01 -1.1322979437846619e+00 5.3926936039239326e+00 -2.9713820778689087e-01 -2.0463420228808360e+00 9.2227420043335817e-01 -1.4389242921897258e+00 1.8134171229196170e+00 3.0369223241934145e+00 -2.9863480242647094e+00 -7.4173676645914477e-01 2.4505381634920256e+00 3.2513870891868024e-01 1.3321163908722156e+00 4.6173916474983612e-01 -3.3281479562371141e-01 6.5751727114703673e-02 3.8225183800251378e-01 1.1017533987971576e-01 -2.9969884261317326e-01 -5.2598144000528686e+00 3.7946316166212677e+00 -5.1937709850928426e-01 -2.8454643142431064e+00 5.2397323303932009e-01 2.0805464361072836e+00 8.4512427636081977e-01 -6.8680171568151649e-02 -1.9054386361602749e-01 -1.0982942962825237e-01 -9.6767217678028050e-01 -2.3777312767197145e+00 8.8032040554347146e-01 1.6862632222477644e-01 -5.7971123593737661e-01 1.1197025641180625e-01 -1.1073782809425309e-01 -1.3969049252875720e-01 -4.0661533301341457e+00 -6.8308729718541816e-01 1.0782884343917720e-02 -1.8221382096067484e-01 1.6585392981428793e-01 -1.4191428094648657e+00 -1.2709591850854565e+01 -1.5469957284545619e+00 -3.5618788227669853e+00 2.7229252131532320e+00 8.0834116908706588e-01 5.3795954470946015e+00 3.8284921423340140e-01 3.2825584344072672e-01 -1.8430386653730246e-01 -4.7926774296890789e-01 -2.8149327133319407e-01 1.2647574940699630e-01 2.8802226041200640e-01 
      </Row>
      <Row Index="8">
        1.9535002383123512e-01 -1.3894364235789936e-02 -1.6642729765695724e-02 -6.6811740951049706e-02 -2.3272454766145251e-01 1.1705529320091720e-02 -6.4041806385602307e-02 9.2689155823777042e-02 1.8316266035673329e-01 -1.3457416703800479e-01 -2.0179008553937389e-01 -8.7598913165451209e-02 8.1983210886039590e-03 -2.1565007343697151e-02 -6.6611933862462072e-02 -1.2274551879888893e-01 2.7470263153984060e-02 8.0517765116482481e-02 4.2536765634274346e-03 -3.0854091576812598e-01 -1.4875256236692266e-01 7.1638265035344609e-02 -1.7455434123819003e+00 -1.7304054715217032e-01 3.5271095550065343e-02 -4.6229702296294833e-01 6.2641639494695589e-02 4.2775869777365777e-02 -7.9913999535648872e-01 5.9270533327383756e-01 9.9238535138437534e-01 -2.0682631707492757e-01 -2.4667876950918169e-01 -1.7140611335452596e-01 3.2913125466939412e-03 -4.8572182965321876e-02 -4.5268335765001118e-02 8.9160078591161207e-02 1.4584362357539123e-02 6.1332916458813488e-02 2.2447412471720760e-02 -2.1149598224462368e-01 -2.1401491610350126e-03 2.0419450120891369e-03 -4.0170178790091063e-02 -1.1615642061308001e-02 1.7723273929622453e-02 -5.0332906868721938e-02 6.7726351939040974e-02 1.2866180769188424e-02 -1.7527717196045463e-02 1.3893084344759868e-02 1.2674403616201613e-01 2.1914857669842847e-02 -8.6598557288813383e-03 -2.8124862534193440e-02 1.8637332327155949e-03 2.4687645034747900e-02 -1.8888389841066333e-03 -6.6054856874988577e-03 6.0668129971110556e-03 2.0933160253511933e-02 -5.9060157217147944e-03 1.7189757247442233e-02 1.3319087330151209e-02 -1.1695741400493297e-02 -1.7776727091481697e+00 -1.7108194336312821e-01 -2.2926463127235897e-02 -5.2632065845261833e-01 -2.2729091743372387e-01 9.9388412064064929e-02 -7.4734119369002339e-01 7.2858080847221862e-01 5.5911425806348714e-01 -5.0183282889788128e-01 -3.5969671378504298e-01 -4.1477271819287189e+00 -7.7416987063084386e-01 5.9914554272301346e-01 -1.5699198870065389e-01 1.0302978453849039e+00 5.2401514583152675e-01 7.3555061648824349e-01 3.1167304669873080e-02 -2.6689106347588885e-02 -2.6923181126399822e-02 -1.4098005254154145e-01 -5.8357140292423537e-01 2.9033142477966862e+00 7.7581272924903463e-03 -5.9228849145320228e-03 5.5079198124656975e-02 -4.5554442407261697e-02 1.9054745143412077e-01 1.2064193400713491e-01 8.5548827440648706e-02 2.1021750024672081e-01 1.4332825324881510e-01 -2.2721402600955304e-01 -3.0812237731530630e+00 -6.5980189297932279e-01 -1.4044049717076845e-02 -4.0733751910710270e-01 2.0864518525183606e-01 3.6134533400433244e-01 -6.8281895368217960e-01 -1.5196669365511006e-02 -2.9773275187647019e-01 -7.3924455601473871e-02 -9.6424138788371583e-03 2.1557186622466429e-01 1.8678240125518641e-01 3.4929142328045915e-01 -1.6798793244020810e-01 -6.5186294274061585e-02 1.9459594509183717e-01 4.6757957544518725e-04 4.3227348082291428e-01 -1.6867098881353575e+00 2.8351263204555399e-01 3.5136510705447055e-01 3.1913753969572034e-01 1.3197399923571174e-01 1.2679372787006287e+00 -7.2971410218606514e-01 -2.4177031516470365e-01 -1.2440704612516151e-01 -5.6011799311745825e-01 -1.7375549690666281e-01 8.9498605103995033e-01 -4.7641345317557504e-01 5.1322197072160687e-02 2.3851198431721946e-01 4.8995148375162390e-02 -1.2457643723394350e-01 -3.4759528571581022e-01 1.7165054048937278e+00 -1.7327423581577681e-01 -3.3461828631792256e-03 -2.6282300957578553e-02 6.8838287459577346e-02 -8.6633815139212800e-01 3.9650764404111101e+00 7.9740977151861592e-01 -1.1780793744223459e+00 5.8570801919700766e-01 -6.0639098590210572e-01 -7.4877668267930630e-01 1.0087421287909755e-01 5.3779344714294741e-02 -1.2048068027085346e-01 -1.0310577963779322e-01 -5.6044320306655633e-02 7.6153582370025152e-01 -6.2433804501478285e-01 
      </Row>
      <Row Index="9">
        -5.7392404407735853e-01 2.8749586546642836e-02 2.1056372275048474e-02 4.7394480639517816e-03 8.4485243135080579e-01 -9.3928497644885037e-03 -2.2373160016636754e-02 -4.2063503360213195e-01 -1.3457416713672382e-01 8.9024535470793031e-01 3.6092715345080939e-01 -4.9461239498503662e-01 2.4347878970084058e-02 -1.0660227302956272e-01 -1.8445617133014669e-01 -6.3541423831419697e-03 4.9455468364342225e-02 8.7916134579437040e-03 1.8602996499372659e-01 -2.8887448996965698e-01 1.7771547137334177e-02 -3.1172837128962044e-02 1.1226917301563069e+00 3.8313923294099372e-01 -6.3292231855790348e-01 -1.8962115027712784e-01 -4.5108474319290520e-01 5.5673114949379754e-01 -1.7695135274139331e-01 -2.5892377347776390e+00 -7.7491467421353077e-01 1.8684066241927033e+00 -5.2302390501474727e-01 1.8216974087680005e-01 4.9451437869783121e-02 4.9537957021618506e-02 -6.8224588976658174e-02 -8.9087119748013144e-02 4.8918826092950118e-02 -3.6603978371893602e-02 -1.4735538845481935e-01 -5.5187349620196469e-01 -1.3667561217387536e-01 -8.4955740254269052e-02 2.5693794759130878e-01 -1.4014880364887269e-01 -5.5577947883438117e-03 8.9853094024676672e-03 -8.1545843557671027e-03 -4.6609342336111838e-02 3.3161312905545130e-02 5.6635557731988105e-02 1.3611152141717064e-01 -5.2924352243679618e-01 1.1738174571962266e-01 2.3543223342363007e-01 7.0464089905267202e-04 6.0985463701661580e-03 3.4086034141485033e-02 1.9179255343137434e-02 -6.2328247722081686e-03 5.8924340046454318e-04 -1.3531950744265749e-02 5.6350783643699040e-03 -9.7836520257147591e-02 2.8780665663741885e-02 9.2119781723471306e-01 3.3772062109121903e-01 -6.3401796125653742e-01 -4.0181574733415104e-01 3.1568754317198966e-01 6.1326657142400587e-01 -1.8524572326057065e-01 -2.8551625332129547e+00 -1.6705219923927721e+00 2.6093635701970941e+00 -2.5003965774975290e-01 -2.8138443884006401e+00 -1.6406809828359070e-02 -3.7438959355928114e+00 -1.6298357462316557e+00 -1.0009207393754809e+00 3.0328294388846189e-01 -7.2043933900185664e+00 9.4030782663690304e-02 -1.5751574076247798e-01 -1.4274278374060512e-01 3.7596115686345810e-01 7.3624925919449424e-01 3.5728482827965884e+00 4.3551584332834348e-03 -7.2770505936800678e-02 1.5061251980988513e-01 2.4158642825067300e-04 -3.3566792869720530e-01 2.0699158466719902e+00 -3.9328402469557405e-02 -2.2211061208253180e-01 4.6846438298734222e-02 5.0653410472960014e-01 -1.7226322699794139e-01 -9.4050765188877818e+00 -1.2504727713362990e-01 -8.7797240548891065e-01 -1.0178926518184959e+00 9.4884160583090238e-02 1.6900286369056516e+00 -6.6631882588635616e+00 6.5708545472981772e-01 1.2846348708311577e-02 -6.8224083589625051e-01 -8.0823750020863505e-02 -6.4112324454617919e-01 -1.6597174525226421e-01 -2.0324427137782434e-02 -7.5604420186731858e-02 5.1876322599216790e-02 -8.4202504285105159e-02 -5.0160015234723687e-03 5.4728866406885306e+00 -1.3568662106358305e+00 1.1513700338730990e+00 9.5263860312257720e-01 -1.0215696655246491e+00 -1.0989885030742386e-01 -6.3876727302506264e-01 -3.5009650508479140e-01 -2.2400481491415281e-01 -7.7462733621831559e-01 1.1390448004056997e+00 8.9735770644381319e-01 -1.6614213598735201e+00 -6.1923595488827221e-01 1.4489878675504550e-01 -2.6639150076378093e-01 2.3403294833869742e-02 -2.1124739137617325e+00 2.8746858100344204e+00 4.9685196885265431e-01 -1.0893205955536178e-01 1.6419383455624015e-01 -1.6505682789254572e-01 8.3642981208456391e-01 -1.2939752809850916e+01 6.9592600286272577e-01 2.0841710379109841e+00 7.5334054598085043e-01 4.6473955357201635e-01 -1.1305266055157972e+00 -5.8984901052470073e-01 -1.7692205596718868e-01 1.8950085419913987e-01 1.1645736502421990e-01 1.5355923650615419e-01 -1.4888909122330498e+00 1.6666795367800034e+00 
      </Row>
      <Row Index="10">
        -5.0828648207907179e-01 5.9779807134744511e-02 -7.0418592679290085e-02 -4.6338056961179441e-01 -1.3132451660699667e+00 -1.0478377288958571e-01 1.4288753605286789e-01 -6.3516515049180333e-01 -2.0179008553600805e-01 3.6092715331514946e-01 3.2876136178438538e+00 -3.0053120344160089e-01 -1.9141830827746911e-02 1.0051432940174197e-01 3.4415705343967801e-01 3.2581900156351712e-01 -8.5834888725737135e-02 -3.5879193143584159e-01 1.2284224410844216e-01 -1.7232462071920515e-02 6.3816107460711136e-01 -7.9299347934616271e-01 1.2989269879703960e+00 -1.0834342797437728e-01 -7.2128649464675521e-01 1.2964005276723507e+00 1.2049049421494413e+00 2.2875541214856582e-01 3.0523398982299459e+00 -1.4472913026462528e+00 -1.6157684336071816e+00 -7.9398813447120187e-02 4.0654084787938494e-01 -5.1129759832244903e-01 -2.4664908836169236e-01 1.3097598170898214e-02 1.6946047555976937e-01 -1.0763881030205585e-01 -8.2858689805912211e-02 -3.2902818064059053e-01 -7.1323172642913532e-02 1.5559990211916105e-01 -4.8948398956159722e-01 -2.3454286245773795e-03 2.2902522928374461e-01 4.4016972795899018e-01 1.3064395761762770e-01 1.0214914352960789e+00 2.5572716224425740e-01 2.5571278210932736e-02 -2.2947796716986995e-03 -1.6828618400321721e-01 8.9829259993257748e-02 -3.7325957353380890e-01 4.5495303705889018e-01 -1.2901092307892270e-01 -5.4594283199601301e-03 -3.6314953152502077e-02 -2.0754216641142054e-01 3.4954518572316851e-02 -3.3062344245933038e-02 -9.2347346682404907e-02 -1.6523217713184959e-02 3.8152130494899496e-02 -8.6032946256127986e-03 2.1142136764980937e-01 7.3651741946324023e-01 -1.2816776123729132e-01 -6.1203280037449104e-01 6.7501880491769373e-01 2.6318751147315256e-01 7.3865968542206895e-04 2.6166781232672123e+00 -2.0328099162203985e+00 -1.7216719421563469e+00 7.1396807109610061e-01 2.2911925440217891e+00 -5.9900972110994548e+00 -1.3591929505851481e+00 -2.1543273550091513e-01 -1.0834842377746190e+00 -2.1431021667683510e+00 -2.0201355450871006e+00 -4.8478463395072069e-01 -9.9687561233150146e-01 3.0221757489929418e-01 1.1898779321912039e+00 3.3504870934492154e-01 3.3528999792788454e+00 -2.2996180898348264e+01 6.7309187171373144e-02 1.0148154371581233e-01 -1.2731719925915816e-01 1.6604558525218996e-01 -7.5121950821692707e-01 2.6050325294555479e+00 1.5939779919972449e-01 -1.2178035178790703e+00 -2.3488953216853772e-01 6.8897754884093676e-01 -8.9012504973477569e+00 -3.4373262469967045e+00 -6.0157068310388739e-01 2.3928325341943806e+00 4.4336108394858509e-01 -1.0746435896189406e+00 6.6968488807300730e-01 -5.5852232172601104e+00 8.8589137601797441e-01 3.4868185691935094e-01 -6.2736302289906765e-01 -9.5305460026232258e-01 -2.9773993136768695e-01 -1.8061484645770416e+00 6.5382039886368304e-01 5.5277857656145568e-02 -1.1298810735698939e+00 -4.9913997744924682e-01 -8.3038283337373286e-02 6.3117201989526119e+00 -1.0928277524983205e+00 -2.1341936780914414e+00 -8.2200679981829206e-01 -1.8583827841547720e+00 -1.1457061201856220e+00 -4.4042851016354101e-01 2.0677780970910969e-02 2.6993179163396031e-01 5.2771209170172695e-01 2.0995388734036013e+00 -2.5248920833660122e+00 -2.5854573617847625e+00 -4.6764322583062534e-01 -1.2106389082077140e+00 -3.1065825752471386e-02 1.0497047425502519e+00 1.7972836906485554e+00 4.2567633373845135e+00 4.3179450486361635e+00 1.9807318902629429e+00 1.2129932063370246e+00 7.2537902019862299e-01 8.4795231701421159e-01 2.7093544495383867e+01 2.9618722033125668e+00 5.9533908391846069e+00 3.8966185833545652e+00 1.3418645676725656e+00 1.5351160019845167e+01 -4.3928538395651334e-01 1.1664318521287836e-01 5.8046465918107626e-01 9.0074616146207487e-01 1.3489306135425733e-01 -1.9536386657726863e+00 1.2561700751507878e+00 
      </Row>
      <Row Index="11">
        2.2054525814909809e+00 -1.0345416609164276e-01 -1.4434136699085526e-01 -6.3078305959916281e-01 -5.9556927596645535e+00 -3.6820574742664043e-02 -2.1115507793047560e-02 2.7934426189327682e-01 -8.7598913832270656e-02 -4.9461239488952757e-01 -3.0053120083897794e-01 9.3330606379640901e+00 -2.2902037698036004e-03 -1.2069242949454013e-01 2.6312734566024654e+00 3.2585151720282917e+00 8.8296772989193459e-02 -2.5221726656826558e-02 1.1637215557952851e-01 -4.8563844259305111e-01 -2.6966223093549030e-01 -1.7373720542366225e-01 9.5738862171001404e+00 -5.0664164146698631e-01 2.6120788349264346e-01 3.3103788285045472e+00 1.4248619908700710e-01 -1.3684676641491561e-01 -3.5932437319845767e-01 1.1386189771676274e+00 -1.4358409214499102e-01 -5.2691546906220577e-02 3.7369710419479141e-01 -3.3423581324893165e-01 -1.8595314393946463e-01 -5.3139907148450050e-01 -2.7833878019266664e-02 8.4195053668437969e-01 -6.6695016307116189e-02 1.5278829041891387e-01 3.4643337902278422e-02 4.1190196345195246e-02 -7.9574276220806106e-01 1.5031368563753611e-01 1.4573186793354374e+00 4.9111679475439513e-01 -4.8819603239933573e-01 2.5679711760080179e+00 1.2614690638590087e-01 1.7396011213777252e-02 9.3422252258617014e-02 -1.9443461635433798e-01 1.8449803205543347e-02 -9.9302272602104683e-02 -1.2569653932095542e-01 -8.8231420089115531e-01 -4.0393768334968938e-03 2.3470056479730461e-01 -3.5541659839279571e-01 -9.2153910171323405e-02 1.1029772161603953e-02 -4.7993439869643856e-02 3.6103627550058540e-02 -5.5203593391796014e-02 3.2240050846460788e-01 -6.8023864539130535e-02 1.6624882418745710e+01 -5.2856325278140259e-01 -8.2283251791565082e-01 3.6645302887250182e+00 -9.2154082828743533e-01 -1.3207655193510986e-01 -1.9966154922602097e-01 1.4494492302815047e+00 -6.4637314302629090e-01 -1.3705864643259034e+00 -1.2379078988822023e-01 1.2201256180727611e+02 1.0577663536363684e+01 2.6006455945282170e+00 3.1228642899995851e+01 -3.1361222230208661e+01 4.1996847744432102e+01 7.4061276149928830e+00 -1.2496071782754703e+00 -3.3934653583859747e-01 1.5698594776054262e+00 -1.0403469803995380e-01 5.3254200009862416e+00 3.3228528441189713e+00 -3.3958235458301317e-01 -1.4465608677584310e-01 1.0434452964742245e+00 -6.8931574864069123e-01 2.6734282470684434e-01 3.1786535630331882e+00 6.4379773534549378e-01 1.5346127315065505e-01 -1.1704575231852756e+00 1.1135739137344751e+00 1.1353072991775818e+01 1.8223771315439041e+01 -9.0640023656931934e-01 6.5032354512855051e-01 1.1742871715832468e+01 -1.3911519234654621e+01 2.7647540680985173e+01 -5.1848930905312507e+00 2.5094437797749070e-01 -6.8003608629804457e-01 -2.2213930164643528e-02 -2.0041401295130967e-01 5.5941183200775413e-01 5.0052223154403315e+00 3.2175726382476599e-01 -1.1139053360671194e+00 8.8685815076488550e-01 -9.9676619456078974e-01 1.2942536228656536e+00 4.2967736855481196e+00 7.9794263472485882e-01 -2.7961506669389298e+00 -6.0447367432711085e-01 -4.8031762842920234e-01 -1.1438636348028012e+01 -2.4532620925699140e+00 -2.1128623145170655e-01 1.0752522309106558e+00 -5.8970750509507541e-01 1.9850017473139150e+00 -1.7116670458017325e+01 -8.3188662912282147e+00 2.5857931003387258e-01 5.3788656532507584e-02 -5.7906123047420599e-01 1.6409447016715843e+00 -2.5709442668532034e+01 -3.5317259442987172e+00 -2.4504877457369650e-01 -1.6278844056833064e+00 -1.8888215334131575e-01 -6.1387251887046856e-02 3.9188176114479916e+00 -9.7184039707982492e+01 -1.3123737576807352e+01 -3.1903974141462754e+00 -1.6221390179633421e+01 1.5763938730157905e+01 -2.2124705388521477e+01 -2.5199043326219317e-01 7.0393100363204586e-01 1.0540014747617565e-03 -2.4991378018493382e-01 3.5661032443473045e-01 -1.5594120701833201e+00 2.4138005917506038e+00 
      </Row>
      <Row Index="12">
        1.5249950840569326e-01 -7.3728644869904075e-02 5.9121384415875500e-02 4.6407844157768510e-02 5.8802826363809568e-01 -8.2950985432754046e-03 -6.6814582680645079e-02 -3.8247273245229543e-02 8.1983207988004271e-03 2.4347878652976385e-02 -1.9141830954548050e-02 -2.2902023448486963e-03 9.3139653794572275e-01 -4.0528868607606783e-01 1.9846133462593274e-01 -1.8654653291926404e-01 1.2639897806756825e-01 5.6123179405127926e-02 3.4979120040700279e-01 -2.4119938099423754e-02 -3.6453371614538865e-01 1.5248707125140093e-01 1.4865445323940822e+00 3.5484276438833312e-02 1.6616529294915761e-01 -8.9471525808223484e-01 1.9118494091441207e+00 -1.1976878644061247e-01 -7.6858027331466694e-01 -4.5857979115865782e-01 -3.8740853773608364e-02 -4.0452659156232029e-01 -8.3560042038359511e-02 3.7415270363447828e-02 -5.4347698575194048e-01 9.1257463041750350e-02 -2.6397780213394773e-01 -1.3041952645576352e-01 -4.1201542527096520e-02 2.8896796256586532e-02 -1.3803602861292211e-01 -5.8493972131774999e-02 4.6786699098811280e-02 -6.8360712317530894e-02 -9.6378273560331379e-02 2.4585505050761236e-01 -3.0003895221899543e-02 -2.0057475863418661e-02 -3.4938418024394347e-02 -9.2150324497333128e-03 1.3484257646427592e-02 -4.2149014103396651e-02 7.3610089679978008e-02 -7.0865212459509053e-02 -1.2235134913128255e-02 1.5552992907896801e-03 8.1359874287803557e-04 8.2958960437150772e-03 2.8805429550309625e-02 4.6871007099857628e-02 7.8368411856033181e-03 -8.2918072582197216e-03 3.9979968508793463e-03 -1.1910309655560421e-02 -4.4259275839037354e-02 -3.0335483221858835e-03 1.6373537876968527e+00 3.7706153169095380e-01 -8.6758483113638776e-02 -8.7776512387190531e-01 2.3990167481824898e+00 -4.6374865458187788e-03 -7.6757862858738890e-01 -2.6619109989392037e-01 -1.6651476933155984e-01 -6.3256336942859837e-01 -1.4127887732810263e-02 4.5239350872622452e+00 4.3933656944124416e-01 5.1971835821992229e-01 7.1703714981667588e-01 -9.3729544517754604e-01 -2.5747496042245075e+00 1.4176170989245804e+00 -8.9306909919071042e-01 -2.5240642109559308e-01 1.2732987302190115e+00 -1.3566702119743781e-01 2.9808488852442849e-01 -3.8682632562762365e-01 -3.9215794990665770e-02 -8.6074535026902099e-03 8.3052867464490643e-02 -1.3583767346369569e-02 1.5379146754757045e-01 -9.2855989350989465e-01 -8.0203862180280083e-02 2.0296662568483481e-01 -9.5135851990353418e-02 7.5348224359719662e-02 4.1114968120382400e-02 -1.5859293181182785e+00 1.9997347393516479e-01 -7.0621961135302613e-01 -2.3719667380168785e-02 4.6129612149128452e-01 -3.0958289859005674e+00 1.6060427503172818e+00 1.5335621724421722e-01 -2.1740129975027411e-01 3.2235395512037218e-02 -3.2397308551009085e-01 1.3141314510539814e-01 1.0396633546770120e+00 -2.4036306080102765e-02 -3.0230994085770524e-01 2.4496646971074310e-01 -5.0165198922829135e-01 1.2040282835187099e+00 2.4484573583582296e+00 -1.1041084058137361e-01 -4.2826194788381322e-01 1.2823204897080251e-01 -7.8021809779232254e-01 5.7286902180112520e+00 1.8989947704474286e-01 -1.3070071432766839e-02 1.5704778078593762e-01 -1.4316740018974192e-01 -6.1733782067168175e-02 6.6886846124907606e-01 1.5899361769892530e+00 -1.5957031060196930e-01 -8.6864503692402451e-02 -1.4282234376852606e-02 -5.5599692541446144e-02 4.3291973878506838e+00 1.2580726442566856e+00 -4.2992570361344164e-02 3.3259712783933360e-02 -4.3877814547210917e-02 -8.0909509317356409e-02 -7.6753524410882790e-02 -3.9337736566785964e+00 -1.2658679636055963e+00 -1.6579373089752760e+00 8.1939944090660477e-01 1.4503626218753933e+00 -2.1504970309830469e+00 7.6741113035851627e-02 -4.9005992255987341e-02 1.5668130179381012e-02 -3.6624898429842068e-02 6.5675409354040648e-02 3.5549865569198391e-01 -4.7241365059810447e-01 
      </Row>
      <Row Index="13">
        5.5909083722239927e-01 -7.2658993516084402e-02 -5.5857064153995928e-01 -5.6122503429507163e-02 5.4306422411475919e-01 1.9297617033906669e-02 -3.0245416473359266e-02 1.5898871994745434e-02 -2.1565007071765084e-02 -1.0660227256007983e-01 1.0051432956605819e-01 -1.2069243430821355e-01 -4.0528868578078764e-01 3.9141109127777041e+00 -2.1442422407054185e-01 -5.9710679936996813e-01 1.9414449915785462e-01 -4.2718969400913420e-01 -3.6859090132364503e-01 9.5787074742773343e-02 3.7316669482292081e-01 -5.1265430497132036e-01 5.3928178998617442e+00 -1.5602048755547044e+00 -7.6539618198894854e-01 -1.4515350691167779e+00 -2.6255256075214763e+00 7.4163821068191682e-01 -1.7245896556182672e-01 8.5289507757856509e-01 2.5765768062831373e-01 1.3663379715655781e+00 3.6076504090226408e-01 5.1309058027930410e-01 -1.8549805094190469e-01 -1.2128715895216533e+00 1.0563333231877581e+00 -5.8422193928820032e-01 -1.0146866205277741e-01 -1.0651759425259560e-01 1.0414878477910425e-01 1.9744196216499646e-01 -8.8721829423012655e-02 1.5997855723601145e-01 -1.2554793909948003e-01 3.3429154297765928e-01 -3.5622634584236673e-01 1.9701470515610993e+00 -4.1487163298505436e-01 8.8534319294388680e-02 -1.5199369209416602e-01 -4.1442813334322620e-02 -1.3160166226883763e-01 3.8854725364675385e-01 1.2344291695282866e-02 -2.9973454796418508e-01 1.5347420250308941e-02 3.7800441441831933e-01 -1.7547633212245306e-01 -2.8060498591527439e-01 -4.5148371182392399e-02 -1.0088448127908746e-02 -2.7397546688738483e-03 -1.0473720700430990e-02 8.5165280504575683e-02 5.6029314504500109e-03 6.2234612198712735e+00 -1.7310351310483831e+00 1.1080217721281911e+00 -1.9278219353055057e+00 -2.9447887653142857e+00 7.1014082154982083e-01 -6.3743384674604986e-01 5.4008816701786166e-01 6.2534802356755614e-01 1.3908908143014349e+00 8.0516487553324523e-02 -2.8710537644883956e+01 5.1995214133118663e+00 5.5029011118615401e-01 4.2866446502935860e+00 3.0026415633256791e+00 6.9271179769104947e+00 5.7639858812467111e+00 4.6443850962515343e-01 3.6760297280248722e-01 -6.0837714466424997e-02 -6.3485962250219097e-01 1.2226321248466547e+00 1.5775558401392885e+01 -2.0455751207241629e-01 3.3419450666718797e-01 9.0938244770752719e-01 -9.5194949867533629e-01 -2.4928647391789127e-01 5.1297643134484208e+00 2.6791305396401704e-01 -5.7061243082219559e-01 -6.9843981875322547e-01 -4.9149331685092967e-01 1.3589502929658920e+01 -6.2383915252881401e+00 5.3998302347986582e-01 3.2673150143420404e+00 -1.2753070749894162e+00 9.4264060766182745e-01 5.5339091995318519e+00 -2.2342418957009675e+00 -2.5878364166211543e-01 9.3227447133193753e-01 -1.2393120849393080e-01 4.3311762252144836e-01 8.8312245106499176e-01 -4.6479829336158962e-01 2.0394694693348103e-01 -5.5258488785076310e-01 -6.4647744358960346e-01 4.6862400365067725e-02 -8.9432068671158049e-01 5.1797547996376370e-01 5.0554360582043645e-01 2.3850958651163978e-01 -1.3079110660923898e-01 -2.7609248474868331e-01 -9.5566106045448578e+00 9.0963569992544979e-01 1.5764224030442475e-02 6.0772144686909968e-01 3.0661370413120614e-01 1.7344592060275232e-01 -1.4145374272105983e+01 3.1151494749078235e+00 3.4054080647289175e-01 6.3637769788374920e-01 2.5299037299019578e-01 -5.6885809043588098e-01 -2.6829274083930709e+01 5.2668348092346875e+00 9.0388290035657834e-02 7.3632424990459722e-01 -1.6049730897484688e-01 6.7292851453200653e-01 2.4752308722291616e-02 1.6768661845049337e+01 -3.7828594995472065e+00 3.4230987468411769e+00 -6.4086212760095780e+00 -1.8726663560495944e+00 -2.0169631936621954e+01 -4.2951670003882891e-03 -1.1282944935370187e-03 2.4859899979176636e-01 5.2281789741648765e-02 -2.3712352457275213e-01 2.1351456118811472e+00 -1.9444456958768761e+00 
      </Row>
      <Row Index="14">
        1.5545163955181138e+00 -1.7157897033961111e-01 -2.9878556406477630e-02 -1.1249757674880478e+00 2.3394687680922819e+00 -6.9381681317140786e-03 1.4186140838854783e-01 -1.4347751225122773e-01 -6.6611932933665186e-02 -1.8445617232092931e-01 3.4415705310661288e-01 2.6312734582405772e+00 1.9846133503195806e-01 -2.1442422631138841e-01 1.0214158183624500e+01 -6.2399745717431332e-01 1.1998840874976666e-01 1.3423063038371030e-01 3.8441839236597042e-01 4.9775583416685476e-02 -1.1298032500438115e+00 -1.7908863196420988e-02 3.3230345299596475e-01 -1.6463317864219082e+00 3.9363284297127543e-01 -6.9598976267641506e+00 1.8193191579688561e-01 9.2815734270895189e-01 5.3390316115536418e-01 -7.8766387384433811e-01 -5.8248515367632514e-01 4.1729295621849394e-01 1.8448243675898524e-01 4.7447625289363304e-01 -5.6954957651165805e-01 -4.1166809725720566e-02 -4.0211283154950372e+00 -9.7054363912864638e-01 8.4775780339967424e-02 -1.8800159834336228e-01 -2.2332726773215891e-01 8.7700359687723706e-01 1.5352843338344169e-01 -6.5262033685045739e-02 3.3036200977990843e-01 4.8038640304483149e-01 -2.5326871074452367e-01 4.3064735244081414e+00 1.1184723145430429e+00 8.3602251224081103e-03 1.7253227591246895e-02 -1.7784268145959542e-02 1.1559758267826237e-01 -8.6228478988011970e-01 4.1034227791480540e-03 -5.8387944488397103e-01 -6.0588725177492253e-03 3.3098174663244073e-01 -1.6143542182011299e+00 -1.9018963519111010e-01 -2.0301093893938325e-02 2.8870585811104688e-02 -3.2560638787746350e-02 -6.7245396010563230e-02 5.6783788751996367e-01 5.6180162151199489e-02 2.6930030455770826e+00 -1.3473324399886912e+00 -1.5984118762190302e-01 -4.8129165993132510e+00 9.0778198747512451e-01 9.6827922898826535e-01 6.9510341512924212e-01 -7.2590018444796334e-01 1.6619623699747432e-01 1.0038455984160422e-01 3.5256081438804154e-01 1.3069220051122730e+02 2.9527199895938279e+00 2.4796224795701249e+00 1.2284472191598368e+01 -1.6572959618711618e+01 -1.5672898987320877e+01 -2.5068179761333170e+01 1.1629769395411704e+00 7.2185045989627317e-01 -6.1371227077562229e-01 -9.4169265401839619e-01 2.9328589692964897e+00 -3.8586247102614379e-02 4.6884452921686637e-02 1.6519575856358759e+00 1.1927391538349934e+00 -2.0539500639828159e+00 -2.8767972918649320e-01 7.0081042831847951e+00 1.3367188887088775e+00 -3.9554513856807421e+00 -3.6238579311061754e+00 1.1468044090174381e+00 8.4973695207649143e+01 4.7441384419918464e+01 8.4585482980386595e-01 -2.0931355335094395e+00 -1.6281130329767404e+00 -9.6093336043530675e-01 2.9815096112661962e+01 -2.6737155056220711e+01 7.7814536092495801e-01 5.5063210285286557e-01 -8.3801192417666637e-01 1.1211057447216795e+00 -6.8824469450919423e-01 -1.2161282776055991e+01 4.0022704125172837e-01 1.5887172606100446e+00 5.0287272330076072e-01 -2.5560760807531890e-01 8.7170815080753528e-01 -1.7410908567795609e+00 -1.2447334360662938e+00 -2.1485696591600192e+00 -6.1921237248957950e-01 4.6644936297391224e+00 1.4520099446406675e+01 -2.1180801336042099e+00 -6.4297909649763563e-02 -1.0805131776724153e+00 6.5437621872719332e-01 1.9308420691607400e+00 -3.4767404304315278e+01 -4.5346560580635433e+00 4.3394356993783967e-01 -3.4311732082624307e+00 -1.5819594692621801e+00 1.9014922279790851e+00 -4.9111668092337368e+01 -5.2224661371504340e+00 6.4117859247923803e-01 3.5620191211400964e-01 -1.5914179980203391e-02 4.3544754422367127e-01 2.0093834027515527e+00 -1.0765395913362815e+02 -2.2838128760779519e-01 -3.7944159443157233e-01 -1.2743749223118726e+01 1.0561261670849785e+01 -6.8095426976618626e+01 5.5625751837865633e-01 1.3069145803553961e+00 5.0417042026144143e-01 1.7952311179628300e-01 -1.2103418318759065e+00 -1.4635995477905173e+00 1.3469640425736524e+00 
      </Row>
      <Row Index="15">
        -5.9196723769724713e-01 1.4513655367783307e-01 -1.8751934401454506e-02 -1.9834250867824688e-01 -6.7281952024295348e+00 5.4877205347625708e-03 2.7527264991949207e-01 4.7143387326295652e-02 -1.2274551943703986e-01 -6.3541422557318525e-03 3.2581900266392960e-01 3.2585151685708187e+00 -1.8654653447374608e-01 -5.9710679634634356e-01 -6.2399745733125056e-01 5.4573030554634521e+00 -1.7011211782214580e-01 -4.0565403933026994e-01 -2.2721114483313881e-01 -4.9526048337037554e-01 3.8434706500691990e-01 -3.5292613675238815e-01 -6.0688667734802841e+00 9.1544404788849310e-01 -2.3205544012349244e+00 -9.0438239850245672e-01 1.6035987254677158e+00 1.9221956520065567e-01 3.6245077610561398e+00 -2.4644327797299431e-01 -1.6059108004962861e+00 1.5082871627630663e+00 1.2901933091325060e+00 -1.7069247772460179e+00 3.2199597241888989e-01 6.9227621708467857e-02 3.7733802094076196e-01 6.7982962111588474e-01 -7.9814261868130398e-02 1.6839006286658041e-02 7.6043945367173515e-02 -5.6250175123558088e-01 -3.1200549990624060e-01 1.1749618380729401e-01 -3.2356406824475870e-01 -3.9160613296778612e-01 1.5439503732507082e-01 2.3847104099075711e-01 -4.1030846051911851e-01 6.9891187315505976e-02 8.1484940240303838e-02 3.8493383654350150e-02 8.0299836556418924e-04 2.7679945044599641e-01 -1.0539779390128283e-01 3.2523566373761525e-02 -1.0967085544055011e-02 -1.6307431845624076e-01 -2.9882858253491396e-01 1.2466728801337289e-01 1.8352768751520386e-02 -1.6899483533793286e-01 4.1970063466024873e-02 9.8404192389019412e-03 8.6087006144240169e-02 -2.3572918823418897e-02 -5.3484362324865788e+00 7.6602728759913452e-01 -2.6882322665989431e+00 -1.6250194683686523e+00 3.0425548716044348e-01 1.9075426637850720e-01 3.5117485803943205e+00 -3.9690220971409029e-01 -2.6627214546630236e+00 1.4933838920593656e+00 1.3151332078911513e+00 2.4128309389431024e+01 -1.1089785764561590e+00 -2.5792727906904478e-01 -4.3633717256793592e-01 -8.0617600928802240e+00 1.9278269133060803e+01 2.1342215943460786e+01 -1.8331585070794376e-01 -1.1489133138568777e-01 -3.5756392615825050e-01 1.2816859100261886e+00 3.9091998943799808e+00 1.1376684795498655e+01 -3.1450268704045026e-01 -1.7237417465184048e+00 -2.1225333534704555e-01 1.0267767052238055e+00 -1.7550144228152931e-01 1.0994646277644624e+00 1.9097743418847526e-01 -1.1532724324842127e+00 4.0490262283583567e-01 -4.8884255709249991e-01 -6.1567750298039755e+01 8.6027320365670903e+00 -1.1348974057284142e+00 3.0534534651340675e+00 6.7823131507778474e+00 -1.0723437908765156e+01 -1.4323576504520815e+01 -1.3247087948146152e+01 1.5956603381056038e+00 -5.7987350519571046e-02 -1.7675198416946090e+00 -7.7434256848063443e-01 -1.7152697767014615e+00 5.6529030403214708e+00 5.5897276052997946e-01 -3.7190162798799320e-01 -1.1875615906351480e+00 6.1361988655332589e-01 -1.4468430359265767e+00 -9.1207838848801153e+00 -3.5383509682276537e-01 2.2802492667782293e-01 -1.4696045376504969e+00 -9.3545989308963584e-01 -1.2472945041609819e+01 -6.4171100321260184e+00 -3.2741200931496939e-01 5.1797659311829092e-01 -7.4979349918655214e-01 9.7932266596549633e-01 3.9304113450314617e+01 -1.0950509380031939e+01 1.4551308724312789e-01 3.8827652389777612e-01 -9.5898093866096268e-01 4.4194809666820867e-01 6.1823002034720730e+01 -7.8332523004234567e+00 1.6550690831005011e-02 -7.7028397677359339e-01 -7.8734872325870842e-02 -1.1325194595467034e+00 4.8038417673988079e+00 5.4369540089707584e+00 -6.5895614465754004e-01 3.5776976919196386e+00 8.3046370400401788e+00 -2.0625947661872619e+00 6.3197302480732077e+01 -2.9549730938886093e-01 1.2971082969710479e-01 3.6131795093744890e-01 3.1279971478777924e-01 1.3926130795991813e+00 -5.8899317630818953e+00 5.8738987668011369e+00 
      </Row>
      <Row Index="16">
        9.4329692128383158e-02 -3.4019515749476911e-02 8.4278684725073258e-02 -2.0537307455505107e-02 3.2490847035629017e-01 -2.1526459867848187e-02 -3.6957493842232542e-01 -4.0647453291995567e-02 2.7470262509428869e-02 4.9455468235333852e-02 -8.5834887912961261e-02 8.8296771943630559e-02 1.2639897829503954e-01 1.9414449945605505e-01 1.1998840736209915e-01 -1.7011211586817265e-01 3.7800949054445376e-01 4.3520868615270458e-01 1.9309535236391331e-01 -2.3711856143042546e-02 -3.2669246287631143e-01 4.9905259343916271e-02 1.7496321487200805e-01 -6.6012787166134146e-01 1.0738807080988968e+00 -1.4529923142812380e+00 8.6325788412927495e-01 7.8137814572125441e-01 -4.6677454074297149e+00 -7.9281389518798917e-01 7.4632023458411201e-01 -5.2863235218548432e-01 2.6366845939620759e-01 -2.4642917744523515e-01 -9.3307252673865568e-02 -1.2137748567847459e-01 -3.1463900722646043e-02 -1.5764033268225922e-01 1.6378160415218418e-01 3.4597487976662505e-01 -9.1413210770117131e-02 -4.9598409092457302e-02 -2.1944448990754151e-02 3.7578021056151115e-03 -5.5262840476790320e-01 2.2595502731035406e-02 -1.1176778885704851e-01 1.8175412355397880e-03 -1.5327313391308450e-01 -1.4624065580195448e-02 -3.3545577079263485e-02 6.2808811502394535e-02 2.0747167914942688e-02 -1.4085786725207008e-01 -2.0889842368883048e-02 -7.9541996114125713e-02 -7.4060069739020976e-03 7.3120802905327825e-02 -8.4181293238097810e-03 3.6326962099293156e-03 7.3443459587291315e-02 8.1231722461287084e-02 -3.4796008621767495e-03 7.4191129036753258e-03 1.8500685290285396e-04 -1.8137082876269245e-03 1.0293852812432389e+00 -5.4190675146206524e-01 1.1181784655354126e+00 -1.3524942952161121e+00 8.6865476062883085e-01 1.3176461366896051e+00 -4.3705173299607702e+00 -7.1510743585155967e-01 6.8906333292583211e-01 -7.5805326771218295e-01 2.3184797645915850e-01 2.8714415512378748e+00 1.4132416817875006e+00 4.1043091927602027e-01 2.2014989019238871e+00 8.6833924523616934e-02 6.4581404696813109e+00 -1.0001203313162479e+01 3.2384425578851761e-01 -2.7842759277642559e-01 -2.7021947807175084e-01 6.4356025299058484e-02 9.1394474683471572e-01 6.2974825466836650e+00 -5.2720793583592891e-02 1.6572713120245330e-03 2.0241004155239370e-01 -2.3717702968671872e-02 1.9812900195938710e-01 1.2467262378623429e-02 3.3562153491818014e-02 3.0761526453634297e-01 1.1812310952618421e-02 -2.0780557377384290e-01 -1.5517465218399593e+01 1.4851681047242820e+00 1.5662704551012699e-01 -2.6257913943217659e-01 -7.6568603552773951e-01 6.3674695986283369e-01 -4.5713936182382611e+00 -8.0533038757277686e-01 2.7594640355183508e-01 -1.5163810871025096e-01 -7.2945691352578101e-01 3.0338202249702356e-01 -5.2601323264752864e-02 5.8705878615351273e-02 -9.8226531754114577e-01 -6.0869870378152380e-01 1.0741185348081304e+00 -1.0143343243886271e-02 8.2887149847556429e-01 8.4962540047755586e-01 -6.5900251436854640e-01 -7.0814056380534507e-01 4.1563312543636555e-01 -5.6081085909961637e-02 2.9664649789242503e+00 -4.6995766037061670e-01 -9.5492026036878785e-02 2.2311498830394516e-02 -1.6548755100679341e-01 -7.1780404278140253e-02 4.2518878747875988e+00 3.9837365184719165e-01 -8.5514193475655448e-02 -1.6537138092367418e-01 -2.9924597320010890e-02 -2.1297487877783666e-01 6.7353427820002807e+00 -1.5790040713838156e+00 -9.8410200926271077e-02 -4.4150892018443266e-01 -2.7411916796689934e-02 -3.4448755638733231e-02 6.0311147981819957e-01 -1.8540020723506814e+01 -1.4218105613572152e+00 -1.6447534266339119e+00 -2.3261565117874423e+00 5.8784128557073601e-01 4.2099036062270727e+00 1.4343873816128982e-01 1.4753370950035910e-01 -4.1922398862913102e-02 -3.9752618556817554e-02 5.2307173414120292e-02 -2.4533755681857128e-01 3.0279239681227921e-01 
      </Row>
      <Row Index="17">
        -5.9901076514172757e-01 -1.0491200348432805e-01 3.8533334477646353e-01 -7.5963404374860544e-03 7.0577474032479093e-01 -1.8520866963895635e-01 -1.3411944505150262e+00 2.0778291655129813e-01 8.0517764020191035e-02 8.7916133949560681e-03 -3.5879193020767980e-01 -2.5221723756496645e-02 5.6123179437976747e-02 -4.2718969252269512e-01 1.3423061972751604e-01 -4.0565402934761596e-01 4.3520868897620546e-01 2.8767910889511827e+00 -8.3204895916290766e-02 -8.5058177354836367e-02 -2.9366304422666273e-01 1.0842293888220420e-01 -3.8345150380710362e+00 -1.0435735901017986e+00 3.8231350716007348e+00 -1.1985216258839178e+00 -2.5489896544427619e+00 -2.5447963593788478e+00 -1.3537623763434681e+01 1.6452332545130575e+00 1.0993139613214360e+00 -1.9279743328459504e+00 -4.9913772032313464e-01 -4.0086887916843272e-01 -1.5440654479330604e-01 1.5097673047748073e-01 -3.0784510818305755e-01 1.9453525713543363e-04 5.0239627979690826e-01 1.2228902663247290e+00 7.7760026744031693e-02 -5.4727605529049518e-02 5.2751248597329270e-02 1.2605827262418759e-01 -6.5164080218320897e-01 1.4494118626188296e-01 9.1732650774568006e-02 -4.3440867936481453e-01 2.4454323003411638e-01 -3.9357174447791972e-02 -1.2921681687534187e-01 4.2892297399883345e-02 -1.4523575788700116e-01 1.9578488017974049e-01 -3.9473006136577823e-02 3.4660360727472650e-01 2.4838303546029228e-03 -5.1518469109840814e-03 1.0751031921730680e-01 -4.0884589496745366e-03 1.1541779740635920e-01 5.1490846493288989e-01 -2.1712760279832599e-02 4.4855971680229388e-02 2.2343705591564941e-02 -1.8552398991605594e-02 -2.9634669475841502e+00 -1.0048171881908465e+00 3.8956914238254723e+00 -9.1256795008485803e-01 -2.4897347063581075e+00 -1.8343408955533773e+00 -1.1344436849720060e+01 1.7819296121708113e+00 1.1317469813659571e+00 -2.1955450783088595e+00 -6.2033154691804815e-01 2.3037316930386336e+00 -1.9955529716849396e+00 -4.0993184709472246e+00 -2.9481171632467518e-01 2.4849673563393111e+00 1.0853244293402554e+01 -2.4531624267545034e+01 2.8027271956136701e-01 -4.2874054276707030e-01 3.1225062929875591e-02 1.6585472842936655e-02 2.1648063304905918e+00 6.9347429440200585e+00 6.6913998824300353e-02 2.2458943797108166e-01 -1.6922783101580990e-01 -9.7647477395258003e-02 2.6680066429980798e-01 -9.5342438216649228e-02 6.6401013808669460e-02 5.8204574317208668e-01 1.8449468619820530e-01 -4.7484704303636338e-01 -2.9438513565881294e+01 2.8460884931456842e+00 -1.7594473720204151e-01 -2.8309089186257665e+00 -1.5089897776593484e+00 1.4907218811266283e+00 -5.4978512769426970e+00 2.6226895172647806e+00 -3.8844994440513219e+00 -1.8778956472448054e+00 3.6486617541226956e+00 4.7364121434714868e-01 7.2176094965834636e-01 7.6629161437398363e-01 -4.0454133923124314e+00 -2.2543485616877419e+00 3.9461748425885763e+00 9.6477157720564677e-01 1.5186854886705987e+00 -2.7411422186870684e+00 4.5166436871640858e-01 -1.3354826392645842e+00 -3.4413311002583269e-01 2.2019793554815799e+00 7.8568844451820041e+00 -7.1468769727501735e-01 -1.5130917641792210e-01 -7.3489147926962373e-01 -1.2155705143598838e-01 -1.7062375732070372e+00 4.7069826762599405e+00 7.8796773343833393e-01 1.1795131800018710e-01 -4.6703832970637882e-01 1.2644238574812938e-01 -6.0262685746568734e-01 6.8966978848842473e+00 -5.1435488855732103e+00 -3.1289684226524861e-01 -6.8749600535480093e-01 1.1310935221625021e-01 4.7774609278965618e-01 -5.9667397930024890e-01 -3.4590864154903329e+01 1.5459045200926527e+00 6.3579766431731954e-01 -5.6050771234336239e-01 5.2449473171073180e-02 8.0522111256931339e+00 2.1976822440745114e-01 1.0694026506460630e-01 -1.9762906824718263e-01 -6.5464920400854254e-01 -7.9932275783292850e-01 -2.7910020609339754e+00 2.8994387393246974e+00 
      </Row>
      <Row Index="18">
        1.9866552783322433e-01 -2.4758969122265592e-02 1.0714167247094020e-01 6.8139548067713482e-02 2.5601328401231516e-01 -4.9658155098428268e-02 -8.0768580358759640e-02 -8.1614836485217543e-02 4.2536764369510462e-03 1.8602996508779673e-01 1.2284224423860682e-01 1.1637215577858689e-01 3.4979120010942333e-01 -3.6859090133823502e-01 3.8441839214409734e-01 -2.2721114333323250e-01 1.9309535246744811e-01 -8.3204895860456277e-02 8.4003900777852702e-01 -1.1519519292010170e-01 -7.2575254008407986e-01 1.6280139615176117e-01 5.5659711369200826e-01 4.0846393604271433e-02 6.8234696712772114e-01 -3.8037411746343358e-01 1.0648228506452617e+00 -7.8339294770216195e-01 -1.5407223890506359e+00 1.9846078202169382e-01 3.0958296944273683e-02 -1.5352234712079642e+00 -3.3473710121287270e-01 -3.9046540769741472e-01 -1.6775776748054316e-01 2.3384696328995727e-01 -4.9179135981300665e-01 1.0043670907155307e-01 -9.7065704355196847e-02 -6.5730723650224074e-02 -1.5706701012240271e-01 -2.2209368219947828e-01 -1.6334710227225946e-01 -2.0339768250848328e-01 -4.1394077528998607e-01 5.4595993659459330e-02 -5.0607330230280495e-02 -2.5712877618216312e-01 1.7494564423828196e-01 2.7740301208676509e-02 6.4713838755700095e-02 -1.5621166115083177e-01 2.0468636364941881e-01 -7.0466423177794213e-01 6.2199571155467041e-03 -1.1185470289452470e-01 -3.8127339862260752e-03 -2.0117023625107238e-02 3.0960758513091130e-02 8.3758836845119436e-02 -3.5330765684331968e-03 -5.6283614384424932e-02 2.9922133472996115e-02 -4.9686537456710370e-03 -7.7999464630471138e-02 -6.6451266630569777e-03 9.1136296479604084e-01 1.2514538757070415e-01 6.0474101703930550e-01 -2.0537736142317464e-01 1.4840885213521648e+00 -7.4408008829056482e-01 -1.6792874049384374e+00 9.2091020739223406e-01 -4.3562892235279854e-01 -1.8879372548732274e+00 -2.7064428981454397e-01 1.4390679021114380e+01 9.9929882482552579e-01 1.7037418174673489e+00 1.1595525947072860e+00 -2.9156769065359165e+00 -9.8316038135297390e-01 -3.6300624310824787e+00 -5.0314949682153243e-01 -2.5453768978797164e-01 6.0153169400700324e-01 3.6449189191374132e-01 -6.1994710222506910e-02 -3.4772095275057495e+00 -3.8728697596102118e-02 1.4176405992175518e-02 6.6600343707703707e-02 1.7835718756641050e-01 -2.1968095421107137e-01 -1.7319095204847694e+00 -3.9603035415791910e-02 7.1347259504697669e-01 1.0362866677593027e-01 2.3979286130945354e-02 1.9574411944186068e+00 -2.1930122703588033e+00 2.8842854566014620e-01 -1.8863728943061275e+00 1.0726639083974034e+00 -1.9731894589277887e-01 2.5538093956589591e+00 3.3416292796346880e+00 -8.7897205173667825e-01 -2.8293291658656372e-01 1.1447641518439688e+00 -6.6941178331719142e-01 2.4811735478579067e-01 2.3957853699011151e+00 2.2326370578436797e-01 -1.0969769714081146e-01 2.9543764296455310e-01 -7.7466300047747216e-01 3.6998897289049637e-01 7.5149035905584842e+00 -1.0410011788794653e-01 -2.1826215350333911e-02 -3.6467081523414907e-01 -1.8903007879066163e+00 1.6660243794303824e+00 6.3787438046002487e-01 -1.2473474275056745e-01 -1.7963309934323490e-03 -3.7843262291231938e-01 -2.8206564520545641e-01 -5.0300149418781075e+00 2.0971661966196997e+00 -6.8526070316469911e-01 -4.5503095525332532e-01 -4.5578268369350167e-02 -3.2155727611855811e-01 -4.5835916492681861e+00 5.1504409158547517e+00 1.5169992819248501e-01 1.5369629151963160e-01 2.3121274450608353e-02 -2.7001624452007167e-01 -5.9086975064258240e-01 -1.5107528276508788e+01 -4.8590631947554713e-01 -4.3552834913511518e+00 2.9765584966368630e-01 3.6920180530057909e+00 3.5338150012512415e-01 2.1925236062215675e-01 -2.5046439617805116e-02 1.1395486858875781e-01 7.4527914432619413e-03 2.0461607215592020e-01 2.0131924594104184e-01 -3.5765124851564889e-01 
      </Row>
      <Row Index="19">
        8.0031769597207614e-01 -1.3232223979297464e-02 -8.8841892468080760e-02 2.8797989817576508e-01 8.5312258274179342e-01 4.9082925954976188e-02 8.0119694693246771e-02 -4.7627133736931962e-02 -3.0854091566563813e-01 -2.8887449052163428e-01 -1.7232461528617023e-02 -4.8563844278995655e-01 -2.4119938209174061e-02 9.5787074005235118e-02 4.9775582989063483e-02 -4.9526048282451129e-01 -2.3711857144909483e-02 -8.5058176548017103e-02 -1.1519519273924643e-01 3.9025914492550635e+00 -1.9426775689848949e-01 3.8034277182484866e-03 3.5352808195925607e+00 7.3590992330564375e-02 -1.0830378214949850e+00 4.9286748113166512e+00 4.6784008287424506e-01 7.4845454910122799e-01 8.4869555938761776e-02 -1.2728642858460995e+00 -1.5842894123279829e+00 1.1863470111910313e-01 2.7190228619244017e-01 3.8623633423734605e-01 -6.5182512403496429e-02 -9.2339180061152756e-03 5.3130088075102444e-01 -4.8499655374831185e-01 7.1106118429577606e-02 -3.0837549217387385e-02 4.1867537569888147e-02 1.9049767622491198e-01 3.4950832669095272e-01 9.2926493418931055e-02 -3.9918143760366931e-01 1.7842285925604323e-01 -5.6088560830781370e-02 3.6042564291205736e-01 -1.6345476709995754e-02 -6.1228874147255016e-02 4.1227175613771150e-02 7.9218240798170886e-02 -1.0424272301206026e+00 2.1872648267141359e-01 -7.0214533249524452e-02 -7.1602776026598036e-02 7.4721646480252757e-03 3.3889508821549230e-02 -1.5078947689497157e-01 1.6076183957296608e-01 -5.7798925984860958e-03 2.1134002198934347e-02 2.4327443068236362e-02 -9.2886583225910202e-02 -4.6947045196142553e-02 4.8361273031652212e-04 3.7804504253582345e+00 1.1223471960635878e-01 -1.1531471547221215e+00 5.2570565844793880e+00 3.1468297177162263e-01 7.7988635654095761e-01 7.9775223010239010e-02 -1.4146474155588369e+00 2.4786614095768007e+00 -1.2659331700393150e-01 3.7977619240251836e-01 1.4778104802570557e+01 1.5117986214678709e+00 1.0631838584632520e+00 2.1514297488560046e+00 1.0000879290218663e+00 -5.8430767623885345e+00 1.0848774670843428e+01 -9.6378577937384802e-02 9.5499141480288596e-02 3.3971450925931035e-01 9.6641905186508170e-02 -6.8159176585288606e-01 -3.7814896737218895e+00 -1.0858782838501030e-02 -4.7630610507821619e-01 1.3690061913148346e-01 5.3971147064021327e-02 -3.4592941042865277e-01 -2.0001080673981746e+00 -4.1358304783837885e-01 -8.4794241438730178e-01 -9.1328428937403805e-01 -8.6428262497400987e-01 2.6197591736352479e+01 1.2559538240400471e+01 8.8443049957286823e-01 2.5010092095807757e-01 -1.4346019678840289e+00 1.4678624430123821e+00 7.3513895429957756e+00 8.7817788092154370e+00 5.0761119073194239e-01 3.8436482840997477e-01 -1.0551931089596247e+00 2.8328398910069374e-01 -1.2867139762965962e-01 -3.0458696190527590e-01 -8.6430412028841885e-02 2.2531893317750779e-01 -3.5133579956560190e-01 3.3680273447512576e-01 9.9599675508216023e-02 -3.9857374265902834e+00 -9.8624052619085600e-01 1.4734516703160114e+00 4.3104583660858475e-01 1.3591509225529341e-01 3.6723223849658098e+00 9.5001942205617151e-01 1.7079939458757447e+00 1.8437856359534621e-01 3.6209754881113145e+00 -3.0487778342211822e+00 -1.1749624986147865e+01 3.6813543797643469e+00 1.1415980954876889e-01 6.7091539278580581e-01 -4.1759089529276455e-02 -5.3480921398627523e-01 -1.4464048021647962e+01 -3.1927509453653684e+00 -2.5869171513819234e-01 6.3536240929694943e-01 -1.5310343884509237e-01 4.0010013725654714e-01 3.1180056152061297e-01 6.1906473572105369e+00 -1.8866421234716131e+00 -1.0968868284432176e-01 -6.0190919319061553e+00 4.1222578379617287e+00 -1.8957617812997796e+01 6.5367887582583717e-01 -3.6702895020131482e-01 -2.6975654695052254e-03 -7.1039383133122413e-03 1.2729254174313220e-01 1.4935746661772340e+00 -2.5331817335507973e+00 
      </Row>
      <Row Index="20">
        -3.3802671564183129e-01 -1.9695245212596024e-02 9.4985140882899666e-02 -7.2754520210522006e-02 -1.3066264923558650e+00 -7.1273586268612327e-02 4.0914170861229282e-01 -1.6828548560284523e-01 -1.4875256213165572e-01 1.7771546520676574e-02 6.3816107396070154e-01 -2.6966223250432486e-01 -3.6453371579065430e-01 3.7316669303742633e-01 -1.1298032446962509e+00 3.8434705944746428e-01 -3.2669246468647584e-01 -2.9366304216859845e-01 -7.2575253876317836e-01 -1.9426775638631347e-01 5.5496218268688251e+00 -3.2580009356831791e-01 -6.8913462634538192e-01 1.9693158094650030e+00 2.6734606184308474e+00 -1.0079449542902716e+00 -3.1878151123018359e+00 -7.7783876632331994e-01 4.5692754470929060e+00 -3.3542616817765096e+00 -2.6860710014584361e+00 -5.3976559132404685e+00 -1.2298896164202944e+00 1.2906453517191974e-01 -1.0687305334130248e-01 -3.8143853509376691e-01 6.3171906690553215e-01 -3.3739175815819361e-01 -1.3083917649445137e-01 -2.0157522099368907e-01 -1.5926663330628504e-01 4.9122527780164849e-01 -2.4511035917985815e+00 -2.4368345007322777e-02 5.0675275026667421e-01 6.4637593712318453e-01 1.8865322318500333e-01 -2.3729118010328865e-01 -5.1995755733809013e-01 -9.0206438530168076e-02 -5.8894467159971431e-02 -5.0148032871276094e-01 -2.5750949083197527e-01 -2.1107101288763710e+00 2.1955120054862203e-02 4.4867806497909868e-01 -2.7570440742519797e-03 7.9490796491227367e-02 1.3888473446485161e-01 -1.4611350256189792e-01 1.2760842723206940e-02 -7.1441457695559443e-02 -2.9416475824216956e-02 -6.3605938880423651e-02 -4.0590310932676366e-01 4.2058805130569858e-02 -1.3162557865345228e+00 1.7162747596816912e+00 3.0297121385487440e+00 -1.5705734801098643e+00 -3.6588448689052200e+00 -1.0984985684370923e+00 4.4418788108908922e+00 -4.0767456395995634e+00 -2.3033894409638380e+00 -1.0355265522244919e+00 -1.0254461695787525e+00 -5.2163665434908658e+01 -2.1386702878533939e+00 1.5887784380810999e+00 -3.3439490212018486e+00 7.6547605006050556e+00 -8.4614287879892913e+00 -9.1083661929749269e+00 -1.3078117303425854e+00 7.9289718300854073e-01 2.0006926198466108e+00 -8.9369025382781442e-01 2.1442079638829910e+00 -5.0900206487930717e+01 1.7350630364923847e-01 1.7281664312766432e+00 -3.0160604716053096e-02 -6.0302546464859219e-01 -6.9468657864490524e-02 1.5056871234323177e+00 -5.9414931491463530e-01 -2.0699299392568413e+00 -3.6035911046162039e-01 1.9141104135035629e+00 2.0719429699645843e+01 -1.6767220673280434e+01 -1.2877458996655977e-01 8.0928243428656970e+00 1.9509355792305350e-01 1.6119657119473754e+00 5.4149568805046329e+00 6.9811227938920037e+00 1.2839663029998654e+00 -1.4566944662507020e+00 -1.3002578672420750e-01 -1.2694996865465185e+00 -1.5419149781228043e+00 -7.7058480328664536e-01 4.9150411802563304e-01 7.4647970113158024e-01 -8.4209262838484755e-01 -2.7643679370876451e-01 -1.4974898439249955e+00 -3.5382043569726758e+00 -2.5830324436437486e+00 -6.2406062085614167e+00 -2.0305887202240598e+00 3.6635713118209452e+00 1.2772366719764250e+00 1.7950097190579490e+00 5.8531127410582517e-01 4.1212969572456259e-01 6.7387520551267321e-01 1.3799350674213535e+00 -2.3933100127622311e+01 -9.1455988261704562e+00 -2.3083568094194842e+00 -4.3815082680138371e+00 -1.4646728853528850e+00 4.3533193375837458e+00 -1.9256733073923158e+01 5.8836349725886095e+00 6.8039299052488922e-01 -1.5760312486610086e+00 4.9471433335127724e-01 -1.1695128294605403e-01 2.0429374336526962e+00 7.5574702100181810e+01 5.0461536254027806e-01 7.2921256040653191e+00 5.8507480777444254e+00 -8.0922582333985194e+00 -3.8446847780815006e+00 -1.6968367496434640e+00 -1.0557368983084465e+00 -4.2052206896935784e-01 6.2321295015289380e-02 -8.7219441898077943e-01 -4.3551630840891820e+00 4.4461842011493822e+00 
      </Row>
      <Row Index="21">
        1.4055809335225966e-01 -5.0752643509773751e-02 5.6131314589470682e-02 1.9775796387053576e-01 8.4515668167026126e-01 1.7504118545928982e-02 3.8600666833762579e-02 1.2817979746841879e-01 7.1638264974215007e-02 -3.1172837160704944e-02 -7.9299347937781506e-01 -1.7373720450531538e-01 1.5248707143662682e-01 -5.1265430566047598e-01 -1.7908863307051548e-02 -3.5292613606084483e-01 4.9905259575910833e-02 1.0842294011529177e-01 1.6280139632538687e-01 3.8034280718485663e-03 -3.2580009412896876e-01 7.2754981408563690e-01 -1.4849657039721524e+00 -9.6652630204707379e-02 4.4711730014458284e-01 2.4219817717333927e-01 -4.7055287890354941e-01 7.8144759108542863e-02 -1.4026173921428322e+00 -5.5525091250815700e-02 8.2253415763843096e-01 -7.2886778779191730e-01 -5.4712450166165760e-01 3.0908934210183481e-01 -3.5750850434776923e-02 1.9238512221859136e-01 -3.0673509200022242e-01 5.5276706564108880e-02 4.1757151864862098e-02 1.8875505769460935e-01 -9.9443493490394524e-02 1.0029414360556207e-01 5.8466027453237257e-02 -9.1199707707323191e-02 2.3781999348214122e-01 1.4626402401780869e-02 1.6142058488997794e-02 -6.5303271037426025e-01 4.4007016805056143e-02 -1.8434807534430941e-02 2.2545452505034078e-02 3.5043005640566754e-02 -3.2895851148562999e-02 -1.6029638062764029e-01 -7.9016028751915629e-02 1.0048266213305235e-01 -1.4451151422155521e-03 4.2950906928956117e-02 1.4204697278710546e-01 2.9955137102027917e-02 1.6566460560295884e-02 5.6242822725979830e-02 -7.9169224802181290e-03 -2.5242281717132997e-03 -2.3891540505716333e-02 -2.7105945053726929e-02 -1.4629179765642206e+00 4.0782411337634827e-03 2.1568359641890333e-01 5.7739034041608672e-01 -9.8813535148690956e-02 1.7678535275909246e-01 -1.1506491289406706e+00 2.2719089638787549e-01 9.9759320756707848e-01 -1.0153304494139146e+00 -5.6837193842019262e-01 1.2050580724299095e+01 -1.3388584917660024e-01 -4.9921532228957055e-01 -4.4707769068781422e-01 6.5544709533095524e-01 -2.8304943661904360e+00 -8.2053366422220719e-01 5.1848342526882654e-02 -1.1296134078317110e-01 9.4023047033341828e-02 -1.9527569480765419e-01 -5.4567953975661965e-01 1.5913083569468576e+00 -2.2299535650427221e-02 2.3156405223805571e-01 8.2075236382959660e-02 -6.3155362395679093e-02 2.3550302689818636e-01 -2.4689081600306024e+00 -6.5108098052400781e-02 5.5384210201877282e-01 2.8770728235500542e-01 -2.2409465280825280e-01 6.4608355243863116e+00 6.0780010981538943e+00 2.1890970660191167e-01 -5.8911209129483222e-01 -8.4936862295599580e-01 9.2648130287309405e-01 -2.9255553602223472e-01 2.6927135388896311e+00 -1.7431421879528300e-01 -2.5195196553935495e-01 -7.6963035551774861e-02 1.9151908445816579e-01 -9.8393557227609563e-02 1.5021201935448891e-01 -4.5620199354906177e-01 -1.7301729712193370e-01 3.0618904451838169e-01 2.3386118349891793e-02 8.0056395459723717e-01 -2.2643233382036199e+00 -2.6171769826992725e-01 -2.1057391462213104e-01 6.3372329262422511e-01 5.5762128348108297e-01 4.0696050024136738e+00 2.0283742751367573e-01 5.6414017559048013e-02 -1.9607835635388415e-01 -1.5243596493346065e-01 -6.4991104340971417e-01 -9.3474453625071874e-01 3.2399378216574348e-01 -1.2386286261664670e-01 -1.2097695973586745e-01 1.4890156919753947e-01 -4.9963158250076398e-03 -1.7570650125349800e+00 -4.2423891299027261e+00 -8.8867114744206532e-01 -1.7263632947224838e-01 -1.8248376143794681e-01 -1.6636771778303538e-01 -7.9465591726648199e-01 -1.2508803102352637e+01 -2.0153308961458061e-01 -8.3391082601820243e-01 -8.3341462986602921e-01 4.6616263682849524e-01 -8.6578008393552182e+00 3.2634383753895774e-01 3.0770158678260939e-02 -1.6508843356853950e-01 -3.6155100399274831e-01 -1.5421551001172695e-01 2.9494238036269416e-01 -2.5233126920245263e-01 
      </Row>
      <Row Index="22">
        9.8541903899808858e+00 5.6075144663299881e-02 2.0126637409150590e+00 2.4485446493540866e+00 4.3305570667170542e+01 8.0507829945768683e-01 8.8026912091260390e-01 -2.8802003418295627e+00 -1.7455433952694395e+00 1.1226917129596181e+00 1.2989269648172588e+00 9.5738860048358614e+00 1.4865445186197661e+00 5.3928178953047077e+00 3.3230343963469400e-01 -6.0688668001618122e+00 1.7496317416776908e-01 -3.8345151251427771e+00 5.5659707979470863e-01 3.5352808119208263e+00 -6.8913464608664243e-01 -1.4849656932409072e+00 1.0592831321686028e+03 -3.0144047810536994e+00 3.5312278591016160e+01 2.6727364212916125e+01 2.2683850185308100e+02 1.5751659740982518e+01 1.0115553764268011e+01 -2.3207069443554737e+01 1.2782530955181610e+01 5.1221619355081998e+01 1.1925104086703534e+01 5.5850541838479018e+00 3.2072787492051935e-01 1.7616215565293100e-01 -6.1291348391791587e+00 -2.4183913784419197e+01 -7.4358902075426414e-01 -2.5941228205789533e+00 -9.3494099321459589e-01 1.6825110570131092e+00 5.8821042080772301e-01 1.1278439673888048e+00 -7.4128123777649080e+00 -2.2042735840774315e+00 5.4464392895232872e-01 2.3052589161364931e+00 -7.3589956486729875e+00 -1.0938873856671099e+00 1.5843103134526266e-02 1.9218615567366650e+00 -4.7184702079661633e-01 5.4143778721519018e+00 7.4572418589670397e-01 4.9455280321104738e+00 6.6784841829916175e-02 -4.2452103437655786e-01 3.5251991092314725e+00 -1.0776440017185478e+00 6.7073624747077898e-02 -9.1970508618845781e-01 8.9645586120095308e-02 -5.0377777121249956e-01 1.0442433698806652e-01 -7.2115859859906095e-02 1.1018451341933805e+03 6.1148466165666848e-01 4.2477047659160689e+01 2.2721500264279193e+01 2.2230479884199320e+02 1.3938962804552361e+01 6.1738727533240692e+00 -2.6333768667305915e+01 1.7160150169010222e+01 4.8228506381954958e+01 1.1548796642625199e+01 -1.9854178216954858e+02 1.2898504258379009e+02 1.7474030026492750e+02 1.7221606364007326e+02 1.1478070814260623e+02 2.2408684843857145e+01 2.0496370472860826e+02 1.5500850331949724e+01 -5.9251722979231145e+00 -2.0784407795420854e+01 1.5133645708246462e+01 9.0274191202810471e+01 -3.2787284017004441e+02 -4.2759378922030145e-01 -6.3913733343732670e-01 -4.0301431360388076e+00 8.4178108676501147e+00 -7.6311614320147783e+00 -6.8484161182532697e+00 -4.0697137689887342e+00 -7.2046257703637817e-02 -6.3590611401566317e+00 1.5563750130086332e+01 6.7573044079309329e+02 -1.6132236431067162e+02 2.8753812429617973e+01 1.2683889768737498e+02 -1.4462381973451753e+02 1.2884747560844622e+02 3.5179307924954628e+01 1.0676977472605619e+01 2.0659281880148299e+01 3.0013521438316609e+01 4.3585012539796866e+00 -2.1116169216954646e+00 -7.7087620715610683e+00 -1.1939770356340375e+01 8.1164121640744646e+00 -4.9751865780254505e+00 -3.0971275575087467e+00 3.9329964996405131e-01 -4.7741287226788700e+01 9.7422138230106697e+01 -1.4746689661637038e+01 -3.1468895794121892e+00 7.8726478928430224e+00 -1.8465148780513601e+01 -3.9272164980800011e+02 1.2576000778664618e+01 8.2546242736603581e-01 4.7856314137721796e+00 2.0858862124671815e+00 4.6809765046328042e+00 -1.9797100955906171e+02 1.6462156005015384e+01 1.9126225418973013e+00 7.2394377685920679e+00 3.9309278604187980e+00 -8.5395601306090434e+00 -4.6432085657089505e+02 2.8919830586067533e+01 4.1122418176905144e+00 3.0537265234322106e+00 1.2615630432512521e+00 -8.1644721768212349e+00 1.2122673286811914e+02 5.3438588362988048e+02 -7.1289274660580986e+01 -6.1538722494927697e+01 -3.3926946956337667e+02 1.0438811901372162e+01 -5.4422114423337746e+02 -8.3316663427844198e+00 4.8384542011936098e+00 1.1114152970391416e+01 2.4733002532030923e+00 1.2562784077814095e+01 -7.0184373327821902e+01 7.0584721583536293e+01 
      </Row>
      <Row Index="23">
