<?xml version="1.0"?>
<MethodSetup Method="MLP::MLP">
  <GeneralInfo>
    <Info name="TMVA Release" value="4.2.1 [262657]"/>
    <Info name="ROOT Release" value="6.10/09 [395785]"/>
    <Info name="Creator" value="tasheng"/>
    <Info name="Date" value="Mon Jan 17 19:10:55 2022"/>
    <Info name="Host" value="Linux cmsbuild64.cern.ch 2.6.32-696.30.1.el6.x86_64 #1 SMP Tue May 22 06:09:36 CEST 2018 x86_64 x86_64 x86_64 GNU/Linux"/>
    <Info name="Dir" value="/home/tasheng/bmva/TMVA/BP/train"/>
    <Info name="Training events" value="57215"/>
    <Info name="TrainingTime" value="1.24735566e+02"/>
    <Info name="AnalysisType" value="Classification"/>
  </GeneralInfo>
  <Options>
    <Option name="NCycles" modified="Yes">600</Option>
    <Option name="HiddenLayers" modified="Yes">N+5</Option>
    <Option name="NeuronType" modified="Yes">tanh</Option>
    <Option name="RandomSeed" modified="No">1</Option>
    <Option name="EstimatorType" modified="No">CE</Option>
    <Option name="NeuronInputType" modified="No">sum</Option>
    <Option name="V" modified="Yes">False</Option>
    <Option name="VerbosityLevel" modified="No">Default</Option>
    <Option name="VarTransform" modified="Yes">N</Option>
    <Option name="H" modified="Yes">True</Option>
    <Option name="CreateMVAPdfs" modified="No">False</Option>
    <Option name="IgnoreNegWeightsInTraining" modified="No">False</Option>
    <Option name="TrainingMethod" modified="No">BP</Option>
    <Option name="LearningRate" modified="No">2.000000e-02</Option>
    <Option name="DecayRate" modified="No">1.000000e-02</Option>
    <Option name="TestRate" modified="Yes">5</Option>
    <Option name="EpochMonitoring" modified="No">False</Option>
    <Option name="Sampling" modified="No">1.000000e+00</Option>
    <Option name="SamplingEpoch" modified="No">1.000000e+00</Option>
    <Option name="SamplingImportance" modified="No">1.000000e+00</Option>
    <Option name="SamplingTraining" modified="No">True</Option>
    <Option name="SamplingTesting" modified="No">False</Option>
    <Option name="ResetStep" modified="No">50</Option>
    <Option name="Tau" modified="No">3.000000e+00</Option>
    <Option name="BPMode" modified="No">sequential</Option>
    <Option name="BatchSize" modified="No">-1</Option>
    <Option name="ConvergenceImprove" modified="No">1.000000e-30</Option>
    <Option name="ConvergenceTests" modified="No">-1</Option>
    <Option name="UseRegulator" modified="Yes">False</Option>
    <Option name="UpdateLimit" modified="No">10000</Option>
    <Option name="CalculateErrors" modified="No">False</Option>
    <Option name="WeightRange" modified="No">1.000000e+00</Option>
  </Options>
  <Variables NVar="6">
    <Variable VarIndex="0" Expression="Btrk1Pt" Label="Btrk1Pt" Title="Btrk1Pt" Unit="" Internal="Btrk1Pt" Type="F" Min="2.00013399e-01" Max="1.00547304e+01"/>
    <Variable VarIndex="1" Expression="abs(Btrk1Dz1/Btrk1DzError1)" Label="Trk1DCAz" Title="Trk1DCAz" Unit="" Internal="Trk1DCAz" Type="F" Min="4.01805992e-05" Max="8.23362500e+03"/>
    <Variable VarIndex="2" Expression="abs(Btrk1Dxy1/Btrk1DxyError1)" Label="Trk1DCAxy" Title="Trk1DCAxy" Unit="" Internal="Trk1DCAxy" Type="F" Min="9.54853531e-05" Max="2.27588608e+02"/>
    <Variable VarIndex="3" Expression="BsvpvDistance/BsvpvDisErr" Label="dls" Title="dls" Unit="" Internal="dls" Type="F" Min="2.00039959e+00" Max="9.31062891e+03"/>
    <Variable VarIndex="4" Expression="Balpha" Label="Balpha" Title="Balpha" Unit="" Internal="Balpha" Type="F" Min="4.76321657e-05" Max="3.14021730e+00"/>
    <Variable VarIndex="5" Expression="Bchi2cl" Label="Bchi2cl" Title="Bchi2cl" Unit="" Internal="Bchi2cl" Type="F" Min="5.00016920e-02" Max="9.99972939e-01"/>
  </Variables>
  <Spectators NSpec="0"/>
  <Classes NClass="2">
    <Class Name="Signal" Index="0"/>
    <Class Name="Background" Index="1"/>
  </Classes>
  <Transformations NTransformations="1">
    <Transform Name="Normalize">
      <Selection>
        <Input NInputs="6">
          <Input Type="Variable" Label="Btrk1Pt" Expression="Btrk1Pt"/>
          <Input Type="Variable" Label="Trk1DCAz" Expression="abs(Btrk1Dz1/Btrk1DzError1)"/>
          <Input Type="Variable" Label="Trk1DCAxy" Expression="abs(Btrk1Dxy1/Btrk1DxyError1)"/>
          <Input Type="Variable" Label="dls" Expression="BsvpvDistance/BsvpvDisErr"/>
          <Input Type="Variable" Label="Balpha" Expression="Balpha"/>
          <Input Type="Variable" Label="Bchi2cl" Expression="Bchi2cl"/>
        </Input>
        <Output NOutputs="6">
          <Output Type="Variable" Label="Btrk1Pt" Expression="Btrk1Pt"/>
          <Output Type="Variable" Label="Trk1DCAz" Expression="abs(Btrk1Dz1/Btrk1DzError1)"/>
          <Output Type="Variable" Label="Trk1DCAxy" Expression="abs(Btrk1Dxy1/Btrk1DxyError1)"/>
          <Output Type="Variable" Label="dls" Expression="BsvpvDistance/BsvpvDisErr"/>
          <Output Type="Variable" Label="Balpha" Expression="Balpha"/>
          <Output Type="Variable" Label="Bchi2cl" Expression="Bchi2cl"/>
        </Output>
      </Selection>
      <Class ClassIndex="0">
        <Ranges>
          <Range Index="0" Min="2.0055849850177765e-01" Max="1.0054730415344238e+01"/>
          <Range Index="1" Min="4.0180599171435460e-05" Max="8.2336250000000000e+03"/>
          <Range Index="2" Min="3.2792278216220438e-04" Max="2.2758860778808594e+02"/>
          <Range Index="3" Min="2.0009975433349609e+00" Max="9.3106289062500000e+03"/>
          <Range Index="4" Min="4.7632165660616010e-05" Max="3.0939915180206299e+00"/>
          <Range Index="5" Min="5.0001692026853561e-02" Max="9.9997293949127197e-01"/>
        </Ranges>
      </Class>
      <Class ClassIndex="1">
        <Ranges>
          <Range Index="0" Min="2.0001339912414551e-01" Max="9.5628461837768555e+00"/>
          <Range Index="1" Min="8.4410829003900290e-04" Max="3.2567260742187500e+03"/>
          <Range Index="2" Min="9.5485353085678071e-05" Max="3.1622268676757812e+01"/>
          <Range Index="3" Min="2.0003995895385742e+00" Max="7.5661132812500000e+03"/>
          <Range Index="4" Min="7.7949196565896273e-04" Max="3.1402173042297363e+00"/>
          <Range Index="5" Min="5.0018373876810074e-02" Max="9.9996358156204224e-01"/>
        </Ranges>
      </Class>
      <Class ClassIndex="2">
        <Ranges>
          <Range Index="0" Min="2.0001339912414551e-01" Max="1.0054730415344238e+01"/>
          <Range Index="1" Min="4.0180599171435460e-05" Max="8.2336250000000000e+03"/>
          <Range Index="2" Min="9.5485353085678071e-05" Max="2.2758860778808594e+02"/>
          <Range Index="3" Min="2.0003995895385742e+00" Max="9.3106289062500000e+03"/>
          <Range Index="4" Min="4.7632165660616010e-05" Max="3.1402173042297363e+00"/>
          <Range Index="5" Min="5.0001692026853561e-02" Max="9.9997293949127197e-01"/>
        </Ranges>
      </Class>
    </Transform>
  </Transformations>
  <MVAPdfs/>
  <Weights>
    <Layout NLayers="3">
      <Layer Index="0" NNeurons="7">
        <Neuron NSynapses="11">
          -9.1645323784469412e-01 5.2503874713036991e+00 3.1484451394298185e+00 7.6994148518944954e+00 -2.6129779640318209e+00 -3.4212415427714054e+00 -1.6993978351241870e+00 2.5466906658601070e+00 -2.1827988435262308e-01 -5.1261489163765983e-01 6.6376160813353757e-01 
        </Neuron>
        <Neuron NSynapses="11">
          5.2886850058090585e-03 -2.5968519644653800e+00 -5.6865351815824350e-01 -4.6666832264553779e+00 2.0517316383585279e-02 -3.9070305203374550e-01 7.3785822335443529e-01 -1.6531810762860913e-01 3.6793014943884281e+00 -7.4638418866361633e-01 -1.7634628231370331e+00 
        </Neuron>
        <Neuron NSynapses="11">
          1.2517361319205194e+00 4.4507426260031453e+00 5.3261819405886934e-01 1.4253696775177076e+01 -9.9826403714563694e-02 -1.8938004675759390e+00 -1.7615727183093099e+01 2.8051391228278993e-01 1.8641716510932985e-01 1.4976156202656952e+00 -2.6442335258597186e+01 
        </Neuron>
        <Neuron NSynapses="11">
          2.7347314163896356e-02 2.8248143331376716e+00 -7.2906130680892064e-02 1.3179155803042790e+00 2.1060941569369209e+00 -1.4159087956130707e+00 -2.2108038527352982e+00 1.1309754518891248e+00 1.0115861651660515e+01 1.4149857652508122e+00 2.4286639641137248e-01 
        </Neuron>
        <Neuron NSynapses="11">
          -6.2413303346374860e-01 -5.7367269447641904e+00 1.9926403317688017e-02 -2.1097236591495785e-01 7.9814046949841932e-01 1.0443749207881621e+00 1.9434954234143156e+01 1.1622767667274034e+00 -6.5700058295105757e-01 3.4223473040281110e-01 -2.0489679573804293e-01 
        </Neuron>
        <Neuron NSynapses="11">
          -2.8659829535739161e+00 4.5094462197368740e-01 -2.9008484762531972e-01 -1.4144320556326195e-01 1.8025148110431988e+00 4.6462763426228799e-02 -1.5818107033654029e-02 -1.0760201279187614e-01 6.4863718443364901e-02 2.2122516066049966e+00 -2.2478432475683488e-01 
        </Neuron>
        <Neuron NSynapses="11">
          -2.1742307904429712e+00 4.1046505319192788e+00 1.3996758137633125e+00 1.7869076572296127e+01 -4.5058024514561656e-01 -4.1625221298733311e-01 -1.1223677756050709e+00 8.3039573514614773e-01 1.4819480103247159e+01 8.7708846951821939e-01 -2.6544538646848974e+01 
        </Neuron>
      </Layer>
      <Layer Index="1" NNeurons="12">
        <Neuron NSynapses="1">
          -5.9234507478252119e-01 
        </Neuron>
        <Neuron NSynapses="1">
          8.9684631591086117e-01 
        </Neuron>
        <Neuron NSynapses="1">
          1.5180924288708648e+00 
        </Neuron>
        <Neuron NSynapses="1">
          2.2759049379071969e+00 
        </Neuron>
        <Neuron NSynapses="1">
          -4.0485382497588501e-01 
        </Neuron>
        <Neuron NSynapses="1">
          1.7565824026725478e+00 
        </Neuron>
        <Neuron NSynapses="1">
          -1.7289271887454329e+00 
        </Neuron>
        <Neuron NSynapses="1">
          1.0531346296207929e+00 
        </Neuron>
        <Neuron NSynapses="1">
          5.5560119266020083e+00 
        </Neuron>
        <Neuron NSynapses="1">
          3.3061865659776862e-01 
        </Neuron>
        <Neuron NSynapses="1">
          -3.9397946723630213e+00 
        </Neuron>
        <Neuron NSynapses="1">
          -2.7013733314326984e+00 
        </Neuron>
      </Layer>
      <Layer Index="2" NNeurons="1">
        <Neuron NSynapses="0"/>
      </Layer>
    </Layout>
  </Weights>
</MethodSetup>
