<?xml version="1.0"?>
<MethodSetup Method="DNN::DNN">
  <GeneralInfo>
    <Info name="TMVA Release" value="4.2.1 [262657]"/>
    <Info name="ROOT Release" value="6.10/09 [395785]"/>
    <Info name="Creator" value="tasheng"/>
    <Info name="Date" value="Mon Jan 17 19:37:16 2022"/>
    <Info name="Host" value="Linux cmsbuild64.cern.ch 2.6.32-696.30.1.el6.x86_64 #1 SMP Tue May 22 06:09:36 CEST 2018 x86_64 x86_64 x86_64 GNU/Linux"/>
    <Info name="Dir" value="/home/tasheng/bmva/TMVA/BP/train"/>
    <Info name="Training events" value="57215"/>
    <Info name="TrainingTime" value="3.94056220e+01"/>
    <Info name="AnalysisType" value="Classification"/>
  </GeneralInfo>
  <Options>
    <Option name="V" modified="Yes">True</Option>
    <Option name="VerbosityLevel" modified="No">Verbose</Option>
    <Option name="VarTransform" modified="Yes">N</Option>
    <Option name="H" modified="Yes">False</Option>
    <Option name="CreateMVAPdfs" modified="No">False</Option>
    <Option name="IgnoreNegWeightsInTraining" modified="No">False</Option>
    <Option name="Layout" modified="Yes">TANH|128,TANH|128,TANH|128,LINEAR</Option>
    <Option name="ErrorStrategy" modified="Yes">CROSSENTROPY</Option>
    <Option name="WeightInitialization" modified="Yes">XAVIERUNIFORM</Option>
    <Option name="Architecture" modified="Yes">CPU</Option>
    <Option name="TrainingStrategy" modified="Yes">LearningRate=1e-1,Momentum=0.9,Repetitions=1,ConvergenceSteps=20,BatchSize=256,TestRepetitions=10,WeightDecay=1e-4,Regularization=L2,DropConfig=0.0+0.5+0.5+0.5,</Option>
  </Options>
  <Variables NVar="6">
    <Variable VarIndex="0" Expression="Btrk1Pt" Label="Btrk1Pt" Title="Btrk1Pt" Unit="" Internal="Btrk1Pt" Type="F" Min="2.00013399e-01" Max="1.00547304e+01"/>
    <Variable VarIndex="1" Expression="abs(Btrk1Dz1/Btrk1DzError1)" Label="Trk1DCAz" Title="Trk1DCAz" Unit="" Internal="Trk1DCAz" Type="F" Min="4.01805992e-05" Max="8.23362500e+03"/>
    <Variable VarIndex="2" Expression="abs(Btrk1Dxy1/Btrk1DxyError1)" Label="Trk1DCAxy" Title="Trk1DCAxy" Unit="" Internal="Trk1DCAxy" Type="F" Min="9.54853531e-05" Max="2.27588608e+02"/>
    <Variable VarIndex="3" Expression="BsvpvDistance/BsvpvDisErr" Label="dls" Title="dls" Unit="" Internal="dls" Type="F" Min="2.00039959e+00" Max="9.31062891e+03"/>
    <Variable VarIndex="4" Expression="Balpha" Label="Balpha" Title="Balpha" Unit="" Internal="Balpha" Type="F" Min="4.76321657e-05" Max="3.14021730e+00"/>
    <Variable VarIndex="5" Expression="Bchi2cl" Label="Bchi2cl" Title="Bchi2cl" Unit="" Internal="Bchi2cl" Type="F" Min="5.00016920e-02" Max="9.99972939e-01"/>
  </Variables>
  <Spectators NSpec="0"/>
  <Classes NClass="2">
    <Class Name="Signal" Index="0"/>
    <Class Name="Background" Index="1"/>
  </Classes>
  <Transformations NTransformations="1">
    <Transform Name="Normalize">
      <Selection>
        <Input NInputs="6">
          <Input Type="Variable" Label="Btrk1Pt" Expression="Btrk1Pt"/>
          <Input Type="Variable" Label="Trk1DCAz" Expression="abs(Btrk1Dz1/Btrk1DzError1)"/>
          <Input Type="Variable" Label="Trk1DCAxy" Expression="abs(Btrk1Dxy1/Btrk1DxyError1)"/>
          <Input Type="Variable" Label="dls" Expression="BsvpvDistance/BsvpvDisErr"/>
          <Input Type="Variable" Label="Balpha" Expression="Balpha"/>
          <Input Type="Variable" Label="Bchi2cl" Expression="Bchi2cl"/>
        </Input>
        <Output NOutputs="6">
          <Output Type="Variable" Label="Btrk1Pt" Expression="Btrk1Pt"/>
          <Output Type="Variable" Label="Trk1DCAz" Expression="abs(Btrk1Dz1/Btrk1DzError1)"/>
          <Output Type="Variable" Label="Trk1DCAxy" Expression="abs(Btrk1Dxy1/Btrk1DxyError1)"/>
          <Output Type="Variable" Label="dls" Expression="BsvpvDistance/BsvpvDisErr"/>
          <Output Type="Variable" Label="Balpha" Expression="Balpha"/>
          <Output Type="Variable" Label="Bchi2cl" Expression="Bchi2cl"/>
        </Output>
      </Selection>
      <Class ClassIndex="0">
        <Ranges>
          <Range Index="0" Min="2.0055849850177765e-01" Max="1.0054730415344238e+01"/>
          <Range Index="1" Min="4.0180599171435460e-05" Max="8.2336250000000000e+03"/>
          <Range Index="2" Min="3.2792278216220438e-04" Max="2.2758860778808594e+02"/>
          <Range Index="3" Min="2.0009975433349609e+00" Max="9.3106289062500000e+03"/>
          <Range Index="4" Min="4.7632165660616010e-05" Max="3.0939915180206299e+00"/>
          <Range Index="5" Min="5.0001692026853561e-02" Max="9.9997293949127197e-01"/>
        </Ranges>
      </Class>
      <Class ClassIndex="1">
        <Ranges>
          <Range Index="0" Min="2.0001339912414551e-01" Max="9.5628461837768555e+00"/>
          <Range Index="1" Min="8.4410829003900290e-04" Max="3.2567260742187500e+03"/>
          <Range Index="2" Min="9.5485353085678071e-05" Max="3.1622268676757812e+01"/>
          <Range Index="3" Min="2.0003995895385742e+00" Max="7.5661132812500000e+03"/>
          <Range Index="4" Min="7.7949196565896273e-04" Max="3.1402173042297363e+00"/>
          <Range Index="5" Min="5.0018373876810074e-02" Max="9.9996358156204224e-01"/>
        </Ranges>
      </Class>
      <Class ClassIndex="2">
        <Ranges>
          <Range Index="0" Min="2.0001339912414551e-01" Max="1.0054730415344238e+01"/>
          <Range Index="1" Min="4.0180599171435460e-05" Max="8.2336250000000000e+03"/>
          <Range Index="2" Min="9.5485353085678071e-05" Max="2.2758860778808594e+02"/>
          <Range Index="3" Min="2.0003995895385742e+00" Max="9.3106289062500000e+03"/>
          <Range Index="4" Min="4.7632165660616010e-05" Max="3.1402173042297363e+00"/>
          <Range Index="5" Min="5.0001692026853561e-02" Max="9.9997293949127197e-01"/>
        </Ranges>
      </Class>
    </Transform>
  </Transformations>
  <MVAPdfs/>
  <Weights InputWidth="6" Depth="4" LossFunction="C" OutputFunction="S">
    <Layer ActivationFunction="3">
      <Weights rows="128" cols="6">
        -1.2612311542034149e-01 -8.9575601741671562e-03 6.5092906355857849e-02 8.2040205597877502e-02 -8.4983110427856445e-02 9.0356819331645966e-02 -6.7663252353668213e-01 -6.1205979436635971e-03 -1.0696899890899658e+00 -3.7087881565093994e-01 1.2918598949909210e-01 -4.6666841953992844e-02 -8.9436255395412445e-02 2.0205244421958923e-02 2.8483660891652107e-02 3.0686918646097183e-02 -1.0767590254545212e-01 -2.3445317521691322e-02 -2.9318422079086304e-01 3.5865537822246552e-02 -9.0951003134250641e-02 1.4167246222496033e-01 -3.8683697581291199e-01 -6.5827518701553345e-02 -4.3058478832244873e-01 -3.3090125769376755e-02 -1.5801516771316528e+00 -3.1209316104650497e-02 1.1464977264404297e-01 -3.2206341624259949e-02 2.0506823062896729e-01 -1.8462282419204712e-01 -4.3440800905227661e-01 4.1674811393022537e-02 2.6291625574231148e-02 -3.2922204583883286e-02 -2.5327718257904053e-01 -3.0524838715791702e-02 -4.9801236391067505e-01 -2.5356748700141907e-01 7.3976778984069824e-01 -4.2590301483869553e-02 -4.4264554977416992e-01 -1.0755155980587006e-01 -9.8828303813934326e-01 -2.7049767971038818e-01 1.2492194175720215e+00 1.3943951576948166e-02 -4.5903190970420837e-02 8.8194295763969421e-02 2.7760457992553711e-01 -4.1745737195014954e-02 -4.6653810143470764e-01 -1.3070819899439812e-02 -4.0453651547431946e-01 2.0272293686866760e-01 -4.5557999610900879e-01 2.7298444509506226e-01 -6.8874590098857880e-02 5.8408683538436890e-01 3.1029609963297844e-02 -8.0707468092441559e-02 4.2536873370409012e-02 -1.8518438562750816e-02 4.2438589036464691e-02 -1.3022586703300476e-01 2.2427313029766083e-01 4.5128930360078812e-02 3.0126968026161194e-01 -5.6205622851848602e-02 5.4359002970159054e-03 -5.4438449442386627e-02 -1.9272632896900177e-01 8.0319859087467194e-02 -6.2524712085723877e-01 -1.1284571886062622e-01 1.3078208267688751e-01 -5.9496581554412842e-02 -8.1111921463161707e-04 8.7332449853420258e-02 7.1423418819904327e-02 2.5736150145530701e-01 -5.4599684476852417e-01 -1.8874166533350945e-02 1.5920089185237885e-01 -1.3234652578830719e-01 4.2180761694908142e-02 1.2036780267953873e-01 -2.1062500774860382e-01 1.1829289793968201e-01 1.1781270615756512e-02 9.7191482782363892e-02 -3.8523095846176147e-01 -6.0983046889305115e-02 1.9905832409858704e-01 -6.3569443300366402e-03 1.1365023255348206e-01 -2.1720109879970551e-01 -1.7244254052639008e-01 -1.0989844799041748e-02 -7.8640080988407135e-02 -1.1008024960756302e-01 -9.6771948039531708e-02 9.4424011185765266e-03 -3.9383295178413391e-01 1.4072446152567863e-02 -5.1899049431085587e-02 -3.8550976663827896e-02 -2.3387913405895233e-01 1.0768730938434601e-01 7.0644307136535645e-01 1.6700110863894224e-03 1.2529176659882069e-02 -2.2024983540177345e-02 -4.0180566906929016e-01 2.8117170929908752e-01 -3.3425974845886230e-01 5.5718052387237549e-01 -9.0060091018676758e-01 1.3693003356456757e-01 2.6234647631645203e-01 -6.0621313750743866e-02 -3.9905613660812378e-01 7.5822770595550537e-02 -1.5089598298072815e-01 2.4884480983018875e-02 -1.4911162666976452e-02 -6.9230951368808746e-02 3.8498409092426300e-02 -4.6099066734313965e-02 -4.5346134901046753e-01 2.8685778379440308e-02 -1.8417212367057800e-01 -1.9071426242589951e-02 -2.0200730860233307e-01 7.3769293725490570e-02 6.2729910016059875e-02 -7.0895075798034668e-02 -1.1138893365859985e+00 2.8394445776939392e-01 -2.1950261592864990e+00 1.2267826125025749e-02 3.3357238769531250e-01 -2.1652811765670776e-01 -4.3286961317062378e-01 4.9750942736864090e-02 7.1970574557781219e-02 -3.4200787544250488e-02 3.2761421799659729e-01 -1.0698848962783813e-01 2.9821789264678955e-01 -6.0516990721225739e-02 -2.3100176826119423e-02 5.8360204100608826e-02 1.9770862162113190e-01 -7.2045475244522095e-03 -5.7248336076736450e-01 7.4269846081733704e-02 -8.1667101383209229e-01 -1.3113480806350708e-01 3.4603971242904663e-01 -7.8653553500771523e-03 -7.2816121578216553e-01 5.9734664857387543e-02 -1.0046674013137817e+00 -1.1338796466588974e-01 5.5855357646942139e-01 -4.5963544398546219e-02 3.9716973900794983e-02 1.8088718876242638e-02 8.4388095140457153e-01 2.2095996886491776e-02 -6.7517109215259552e-02 2.0420718938112259e-02 -2.0674081146717072e-01 5.4382562637329102e-02 1.9939328730106354e-01 -8.6987175047397614e-02 2.5342557579278946e-02 9.6858926117420197e-02 2.2372432053089142e-01 1.5542450547218323e-01 8.2904195785522461e-01 -1.7637534067034721e-02 -1.1983479559421539e-01 3.4150067716836929e-02 1.7507102340459824e-02 1.0638669878244400e-01 9.4702053070068359e-01 6.0241911560297012e-03 -9.1146722435951233e-02 2.3231184110045433e-02 -3.8370299339294434e-01 -7.2664350271224976e-02 -1.5334534645080566e+00 2.3108666762709618e-02 1.4674445986747742e-01 -4.8094775527715683e-02 -1.7952167987823486e-01 2.7845531702041626e-02 -6.5898811817169189e-01 -5.5655464529991150e-02 6.9797351956367493e-02 -9.4913825392723083e-02 -2.7585414052009583e-01 3.3062607049942017e-02 -6.0197663307189941e-01 -5.6025899946689606e-02 1.9576889276504517e-01 2.1149214357137680e-02 5.1043979823589325e-02 -1.2383973598480225e-01 -1.2613989114761353e+00 -7.8467905521392822e-02 4.4571448117494583e-02 -3.3318789210170507e-03 -2.9031080007553101e-01 1.1523450165987015e-01 3.4130504727363586e-01 -8.7706884369254112e-03 -4.0374509990215302e-02 -4.8639252781867981e-02 5.7482223957777023e-02 -3.4307546913623810e-02 -9.9622499942779541e-01 -6.2682926654815674e-02 2.4330450594425201e-01 3.1857233494520187e-02 -2.2008025646209717e-01 1.4135006070137024e-01 4.5071381330490112e-01 -3.1768620014190674e-02 1.1796144396066666e-01 7.8898072242736816e-02 5.7822400331497192e-01 1.2883229181170464e-02 1.4811433553695679e+00 5.0834380090236664e-02 -1.5798534452915192e-01 2.9204094782471657e-02 7.2898727655410767e-01 -7.8647062182426453e-02 1.6787914037704468e+00 5.9219643473625183e-02 -2.1727639436721802e-01 9.7739562392234802e-02 6.1677098274230957e-01 4.8109080642461777e-02 6.6164147853851318e-01 -2.2953122854232788e-02 -1.9414265453815460e-01 -1.6189703717827797e-02 1.7446392774581909e-01 -5.6291446089744568e-02 -8.2181066274642944e-01 -7.9739596694707870e-03 5.5468425154685974e-02 -1.0543560981750488e-01 3.4740555286407471e-01 -4.5148629695177078e-02 -1.8899473547935486e-01 -4.4716816395521164e-02 1.0143706575036049e-02 1.8497658893465996e-02 -7.3396599292755127e-01 3.3651284873485565e-02 -2.2646200656890869e+00 -3.5115817189216614e-01 7.0065468549728394e-02 -2.5425812229514122e-02 3.2531785964965820e-01 1.0944144427776337e-01 8.2970118522644043e-01 1.2140164524316788e-01 -1.3327190279960632e-01 -1.6467508673667908e-01 3.7551760673522949e-01 1.4527444727718830e-03 8.9740401506423950e-01 4.3521001935005188e-01 -1.0364743471145630e+00 2.6174245402216911e-02 2.2198677062988281e-01 5.0830394029617310e-02 1.2240335941314697e+00 1.3516578078269958e-01 -8.7509319186210632e-02 1.2606224045157433e-02 -8.1307649612426758e-02 -4.6407930552959442e-02 -6.2148153781890869e-01 -1.3348653912544250e-01 7.9439026117324829e-01 2.0522200502455235e-03 -2.3816558718681335e-01 1.3245508074760437e-01 4.6565669775009155e-01 -5.4580468684434891e-02 -2.9110521078109741e-01 4.0634635835886002e-02 1.5353906154632568e-01 4.8545189201831818e-03 7.1039301156997681e-01 2.3599225282669067e-01 -8.4308254718780518e-01 -2.0938109606504440e-02 2.2834326326847076e-01 7.6817572116851807e-02 1.4775387048721313e+00 3.2334566116333008e-01 -3.1559221446514130e-02 3.1616374850273132e-02 2.5580406188964844e-01 6.0252532362937927e-02 1.0139243304729462e-01 1.8074144423007965e-01 -1.8666177988052368e-01 1.3681730628013611e-01 3.0931672453880310e-01 -8.4250662475824356e-03 -3.5207116603851318e-01 8.7455533444881439e-02 6.6777400672435760e-02 -1.2271172367036343e-02 4.1867214441299438e-01 6.7407622933387756e-02 1.2831798791885376e+00 3.2468396425247192e-01 -6.4795739948749542e-02 2.3776464164257050e-02 4.2335912585258484e-01 6.8003058433532715e-02 2.5479164719581604e-01 7.0177614688873291e-02 4.0118668228387833e-02 2.3801000788807869e-02 5.4314941167831421e-01 6.4050488173961639e-02 3.6366271972656250e-01 -8.6175560951232910e-02 -5.1973316818475723e-02 -6.8134240806102753e-02 6.9604724645614624e-02 -9.5745489001274109e-02 -8.2405328750610352e-01 -2.2045914828777313e-01 -5.3169708698987961e-02 -4.7660609707236290e-03 5.5845078080892563e-02 -9.4663634896278381e-02 5.5152726173400879e-01 5.5259879678487778e-02 -2.6858657598495483e-01 -6.0110580176115036e-02 2.2355514764785767e-01 1.0657296516001225e-02 -5.9398370981216431e-01 -6.0010917484760284e-02 2.8465211391448975e-01 -3.1263817101716995e-02 2.8306284546852112e-01 6.4159564673900604e-02 6.3909423351287842e-01 3.0797812342643738e-01 9.8953880369663239e-03 2.3319484665989876e-02 -7.4145281314849854e-01 9.8857909440994263e-02 -1.4265842437744141e+00 -1.5415744483470917e-01 9.9037313461303711e-01 -5.4092086851596832e-02 -2.0020332932472229e-01 5.2560232579708099e-02 -6.8642389774322510e-01 -1.3077893853187561e-01 8.8407255709171295e-02 -2.5952558964490891e-02 3.2277825474739075e-01 1.5349903702735901e-01 8.6783927679061890e-01 1.3458064198493958e-01 -8.3255119621753693e-02 2.0184200257062912e-02 -1.5102271735668182e-01 1.2645748257637024e-01 3.9192932844161987e-01 7.9411908984184265e-02 -9.3818075954914093e-02 -6.0121901333332062e-02 -5.0582623481750488e-01 -1.4966269955039024e-02 -9.8870611190795898e-01 -1.7189791798591614e-01 8.9814767241477966e-02 -1.7381038516759872e-02 -3.7579876184463501e-01 6.3398361206054688e-02 -6.6360831260681152e-01 -3.1139141321182251e-01 4.8230946063995361e-02 -2.5030680000782013e-02 7.2460013628005981e-01 -1.4777401089668274e-01 1.7722738981246948e+00 7.6622873544692993e-02 -2.1779747307300568e-01 6.3167519867420197e-02 -1.3120095245540142e-02 1.4413619041442871e-01 3.1152456998825073e-01 -2.7233639732003212e-02 1.0288082994520664e-03 2.9338827356696129e-02 -5.8266139030456543e-01 2.5035202503204346e-01 -4.1557657718658447e-01 2.7014395594596863e-01 -4.7480076551437378e-01 1.3846859335899353e-01 -2.2409819066524506e-03 -1.1511398106813431e-01 7.4711821973323822e-02 -1.2991476058959961e-01 -3.8412395119667053e-01 -1.1493372172117233e-01 -9.2454098165035248e-02 2.3371036350727081e-01 6.4350247383117676e-01 -7.9452246427536011e-02 5.6773267686367035e-02 6.5128013491630554e-02 3.7027373909950256e-02 8.6899045854806900e-03 -9.0489469468593597e-02 -4.5651458203792572e-02 4.4871840626001358e-02 -2.9584115371108055e-02 -2.2509764134883881e-01 8.6144752800464630e-02 -1.2837351560592651e+00 -9.0698085725307465e-02 1.7686259746551514e-01 -9.5944821834564209e-02 -3.1818695366382599e-02 5.1623079925775528e-02 -1.9028645008802414e-02 9.0055711567401886e-02 4.5909922569990158e-02 5.8687280863523483e-02 -4.4631812721490860e-02 7.7303871512413025e-02 -1.0053044557571411e+00 -9.3580171465873718e-02 3.8315495848655701e-01 -1.6716906800866127e-02 3.0230715870857239e-01 -8.9845694601535797e-02 2.0610992908477783e+00 2.0611648261547089e-01 -8.5008166730403900e-02 4.4827900826931000e-02 -2.1557550132274628e-01 5.6220110505819321e-02 3.8305026292800903e-01 1.2176662683486938e-01 6.0183338820934296e-02 -1.1877979151904583e-02 -1.5537592768669128e-01 -1.0166741907596588e-02 -9.0135598182678223e-01 -2.5056129693984985e-01 8.1015306711196899e-01 -2.7406847104430199e-02 -2.3528277873992920e-01 9.7118631005287170e-02 3.8493372499942780e-02 3.1826253980398178e-02 -1.1701532453298569e-01 6.1261199880391359e-04 3.9769023656845093e-01 -9.1929465532302856e-02 -1.7128218710422516e-01 -5.6965481489896774e-02 -4.3545763939619064e-02 -9.2886149883270264e-02 4.6972164511680603e-01 -2.0254892110824585e-01 -8.7126530706882477e-02 -1.7563754320144653e-01 -2.1537649631500244e-01 -1.2412706762552261e-01 -3.0971947312355042e-01 -6.2128540128469467e-02 -6.1094880104064941e-01 6.6364295780658722e-02 2.6272433996200562e-01 -6.7963033914566040e-02 2.5635570287704468e-01 -9.6097625792026520e-02 -3.9209239184856415e-03 -2.4433460086584091e-02 -6.2381580471992493e-02 -7.6770946383476257e-02 -2.5098791718482971e-01 1.7680351436138153e-01 2.6195630431175232e-01 1.9050991535186768e-01 -6.0869246721267700e-01 7.0936486124992371e-02 8.3692207932472229e-02 3.5543207079172134e-02 -6.1486905813217163e-01 -1.9815604388713837e-01 6.0463303327560425e-01 5.2755925804376602e-02 3.3183357119560242e-01 -2.9376626014709473e-01 -4.3246829509735107e-01 -1.7180909216403961e-01 -1.7774660885334015e-01 2.0730324089527130e-02 -3.5928511619567871e-01 -1.6851554811000824e-01 -4.6581861376762390e-01 -1.3418523594737053e-02 -2.7918726205825806e-02 5.5959541350603104e-02 -2.9691118001937866e-01 -8.6760647594928741e-02 2.1135815978050232e-01 -5.2583985961973667e-05 -2.9685534536838531e-02 1.1276536434888840e-01 1.7475832253694534e-02 2.3859124630689621e-02 1.7601114511489868e-01 -9.3945749104022980e-02 -4.2744018137454987e-02 1.8855709582567215e-02 -3.8809809088706970e-01 8.8466010987758636e-02 4.1770553588867188e-01 4.7251366078853607e-02 -1.0916905850172043e-01 -5.2713252604007721e-02 -1.4532902836799622e-01 -1.5652464330196381e-01 2.6499298214912415e-01 -5.0699792802333832e-02 -5.9032219648361206e-01 -7.2937287390232086e-02 -6.1221487820148468e-02 1.5551435947418213e-01 1.0520086288452148e+00 1.6944156959652901e-02 -4.3159946799278259e-02 2.7713838964700699e-02 -6.5043002367019653e-01 1.6151895746588707e-02 -1.3775418996810913e+00 -4.9804598093032837e-02 8.5592019557952881e-01 -6.0626816004514694e-02 -1.1866237223148346e-01 2.9176674783229828e-02 -8.3490496873855591e-01 -1.6896541416645050e-01 -6.0296893119812012e-02 1.3877578079700470e-02 4.0495701134204865e-02 1.2298806756734848e-01 6.7183655500411987e-01 1.2581455521285534e-03 5.2633684128522873e-02 4.8213794827461243e-02 -3.8371187448501587e-01 -1.9393521547317505e-01 -8.2204222679138184e-01 -1.6991717740893364e-02 6.1367470771074295e-02 -1.4045995660126209e-02 -6.4413154125213623e-01 -8.3926599472761154e-03 -1.5878722667694092e+00 -4.0400367230176926e-02 1.9622625410556793e-01 -3.9561152458190918e-02 -2.2982715070247650e-01 6.3564851880073547e-02 4.6662172675132751e-01 1.0309603065252304e-01 9.5066592097282410e-02 1.0229086130857468e-01 4.5130819082260132e-01 -6.4999990165233612e-02 1.3300914764404297e+00 2.5946170091629028e-01 -1.1591734886169434e+00 2.6459487155079842e-02 -3.4978070855140686e-01 7.8970961272716522e-02 -1.0419036149978638e+00 -2.4038505554199219e-01 2.1134914457798004e-01 1.0201121680438519e-02 3.8036847114562988e-01 -3.3990617841482162e-02 -3.7244260311126709e-01 6.8753398954868317e-04 1.7001658678054810e-01 -8.2739762961864471e-02 -2.8187435865402222e-01 -6.3219822943210602e-02 -5.0109181553125381e-02 9.8989680409431458e-02 -2.4886919558048248e-01 -2.0323574542999268e-02 -9.9230505526065826e-02 -6.8739175796508789e-02 -2.7333127334713936e-02 1.4291046559810638e-01 -2.2082293033599854e-01 1.8854354321956635e-01 -7.0662069320678711e-01 -7.0614457130432129e-02 -2.4672958254814148e-01 -1.0490823537111282e-02 2.1755751967430115e-01 -6.4785011112689972e-02 1.4777916669845581e-01 -1.2700949609279633e-01 -3.8146972656250000e-02 -8.7555401027202606e-02 5.0933677703142166e-03 -6.5011650323867798e-02 4.7953760623931885e-01 -1.4984886348247528e-01 4.2150720953941345e-01 -3.6527255177497864e-01 7.8838515281677246e-01 -4.7584347426891327e-02 4.7516164183616638e-01 -1.3249385356903076e-01 2.5842368602752686e-01 -2.8335931897163391e-01 7.1526360511779785e-01 7.7484012581408024e-03 3.1079411506652832e-01 -9.8558954894542694e-02 3.6127635836601257e-01 -1.2589319050312042e-01 7.0604187250137329e-01 -6.5212305635213852e-03 3.4433832764625549e-01 -2.8257319331169128e-01 -5.6296718120574951e-01 -4.8108447343111038e-02 -1.3306631147861481e-01 -5.5778466165065765e-02 -2.7184176445007324e-01 -4.5744240283966064e-02 -5.5115818977355957e-01 1.0653815418481827e-01 3.7735527753829956e-01 3.3077914267778397e-02 8.2247436046600342e-02 -2.5888301432132721e-02 8.5342727601528168e-02 3.1220078468322754e-02 -2.1946048736572266e-01 6.5786644816398621e-02 5.4243963211774826e-02 -5.0931639969348907e-02 -1.0427230596542358e+00 -9.9025383591651917e-02 1.0593418031930923e-01 -2.2599339485168457e-02 -7.1338140964508057e-01 1.1481682956218719e-01 -1.2791023254394531e+00 -7.0780396461486816e-02 3.6229771375656128e-01 -6.8307012319564819e-02 9.0347968041896820e-02 -3.7917051464319229e-02 4.9302790313959122e-02 1.0737973451614380e-01 -4.5462536811828613e-01 -1.3546609878540039e-01 -1.9475436210632324e-01 -9.6269249916076660e-02 1.4657378196716309e-01 3.3954277634620667e-02 -4.5855879783630371e-01 5.8725442737340927e-02 1.8465401232242584e-01 -1.2123588472604752e-02 -1.1255939304828644e-01 1.0999126732349396e-01 1.6543257236480713e-01 -1.5528921037912369e-02 1.6291557252407074e-01 8.5309930145740509e-02 3.9443978667259216e-01 -6.1058115214109421e-02 -8.4601707756519318e-02 3.1177219003438950e-02 -3.3978924155235291e-01 2.7159184217453003e-01 -1.1309891007840633e-02 2.0698447525501251e-01 -7.9986441135406494e-01 1.0582316666841507e-01 -4.2259296774864197e-01 -2.7877183631062508e-02 -6.1841234564781189e-02 -1.5463632345199585e-01 1.6574157774448395e-01 6.2610626220703125e-02 6.7369133234024048e-01 -2.1262548863887787e-01 1.3632918596267700e+00 9.4723634421825409e-02 -5.2352392673492432e-01 8.0910146236419678e-02 -3.6652039736509323e-02 2.1558178588747978e-02 -2.4765700101852417e-02 4.4874757528305054e-02 2.9824557900428772e-01 8.1721238791942596e-02 -3.7756571173667908e-01 1.9199401140213013e-01 1.2304545193910599e-01 -8.0418542027473450e-02 2.3025941848754883e-01 -7.7768474817276001e-02 -7.1332536637783051e-02 2.7447793632745743e-02 1.2267223596572876e+00 1.1424417048692703e-01 -5.8711659163236618e-02 1.0442316532135010e-02 -4.9983817338943481e-01 2.3014831542968750e-01 1.3517306745052338e-01 -7.4325948953628540e-02 3.6650750041007996e-01 1.0858756303787231e-01 1.3969984650611877e-01 -4.6471156179904938e-02 -4.4555851817131042e-01 -1.0120437294244766e-01 -1.9009847939014435e-01 4.4348452240228653e-02 4.4034840539097786e-04 9.1925412416458130e-02 2.8020408749580383e-01 2.0539704710245132e-02 -2.5499511510133743e-02 2.5091035291552544e-02 -8.9916653931140900e-02 -4.9473084509372711e-02 -7.1955716609954834e-01 -2.0442876219749451e-01 7.4878555536270142e-01 1.6004472970962524e-02 
      </Weights>
      <Biases rows="128" cols="1">
        -1.8589124083518982e-02 -1.8559911251068115e+00 -1.6387802362442017e-01 -4.8955276608467102e-01 -1.7727924585342407e+00 -3.3684268593788147e-01 -2.3689182102680206e-01 -4.5623409748077393e-01 -2.0203801989555359e-01 -7.0481824874877930e-01 -3.5453124437481165e-03 4.3711170554161072e-01 -5.9824955463409424e-01 -1.2051180750131607e-01 -2.2666083648800850e-02 -2.6283415034413338e-02 -3.7811949849128723e-01 -4.0019896626472473e-01 5.3531998395919800e-01 -4.9490138888359070e-01 -2.2006939351558685e-01 -5.2171462774276733e-01 -2.0763741433620453e-01 -2.5961208343505859e+00 -7.7418684959411621e-03 3.7346494197845459e-01 -9.9380224943161011e-01 -1.0955289602279663e+00 7.3015075922012329e-01 -2.3723643273115158e-02 9.5113813877105713e-01 8.7528771162033081e-01 -1.6372013092041016e+00 -6.7157816886901855e-01 -5.9781318902969360e-01 -1.2057541608810425e+00 1.2515218555927277e-01 -7.7637273073196411e-01 4.1895431280136108e-01 1.7801598310470581e+00 2.0192856788635254e+00 9.7806984186172485e-01 -6.0773396492004395e-01 4.9441069364547729e-02 -3.0167624950408936e+00 1.2203296422958374e+00 6.3727670907974243e-01 1.3727939128875732e+00 -3.0151929706335068e-02 7.3174908757209778e-02 1.9192837178707123e-01 1.8604136705398560e+00 4.1520020365715027e-01 7.7898353338241577e-02 1.8386160135269165e+00 7.5567150115966797e-01 7.1260857582092285e-01 -9.8350876569747925e-01 2.5189048051834106e-01 -1.4588531851768494e-01 1.1555612087249756e+00 -1.0319683551788330e+00 -7.3648625612258911e-01 1.2402428388595581e+00 3.5238394141197205e-01 -1.3906559944152832e+00 -1.0953913927078247e+00 2.0429720878601074e+00 3.5604056715965271e-01 -7.8146940469741821e-01 -5.6436282396316528e-01 6.6170686483383179e-01 -3.2593432813882828e-02 -1.2413241863250732e+00 1.4536224305629730e-01 -6.3930636644363403e-01 2.1846296787261963e+00 3.5513836145401001e-01 -4.5529225468635559e-01 -1.4762464165687561e-01 -2.1665476262569427e-02 -2.5949952006340027e-01 -5.5728644132614136e-01 2.1876046434044838e-02 -1.5993718802928925e-01 -7.2136357426643372e-02 -6.7391771078109741e-01 -9.2581462860107422e-01 -1.8730044364929199e-01 4.8152949661016464e-02 8.3865463733673096e-02 -6.6029888391494751e-01 1.0013581514358521e+00 -1.0260351896286011e+00 -8.3897197246551514e-01 7.7171498537063599e-01 -1.1932064294815063e+00 -1.8955245018005371e+00 4.5030325651168823e-01 6.5159589052200317e-01 -1.2604262828826904e+00 7.8383997082710266e-02 -4.5831981301307678e-01 -2.2569502890110016e-01 -6.7649435997009277e-01 -1.2070209532976151e-01 8.7739175558090210e-01 8.1287318468093872e-01 9.1350883245468140e-01 -6.5923929214477539e-01 -3.2141113281250000e-01 -8.6976766586303711e-02 -9.7443145513534546e-01 -1.4721677303314209e+00 -2.3243144154548645e-01 -5.3773003816604614e-01 2.8055828809738159e-01 3.9394518733024597e-01 -4.1869765520095825e-01 -4.5407363772392273e-01 1.2609907388687134e+00 3.0194213986396790e-01 9.8449327051639557e-02 1.1253427267074585e+00 1.8469977378845215e-01 -5.1286292076110840e-01 3.2037100195884705e-01 -2.7606564760208130e-01 
      </Biases>
    </Layer>
    <Layer ActivationFunction="3">
      <Weights rows="128" cols="128">
        -1.4362302608788013e-03 -2.7131093665957451e-02 2.1948644891381264e-02 2.1412964910268784e-02 6.6924486309289932e-03 4.1744623333215714e-02 -7.8092597424983978e-02 -4.8513121902942657e-02 4.2351499199867249e-02 -4.9602340906858444e-02 1.3638154603540897e-02 4.2525161989033222e-03 -4.3565062806010246e-03 4.2928114533424377e-02 3.3147461712360382e-02 1.9294606521725655e-02 2.6257876306772232e-02 -5.2685472182929516e-03 -4.6228419989347458e-02 2.9013320803642273e-02 2.8383199125528336e-02 2.9595008119940758e-02 -4.3632965534925461e-02 -9.5867745578289032e-02 -6.5730668604373932e-02 1.4726900495588779e-02 -8.0277487635612488e-02 -3.0993144959211349e-02 -1.9790150225162506e-02 6.0385693795979023e-03 1.9340284168720245e-02 -3.0529543757438660e-02 -3.5250894725322723e-02 1.0386087000370026e-02 -2.7784017845988274e-02 5.1378542557358742e-03 -3.5348098725080490e-02 -2.8004653286188841e-03 -2.1512996405363083e-02 6.4778900705277920e-03 6.7122414708137512e-02 2.5597184896469116e-02 3.7538404576480389e-03 -1.8160128965973854e-03 -2.3001745343208313e-02 -6.2801949679851532e-03 1.0132957994937897e-01 2.1886704489588737e-02 -5.8965437114238739e-02 1.0715557262301445e-02 6.2653698027133942e-02 -1.3270658440887928e-02 3.7175314500927925e-03 1.2763898819684982e-02 4.3120933696627617e-03 4.7015734016895294e-02 3.4846626222133636e-02 4.0451683104038239e-02 -1.7790092155337334e-02 2.5588817894458771e-02 -1.0123122483491898e-02 -1.0320460796356201e-01 3.1355477403849363e-03 3.5046664997935295e-03 -2.1881755441427231e-02 -6.3709840178489685e-02 1.1529514566063881e-02 5.5875051766633987e-02 2.8352450579404831e-02 -2.8642186895012856e-02 2.8216712176799774e-02 -2.5705460458993912e-02 -1.8849136307835579e-02 2.0952634513378143e-02 -5.1804602844640613e-04 -1.4795679599046707e-02 -3.3677504397928715e-03 -4.7118920832872391e-02 -3.2232958823442459e-02 1.4091524295508862e-02 2.8468105942010880e-02 6.9799222052097321e-02 -3.7122327834367752e-02 -5.0081997178494930e-03 -2.0879199728369713e-03 -3.8795668631792068e-02 1.6894804313778877e-02 -7.9302927479147911e-03 -4.6922810375690460e-02 2.7891132980585098e-02 -4.1910938918590546e-02 7.4423747137188911e-03 -4.2961098253726959e-02 -8.9990861713886261e-02 -1.3812261633574963e-02 -9.6431924030184746e-03 -2.8787396848201752e-02 -7.1107991039752960e-02 -1.4824442565441132e-02 7.3684021830558777e-02 -2.6207616552710533e-02 -1.5051075257360935e-02 -2.4834021925926208e-02 2.6904169470071793e-02 -4.8220794647932053e-02 2.2674702107906342e-02 -1.6491813585162163e-02 -7.7286469750106335e-03 -2.3822776973247528e-02 4.6499475836753845e-02 -3.7342465948313475e-03 1.8890926614403725e-02 2.9156152158975601e-02 -7.8084677457809448e-02 1.2424667365849018e-02 2.2928401827812195e-02 3.3841843251138926e-03 3.1466275453567505e-02 -1.7960404977202415e-02 -9.7121661528944969e-03 6.5685197710990906e-02 -2.6313330978155136e-02 -5.3793516010046005e-02 -3.6528639029711485e-03 -7.8278392553329468e-02 2.2347724065184593e-02 -1.4461066573858261e-02 -3.3209286630153656e-02 -7.3019885458052158e-03 -1.0429047793149948e-01 -1.6391105949878693e-02 -5.2944939583539963e-02 -9.5208495855331421e-02 8.9739440008997917e-03 -1.2669196724891663e-01 -7.2236442938446999e-03 8.2493117079138756e-03 -8.2121625542640686e-02 -4.6934187412261963e-02 5.2826818078756332e-02 -5.7874567806720734e-02 3.1273458153009415e-02 3.0705975368618965e-02 -5.9744045138359070e-02 -1.8266387283802032e-02 -3.4102968871593475e-02 9.0057188645005226e-03 3.5203635692596436e-02 3.2525826245546341e-02 -7.5523220002651215e-03 -4.8158057034015656e-02 -1.9851076602935791e-01 -1.0650751739740372e-01 6.1406157910823822e-02 -1.2811242043972015e-01 -1.0746710747480392e-01 -8.9379370911046863e-04 -1.3707310892641544e-02 2.4203343316912651e-02 5.4226806387305260e-03 -5.4453425109386444e-02 -5.9010904282331467e-02 -6.6046178340911865e-02 2.8791637159883976e-03 -9.0026296675205231e-02 -1.6592070460319519e-02 1.8989436328411102e-02 6.4248673617839813e-02 1.6032902896404266e-01 6.9951750338077545e-02 1.3952322304248810e-02 3.8777306675910950e-02 -8.2578860223293304e-02 3.1374678015708923e-02 1.6924940049648285e-01 7.2136037051677704e-02 -5.7946287095546722e-02 -4.0248334407806396e-02 7.7341176569461823e-02 9.5465898513793945e-02 4.4434875249862671e-02 4.2144980281591415e-02 9.6524655818939209e-02 4.9514021724462509e-02 8.1624634563922882e-02 1.5820277854800224e-02 -1.1049395427107811e-02 1.6813728958368301e-02 9.3157149851322174e-02 -1.6615383327007294e-01 -2.5141796097159386e-02 5.0879180431365967e-02 -7.6263234019279480e-02 -1.0785250365734100e-01 -7.9056724905967712e-02 1.5970255434513092e-01 1.9491601735353470e-02 -1.1713169515132904e-01 7.4100913479924202e-03 4.2314190417528152e-02 -1.7220528796315193e-02 -6.4675226807594299e-02 -5.7873176410794258e-03 -6.5298914909362793e-02 7.4158541858196259e-02 -2.6740981265902519e-02 6.5213057678192854e-04 -1.2179153971374035e-02 6.1684496700763702e-02 7.2296999394893646e-02 -4.9565043300390244e-02 1.6430500894784927e-02 -1.4340057037770748e-02 4.0685728192329407e-02 5.8575913310050964e-02 -3.6461845040321350e-02 -6.8888585083186626e-03 3.4751992672681808e-02 -3.7695311009883881e-02 -4.0199220180511475e-02 1.5455049462616444e-02 -1.6216447949409485e-01 -4.9157898873090744e-02 1.0673364158719778e-03 -1.0926315933465958e-01 -1.5156820416450500e-01 3.2173130661249161e-02 1.9094741344451904e-01 -5.4267812520265579e-02 3.9551325142383575e-02 -3.4595347940921783e-02 -3.9762571454048157e-02 -6.9943502545356750e-02 5.4420717060565948e-02 3.8087096065282822e-02 1.4484164118766785e-01 6.9926567375659943e-03 1.6931738704442978e-02 -7.6688319444656372e-02 2.2891478147357702e-03 2.5678856298327446e-02 -1.4736305177211761e-01 -1.6135584563016891e-02 -8.4707653149962425e-03 9.0688262134790421e-03 7.4704825878143311e-02 -4.1860252618789673e-02 -3.4239482134580612e-02 1.1557249724864960e-01 -2.4411637336015701e-02 -2.8137272223830223e-02 -1.7910541966557503e-02 -4.2011111974716187e-02 1.2186954729259014e-02 -1.7342042410746217e-03 5.9643764048814774e-02 -9.0704165631905198e-04 -7.0170782506465912e-02 -5.2560046315193176e-03 6.4547434449195862e-03 -1.1571965366601944e-01 -7.2339810431003571e-02 2.3655554279685020e-02 4.2630899697542191e-02 -2.6605024933815002e-02 2.4649906903505325e-02 -1.3141134753823280e-02 -2.1577626466751099e-02 -1.1077288538217545e-02 -2.3003101348876953e-02 -2.4559921585023403e-03 -1.3758216984570026e-02 -2.6808492839336395e-02 -1.6207145527005196e-02 6.4502924680709839e-02 -5.6757044047117233e-02 -5.0534319132566452e-02 -4.6114224940538406e-02 8.4953866899013519e-03 7.7758873812854290e-03 2.8570916503667831e-02 -2.6693760883063078e-03 2.7241377159953117e-02 2.2612078115344048e-02 8.5734143853187561e-02 4.3348006904125214e-02 7.7392637729644775e-02 5.8633916079998016e-02 -8.1023290753364563e-02 -5.0232544541358948e-02 -3.9456285536289215e-02 -1.3261736929416656e-01 9.8125606775283813e-02 -7.8141637146472931e-02 5.0814129412174225e-02 1.0754508525133133e-01 7.8618630766868591e-02 -1.7852718010544777e-02 -8.7135508656501770e-02 -4.6188827604055405e-02 -1.4718554913997650e-01 4.6536482870578766e-02 -3.8878846913576126e-02 1.0752432793378830e-01 3.0623462516814470e-03 3.8631279021501541e-02 4.5908871106803417e-03 9.2058062553405762e-02 -7.7600590884685516e-03 -2.6037309318780899e-02 7.1988217532634735e-02 -8.1953629851341248e-03 -1.6616124659776688e-02 -8.7890155613422394e-02 1.0601761750876904e-02 -5.4024051874876022e-02 1.3389232568442822e-02 3.6290664225816727e-02 -3.2058257609605789e-02 5.4109018296003342e-02 1.9455563277006149e-02 -3.4343149513006210e-02 -4.7168865799903870e-02 6.1011116951704025e-02 5.5364843457937241e-02 -1.4192298986017704e-02 -3.4934394061565399e-02 8.2521237432956696e-02 -4.6915493905544281e-02 -7.8581944108009338e-02 3.9003178477287292e-02 -4.6041112393140793e-02 1.1315387487411499e-01 5.1897618919610977e-02 3.0319886282086372e-03 5.4066259413957596e-02 -3.1290318816900253e-02 -6.4728982746601105e-02 -1.4317331835627556e-02 -7.7005073428153992e-02 1.7914233729243279e-02 -4.8078317195177078e-02 -1.0461758077144623e-01 -7.0551377721130848e-03 2.1569704636931419e-02 -2.7969447895884514e-02 7.7526450157165527e-02 -7.7313445508480072e-03 9.4575375318527222e-02 -1.4932879246771336e-02 -5.0480701029300690e-02 6.4642995595932007e-02 -4.3969765305519104e-02 -9.4930209219455719e-02 9.1963835060596466e-02 -2.9483493417501450e-02 -7.8317582607269287e-02 -8.6190395057201385e-02 3.0888825654983521e-02 7.7621266245841980e-03 3.8242537528276443e-02 -4.6146698296070099e-02 8.5532478988170624e-03 2.9271993786096573e-02 5.9586923569440842e-02 -9.0984843671321869e-02 -3.0005807057023048e-02 -3.0138274654746056e-02 -1.0261802375316620e-01 -3.9187997579574585e-02 -3.0986499041318893e-03 -3.5121452528983355e-03 3.0183698982000351e-03 4.3120115995407104e-02 -4.8587393015623093e-02 1.8994396552443504e-02 -7.5636352412402630e-03 8.7303770706057549e-03 5.6767046451568604e-02 1.3422067463397980e-01 5.4346811026334763e-02 -6.9174654781818390e-02 2.2900555282831192e-02 1.3510371558368206e-02 -2.6302196085453033e-02 2.0130233839154243e-02 -5.1704170182347298e-03 7.7228760346770287e-03 -2.2454027086496353e-02 -3.0102744698524475e-02 -5.0017614848911762e-03 3.9968017488718033e-02 3.6630507092922926e-03 -1.9464420154690742e-02 -8.5534229874610901e-03 -1.1357336305081844e-02 -1.8166314810514450e-02 8.9312912896275520e-03 1.3945308746770024e-03 -2.4305492639541626e-02 -9.8131047561764717e-03 -1.9519779831171036e-02 3.7306237965822220e-02 -4.1036479175090790e-02 2.2283909842371941e-02 -1.4298508875072002e-02 -1.5874431701377034e-03 -1.8384052440524101e-02 2.6930239051580429e-02 2.4115394800901413e-02 8.5484953597187996e-03 4.4480399228632450e-03 1.6437722370028496e-02 1.8264332786202431e-02 -4.8386198468506336e-03 2.6799067854881287e-02 -1.8884399905800819e-02 1.5849426388740540e-02 -1.7629712820053101e-02 1.2778968550264835e-02 -2.5826499331742525e-03 -8.9161256328225136e-03 3.6247484385967255e-02 -3.3748287241905928e-03 -1.4084791764616966e-02 -2.4487938731908798e-02 3.3086678013205528e-03 2.7062920853495598e-02 4.8959832638502121e-03 -1.9280688837170601e-02 -1.3247294351458549e-02 3.6012191325426102e-02 1.6256445087492466e-03 -2.5894688442349434e-02 -3.0686449259519577e-02 -2.2480627521872520e-02 -2.5492241606116295e-02 -6.3768741674721241e-03 -3.4468289231881499e-04 2.0644046366214752e-02 -1.2050104327499866e-02 -3.3787157386541367e-02 1.4907320961356163e-02 -3.0032692477107048e-02 1.2757276184856892e-02 9.5321247354149818e-03 -1.5427980571985245e-02 2.3042485117912292e-02 2.2547275293618441e-03 7.4854553677141666e-03 2.5302611757069826e-03 1.1773619800806046e-02 -2.1823758259415627e-02 -4.5289997011423111e-02 1.2254315428435802e-02 1.8381193280220032e-02 1.7701268196105957e-02 -3.1638305634260178e-02 2.7226815000176430e-02 3.3243972808122635e-02 9.4686066731810570e-03 3.8615288212895393e-03 9.4777578487992287e-03 -6.8729226477444172e-03 1.0060985572636127e-02 7.6315235346555710e-03 1.3542163185775280e-02 -2.0915491506457329e-02 -2.7777198702096939e-02 1.2042776681482792e-02 -3.3719856292009354e-02 -3.7999093532562256e-02 2.3993836715817451e-02 -1.2176561169326305e-02 8.3750709891319275e-03 1.1799227446317673e-02 1.8531527370214462e-02 4.5665167272090912e-02 -1.0636682622134686e-02 1.3087976723909378e-02 1.3148587895557284e-03 -1.7030542716383934e-02 -1.0545622557401657e-02 -3.6917988210916519e-02 5.1065087318420410e-03 -2.5742953643202782e-02 6.0769021511077881e-03 -1.2652092613279819e-02 9.0115787461400032e-03 -2.2866364568471909e-02 1.8609670922160149e-02 8.6703634588047862e-04 9.7126299515366554e-03 -2.6378655806183815e-02 1.7791800200939178e-03 -2.8284804429858923e-03 9.1257058084011078e-03 -6.1961738392710686e-03 -1.6681539127603173e-03 -3.6224726587533951e-02 2.0937342196702957e-03 -1.7276361584663391e-02 -4.4520139694213867e-02 -1.7189504578709602e-02 -3.5539127886295319e-02 2.4278635159134865e-02 2.1284062415361404e-02 2.7615131810307503e-02 -8.5385832935571671e-03 4.3368521146476269e-03 2.6378359645605087e-02 3.0175454914569855e-02 -2.3070756345987320e-02 -2.4008328095078468e-02 2.1670615300536156e-02 3.5199418663978577e-02 -1.2551064603030682e-02 -3.5897023975849152e-02 -6.1990926042199135e-03 -3.8410350680351257e-02 -2.4124315008521080e-02 2.3472813889384270e-02 -2.2783748805522919e-02 -2.4946412071585655e-02 1.1642059311270714e-02 1.7355782911181450e-02 -1.9595741759985685e-03 3.5415407270193100e-02 -2.2222768515348434e-02 -2.8771860525012016e-02 2.5647414848208427e-02 2.2669192403554916e-03 -5.7354816235601902e-03 4.0487390011548996e-02 5.5600120685994625e-03 6.4195413142442703e-03 1.3513975776731968e-02 -2.4286616593599319e-02 -7.6723558595404029e-04 3.1743261497467756e-03 -2.5251610204577446e-02 2.8040060773491859e-02 2.3369980975985527e-02 3.4114766865968704e-02 -1.0037340223789215e-02 -1.8082374706864357e-02 -2.8181869536638260e-02 -3.7413481622934341e-02 2.7860790491104126e-02 -2.5318102911114693e-02 -2.4308612570166588e-02 -8.6195468902587891e-03 9.5000502187758684e-04 9.5380665734410286e-03 7.7393739484250546e-03 -2.0200429484248161e-02 -3.4890377428382635e-03 1.7666533589363098e-02 -9.6714608371257782e-03 -1.0230277664959431e-02 -2.8501836583018303e-02 1.9676443189382553e-02 2.1744057536125183e-02 1.2537298724055290e-02 -2.5665722787380219e-02 1.3578732497990131e-02 -1.9182451069355011e-02 -2.8429875150322914e-02 -3.9252106100320816e-02 2.8187919408082962e-02 2.3462362587451935e-02 1.8342370167374611e-03 6.1502079479396343e-03 -2.5858921930193901e-02 1.4275576919317245e-02 2.4475550279021263e-02 -2.5864038616418839e-02 -2.3719422519207001e-02 -2.1823532006237656e-04 2.3288343101739883e-02 -1.6706025227904320e-02 -5.6946836411952972e-03 -1.9414359703660011e-02 7.0083409082144499e-04 1.6080191126093268e-03 1.4210361056029797e-02 6.8004871718585491e-03 9.9159190431237221e-03 3.7321532145142555e-03 -1.9934361334890127e-03 6.3405060209333897e-03 1.1567429639399052e-02 1.6162855550646782e-02 3.2185044139623642e-02 -9.8123890347778797e-04 1.6453070566058159e-03 3.6527328193187714e-02 1.6389023512601852e-02 -2.8626704588532448e-02 1.6933167353272438e-02 -7.5622457079589367e-03 1.8995666876435280e-02 -9.0702733723446727e-04 -2.6070600375533104e-02 1.1284097097814083e-02 1.1177236214280128e-02 3.0854415148496628e-02 -1.7879968509078026e-03 -1.7756819725036621e-02 -2.2439053282141685e-03 9.8178358748555183e-03 -1.2270501814782619e-02 -2.2755514830350876e-02 -2.1042320877313614e-02 7.1670520119369030e-03 9.4041489064693451e-03 -1.1179221794009209e-02 -1.2499382719397545e-02 1.8601944902911782e-03 -1.9965790212154388e-02 1.9494988024234772e-02 2.4849686771631241e-02 -1.2927176430821419e-02 2.5887059047818184e-02 -2.9994733631610870e-02 -3.2809551805257797e-02 2.2638343274593353e-02 1.0655907914042473e-02 1.6298953443765640e-02 -2.4997597560286522e-02 1.4622593298554420e-02 -1.3148345053195953e-02 1.9499255344271660e-02 -8.8589806109666824e-03 1.6655907034873962e-02 -1.7289768904447556e-02 3.4673552960157394e-02 -5.7646781206130981e-03 -1.2992665171623230e-02 -1.2708948925137520e-02 3.0301338993012905e-03 1.8275959417223930e-02 3.5620346665382385e-02 -3.9969809353351593e-02 -2.1582284942269325e-02 -5.8669787831604481e-03 8.6406037211418152e-02 1.1540353298187256e-01 8.8078912813216448e-04 -2.5011153891682625e-02 2.2218511730898172e-04 1.2829964980483055e-02 3.4548196941614151e-02 -4.3819338083267212e-02 -1.1994423344731331e-02 -1.8232023343443871e-02 -2.8028037399053574e-02 2.6871617883443832e-03 -3.1659390777349472e-02 -6.6577307879924774e-02 -2.5796070694923401e-02 -4.9639023840427399e-02 -1.4904057607054710e-02 7.6784595847129822e-02 3.9842471480369568e-02 3.3564317971467972e-02 5.1332943141460419e-02 6.9063536822795868e-02 2.4541217833757401e-02 2.9130522161722183e-02 -2.6114499196410179e-03 4.5663677155971527e-03 2.0741507411003113e-02 4.7021820209920406e-03 -1.0901113040745258e-02 -1.4621509239077568e-02 7.1293460205197334e-03 -5.2564684301614761e-03 -1.3150423765182495e-02 -1.2710863724350929e-02 -3.4651316702365875e-02 -3.3424545079469681e-02 4.0157131850719452e-02 -2.4034271482378244e-03 3.9738953113555908e-02 -9.8951784893870354e-03 -5.1660001277923584e-02 1.5029852511361241e-03 4.8817984759807587e-02 -5.9288226068019867e-02 -7.1702770888805389e-02 -4.3346371501684189e-02 3.8598657120019197e-03 1.4366070972755551e-03 -3.7482392042875290e-02 1.3035308569669724e-02 2.4308107793331146e-02 -9.1858552768826485e-03 -3.3869545906782150e-02 4.9025148153305054e-02 1.2702944688498974e-02 5.7925172150135040e-02 1.2344968505203724e-02 1.0699850972741842e-03 -2.2233289200812578e-03 -5.3739254362881184e-03 4.6337810344994068e-03 -3.1435251235961914e-02 -2.5133598595857620e-02 -5.7868319563567638e-03 1.2489123269915581e-02 -2.9035709798336029e-02 -2.7602173388004303e-02 5.0423528999090195e-02 -2.6211425662040710e-02 1.1251272633671761e-02 4.4961686944589019e-04 -1.9077740609645844e-02 8.9382417500019073e-02 4.6595511958003044e-03 2.5046182796359062e-02 -2.1649239584803581e-02 3.8624111562967300e-02 1.9350092858076096e-02 -7.3180064558982849e-02 6.1339203268289566e-02 -1.4375138096511364e-02 -1.5026764012873173e-02 -3.7713829427957535e-02 -2.4857267271727324e-03 -3.7338110269047320e-04 -2.8375968337059021e-02 -2.3111391812562943e-02 8.0995604395866394e-02 2.7862489223480225e-02 -9.8473727703094482e-03 3.4105908125638962e-02 -1.5127120539546013e-02 -1.0626222938299179e-02 -7.8404806554317474e-02 5.6103195995092392e-02 4.1736949235200882e-02 -1.6601331532001495e-02 -5.2907951176166534e-03 -4.2106956243515015e-05 3.6058612167835236e-02 5.6285604834556580e-02 4.2913164943456650e-02 7.8075528144836426e-02 1.2691763229668140e-02 1.6027247533202171e-02 -9.8957698792219162e-03 -8.4402570500969887e-03 4.1683414019644260e-03 -5.8293502777814865e-02 8.9409400243312120e-04 4.4545512646436691e-02 1.1300470679998398e-02 -4.6737540513277054e-02 1.6136566177010536e-02 -4.6033471822738647e-02 2.0111251622438431e-02 5.3954846225678921e-03 -2.1921290084719658e-02 -9.0501615777611732e-03 -3.6837674677371979e-02 1.9007984548807144e-02 7.7844925224781036e-02 3.1386326998472214e-02 -4.8306398093700409e-02 1.1100409552454948e-02 1.5836188569664955e-02 -5.5928886868059635e-03 -1.4269324019551277e-02 -5.1344618201255798e-02 -1.4852994680404663e-01 4.3071359395980835e-02 3.4461393952369690e-02 -6.3018333166837692e-03 2.3719480261206627e-02 3.9117499254643917e-03 3.7932254374027252e-02 6.0451226308941841e-03 3.0221227556467056e-02 -6.1158137395977974e-03 -3.7109881639480591e-02 3.3113949000835419e-02 -9.9490936845541000e-03 2.8443196788430214e-02 1.3832763768732548e-02 -2.8747601900249720e-03 -9.2430233955383301e-02 -3.3585220575332642e-02 -1.0481315664947033e-02 -4.7759495675563812e-02 -6.1256591230630875e-02 8.8438168168067932e-03 1.5355617739260197e-02 7.3274149326607585e-04 2.6775386184453964e-02 -7.3873460292816162e-02 -3.3193565905094147e-03 -2.2161186207085848e-03 -1.8817257136106491e-02 -3.9598355069756508e-03 9.6501717343926430e-03 8.9560616761445999e-03 4.2743932455778122e-02 7.9402461647987366e-02 5.7102527469396591e-02 -3.5467054694890976e-02 -1.0150967165827751e-02 -2.9550340026617050e-02 -1.0810605250298977e-02 1.5069426596164703e-01 1.4901270158588886e-02 -8.4554463624954224e-02 1.8073583021759987e-02 6.1388771981000900e-02 3.2522864639759064e-02 4.4159509241580963e-02 5.5267754942178726e-03 4.8676241189241409e-02 -1.2745242565870285e-02 1.7870644107460976e-02 -3.1149480491876602e-03 1.4461816288530827e-02 9.1517216060310602e-04 9.7611509263515472e-03 -1.2418468296527863e-01 1.0996102355420589e-02 4.6047214418649673e-02 -1.6639705747365952e-02 -2.5175228714942932e-02 -3.8219090551137924e-02 5.1048815250396729e-02 -1.4473371207714081e-02 3.0126422643661499e-02 -2.8348764404654503e-02 -1.6293453052639961e-02 2.0181657746434212e-02 -3.0093578621745110e-02 -4.9535050056874752e-03 -6.4069539308547974e-02 2.9030134901404381e-02 -2.3478310555219650e-02 -1.2562765181064606e-01 -1.3942500809207559e-03 3.0520878732204437e-02 5.2618283778429031e-02 -6.8678356707096100e-02 2.7046194300055504e-02 4.6832624822854996e-02 -8.2568891346454620e-02 9.3706734478473663e-03 -1.7994228750467300e-02 -1.0528864338994026e-02 1.2465420179069042e-02 -2.6147283613681793e-02 6.1363711953163147e-02 2.5237612426280975e-02 -1.5537934005260468e-01 -2.2304603829979897e-02 1.6213612398132682e-03 -3.2878994941711426e-02 -6.2893889844417572e-02 7.6654744334518909e-03 1.0844518244266510e-01 -2.6446396484971046e-02 -3.8346666842699051e-02 3.4718498587608337e-02 1.8516324460506439e-02 -2.1120022982358932e-02 -1.8749514594674110e-02 -4.3203379958868027e-02 -4.5402195304632187e-02 -9.1074630618095398e-03 -7.9342694953083992e-03 -2.3522889241576195e-02 6.3724249601364136e-02 -2.8964459896087646e-02 -1.0006469488143921e-01 3.3747043460607529e-02 2.6329576969146729e-02 -8.3091286942362785e-03 3.9424747228622437e-02 9.4217576086521149e-02 3.1173732131719589e-03 1.3258038461208344e-01 -2.2116351872682571e-02 -9.5771206542849541e-03 2.1537797525525093e-02 -7.7096670866012573e-02 1.0046299546957016e-02 -2.4096112698316574e-02 -1.0710845142602921e-01 -3.7443552166223526e-02 -1.1070236563682556e-01 -3.9286781102418900e-02 -2.7510048821568489e-02 -8.4394954144954681e-02 -9.5098754391074181e-03 1.3564613647758961e-02 2.6805917732417583e-03 -5.1793811144307256e-04 -1.1678677052259445e-02 9.4099855050444603e-03 -6.1079366132616997e-03 -2.7779415249824524e-02 -1.5192410908639431e-02 -8.5684098303318024e-03 -1.7203042283654213e-02 -1.2886689044535160e-02 -3.2167401164770126e-02 -6.5915808081626892e-03 -6.9301910698413849e-02 1.0084250941872597e-02 -2.0911505445837975e-02 -2.7868610341101885e-03 -1.2976662814617157e-01 -4.2040441185235977e-02 5.1120359450578690e-02 -4.3547306209802628e-02 -6.8427264690399170e-02 2.0775869488716125e-02 -1.7739249393343925e-02 6.0118667781352997e-02 3.2854717224836349e-02 -9.8464049398899078e-02 -1.3948732987046242e-02 -6.0024209320545197e-02 -9.5905765891075134e-02 -2.9902546666562557e-03 -3.8197681307792664e-02 2.2468330338597298e-02 8.0586202442646027e-02 7.3740549385547638e-02 2.9493648558855057e-02 -6.0660261660814285e-03 3.2748267054557800e-02 -1.3199098408222198e-01 5.4944068193435669e-02 -1.1529781855642796e-02 8.9352831244468689e-02 1.5169983729720116e-02 -3.0211398378014565e-02 -4.5205340720713139e-03 1.1160397529602051e-01 3.8389146327972412e-02 1.8528757616877556e-02 7.6404772698879242e-02 7.7894724905490875e-02 5.6272972375154495e-02 -2.8030900284647942e-02 -1.8696945160627365e-02 1.2686190195381641e-02 4.1003506630659103e-02 -4.4974267482757568e-02 -4.7071173787117004e-02 2.9083065688610077e-02 1.8139032647013664e-02 -1.1241263896226883e-01 -8.6633190512657166e-02 9.3227706849575043e-02 4.9347534775733948e-02 -8.1987835466861725e-02 -2.7370726689696312e-02 1.3019032776355743e-02 -6.6456315107643604e-03 -4.3688740581274033e-02 2.9162591323256493e-02 3.7954787258058786e-03 1.2477048486471176e-01 4.5289263129234314e-02 3.2733816653490067e-02 -1.4783918159082532e-03 -1.7903391271829605e-02 -5.6661304552108049e-04 -5.5481758899986744e-03 2.8088720515370369e-02 -4.6856729313731194e-03 -1.0430674068629742e-02 1.4855689369142056e-02 -2.3898109793663025e-02 -1.2743399478495121e-02 2.8686126694083214e-02 -2.4735152721405029e-02 -5.4734833538532257e-02 6.6713854670524597e-02 -1.1917212046682835e-02 -7.6460957527160645e-02 5.2165370434522629e-03 -4.5057490468025208e-02 -9.0570107102394104e-02 3.5101393586955965e-04 3.2534632831811905e-02 -4.1790448129177094e-02 -8.8952900841832161e-03 -3.5391256213188171e-02 -2.1724918857216835e-02 -8.8351018726825714e-02 1.8817679956555367e-02 7.8440763056278229e-02 4.9337476491928101e-02 5.5953383445739746e-02 -2.3790400475263596e-02 9.0930564329028130e-04 1.7301065847277641e-02 -1.7969772219657898e-02 -6.0461416840553284e-02 -4.2938210070133209e-02 -8.8251931592822075e-03 3.3575177192687988e-02 2.5153949536615983e-05 -2.9144447296857834e-02 -2.5097493082284927e-02 8.0128647387027740e-02 1.4665889553725719e-02 3.7220933008939028e-03 6.4810521900653839e-02 -3.1305111944675446e-02 -5.7882174849510193e-02 4.7678023576736450e-02 -6.0524623841047287e-03 -6.5215043723583221e-02 3.0449468642473221e-02 7.1275238879024982e-03 -2.3050505667924881e-02 -2.5398849975317717e-03 2.7524949982762337e-02 3.5133656114339828e-02 8.5829623043537140e-02 -3.0918400734663010e-02 -4.3540515005588531e-02 1.3712675310671329e-02 -1.7139278352260590e-02 -3.6236469168215990e-03 -4.9908958375453949e-02 -1.6790745779871941e-02 -2.7649186551570892e-02 -7.1984431706368923e-03 -5.2241265773773193e-02 -2.2284423932433128e-02 -8.7068744003772736e-02 -3.0300231650471687e-02 -2.6333475485444069e-02 -3.1618759036064148e-02 1.4128356240689754e-02 5.2826184779405594e-02 1.3253820128738880e-02 2.8085894882678986e-02 1.0222992859780788e-02 3.4846790134906769e-02 6.7935296101495624e-04 3.1098203733563423e-02 -2.0683128386735916e-02 -1.0889274999499321e-03 -2.6869222521781921e-02 1.1367544531822205e-02 -1.4945808798074722e-02 -1.8912510946393013e-02 3.7182696163654327e-02 3.3523473888635635e-02 9.9974051117897034e-03 -2.6237340644001961e-02 2.9504768550395966e-02 -4.7926437109708786e-03 -1.4914973638951778e-02 -2.7015095576643944e-02 -9.2632602900266647e-03 -3.9829496294260025e-02 1.4388581737875938e-02 6.9961309432983398e-02 4.0540127083659172e-03 -1.4878807589411736e-02 -2.4850498884916306e-02 -1.4915219508111477e-02 1.9160768715664744e-03 2.3013107478618622e-02 2.6935378089547157e-02 -7.0022288709878922e-03 -1.8565187230706215e-02 -1.3190704630687833e-03 2.7914121747016907e-02 1.1509262956678867e-02 2.6989480480551720e-02 1.6969805583357811e-02 1.9532164558768272e-02 9.8698930814862251e-03 1.8329357728362083e-02 -2.5440817698836327e-02 -3.2673582434654236e-02 1.6300509450957179e-03 -6.0994219034910202e-02 1.5678972005844116e-02 -7.6598743908107281e-03 -9.4371829181909561e-03 7.7744890004396439e-03 -1.4724021777510643e-02 2.0386476069688797e-02 -2.1656414493918419e-02 1.8086709082126617e-02 6.9936022162437439e-02 -2.2365357726812363e-02 3.7002246826887131e-02 1.7907876521348953e-02 -7.6048467308282852e-03 1.6139362007379532e-02 -4.6852517873048782e-02 5.1810681819915771e-02 -3.8826338946819305e-02 3.8528533186763525e-03 -1.7677634954452515e-02 1.1832420714199543e-02 2.3725060746073723e-03 -1.4918411150574684e-02 3.6802362650632858e-02 1.3834269717335701e-02 -7.4443663470447063e-04 2.6319989934563637e-02 -3.4403972327709198e-02 -2.0562282297760248e-03 -1.4592473395168781e-02 -1.6480622813105583e-02 3.2670751214027405e-02 2.4133736267685890e-02 -1.5639726072549820e-02 -5.5684745311737061e-02 -1.8849922344088554e-02 -1.4053366146981716e-02 8.7432786822319031e-02 7.4903391301631927e-02 7.4622221291065216e-02 2.3599104024469852e-03 2.3691112175583839e-02 1.5300380066037178e-02 1.3849692419171333e-02 4.2836662381887436e-02 -1.5042065642774105e-02 -4.7104608267545700e-02 -1.2092668563127518e-02 -6.1183995567262173e-03 -5.1141224801540375e-02 1.8945140764117241e-03 -4.5261334627866745e-02 -7.9651782289147377e-03 7.2476160712540150e-03 2.8927488252520561e-02 2.3256158456206322e-02 1.4771426096558571e-02 1.1701936833560467e-02 3.3720221370458603e-02 2.4095397442579269e-02 8.7158851325511932e-02 -2.6180234272032976e-04 5.1100187003612518e-02 3.0979907140135765e-02 1.2688284739851952e-02 1.0781709104776382e-02 -4.4107060879468918e-02 2.2472105920314789e-02 2.6807193644344807e-03 -2.4828577414155006e-02 -2.8912423178553581e-02 3.7132676690816879e-02 -6.8570934236049652e-03 -2.8755728155374527e-02 1.7406243830919266e-02 -1.0778772644698620e-02 2.9144331812858582e-02 2.1980475634336472e-02 3.1231615692377090e-02 -4.4332735240459442e-02 1.1728161014616489e-02 4.5824423432350159e-02 1.1716525256633759e-01 4.5890603214502335e-02 -4.0824852883815765e-02 7.7790166251361370e-03 5.7054597884416580e-02 -4.5745145529508591e-02 -1.5091365203261375e-02 -5.1767207682132721e-02 -1.5045723412185907e-03 3.9436407387256622e-02 3.8821820169687271e-02 4.8810210078954697e-02 2.5827096775174141e-02 -1.7126474529504776e-02 1.7862845212221146e-02 -1.9660323858261108e-02 -8.8822618126869202e-02 -1.0675051808357239e-01 -4.4046923518180847e-02 2.7318056672811508e-02 1.1100332252681255e-02 1.1312506347894669e-01 -5.5455189198255539e-02 2.1406341344118118e-02 -3.8083221763372421e-02 -2.0711461082100868e-02 5.4389223456382751e-02 -4.3077031150460243e-03 -5.6942224502563477e-02 -2.0035670604556799e-03 -3.7193909287452698e-02 -9.7031928598880768e-02 -5.4124701768159866e-02 -2.8391744941473007e-02 5.7318601757287979e-02 -2.3784643039107323e-02 -1.1145299300551414e-02 -4.1550226509571075e-02 5.2139367908239365e-02 2.4739250540733337e-02 -1.6814170405268669e-02 -1.4850919134914875e-02 7.6193608343601227e-02 8.8496163487434387e-02 -9.7797997295856476e-02 3.0216430313885212e-03 2.5069575756788254e-02 -1.1759893968701363e-03 1.6723880544304848e-02 1.0987127199769020e-02 8.5648261010646820e-02 -2.7433076873421669e-02 6.0893688350915909e-04 -6.3416823744773865e-02 -3.5575863439589739e-03 -2.1973004564642906e-02 -1.4717187732458115e-03 -9.0578505769371986e-03 -4.0604960173368454e-02 1.5057952143251896e-02 -2.3691186681389809e-02 9.0513732284307480e-03 -1.3663958758115768e-02 -2.1512916311621666e-02 4.3048702180385590e-02 2.3148816544562578e-03 2.6909537613391876e-02 3.7870083004236221e-02 5.8706950396299362e-02 -4.3826326727867126e-02 -4.8971227370202541e-03 6.9563180208206177e-02 -5.6423120200634003e-02 6.9827936589717865e-02 7.3255516588687897e-02 -9.3818269670009613e-03 1.4350228942930698e-02 6.1771400272846222e-02 -1.2710799463093281e-02 4.3456282466650009e-02 9.7078410908579826e-04 7.2218000888824463e-02 2.3349128663539886e-02 -8.1364713609218597e-02 -5.2486978471279144e-02 -7.2274319827556610e-02 -2.1061033010482788e-02 3.2476063352078199e-03 1.0199931450188160e-02 1.6680834814906120e-02 6.9061577320098877e-02 1.9350048387423158e-03 2.7525951154530048e-03 -5.6379687041044235e-02 -1.8111540004611015e-02 7.9289637506008148e-02 1.0179664008319378e-02 -5.6399423629045486e-02 -3.3610559999942780e-02 2.8369005769491196e-02 -5.2933167666196823e-02 1.9198572263121605e-02 1.8328388687223196e-03 -3.6375530064105988e-02 -3.3428080379962921e-02 1.5765858814120293e-02 -3.9686616510152817e-02 -1.5974128618836403e-02 3.6350281443446875e-03 -2.2421507164835930e-02 3.7372909486293793e-02 -1.1235041543841362e-02 2.2257478907704353e-02 -5.9030069969594479e-03 -2.8870478272438049e-02 8.0734444782137871e-03 2.1741941571235657e-02 -3.1024057418107986e-02 -1.6103288158774376e-02 -1.1307420209050179e-02 2.2063322365283966e-02 2.2712107747793198e-02 -5.3531578741967678e-03 -2.8254477307200432e-02 -1.8840584903955460e-02 3.3447120338678360e-02 -3.9242781698703766e-02 1.0575501248240471e-02 -5.0441116094589233e-02 -2.0188702270388603e-02 3.8190249353647232e-02 -2.6536509394645691e-02 -4.4640582054853439e-02 -2.2369600832462311e-02 -4.3756596744060516e-02 2.6514638215303421e-02 -2.8887663502246141e-03 -1.8056618049740791e-02 -1.8547404557466507e-02 1.8085615709424019e-02 5.0160858780145645e-02 -3.1220598146319389e-02 2.4025166407227516e-02 -2.0545961335301399e-02 3.7667434662580490e-02 -1.7531350255012512e-02 1.3279492035508156e-02 3.8327753543853760e-02 6.5163001418113708e-03 1.5829589217901230e-02 -1.3675958849489689e-02 -1.0587620548903942e-02 1.1878220364451408e-02 -4.5034438371658325e-03 -9.8694730550050735e-03 5.3387824445962906e-03 -9.3374410644173622e-03 1.2668237090110779e-02 1.2121632695198059e-02 3.8298068102449179e-03 1.8489178270101547e-02 4.4643260538578033e-02 4.0903527289628983e-02 -9.7308121621608734e-03 -4.3087331578135490e-03 2.8400992974638939e-02 2.6906235143542290e-03 1.0415975935757160e-02 -2.1721050143241882e-02 -1.5740320086479187e-02 1.9233522471040487e-03 -3.3443539869040251e-03 3.3193919807672501e-02 1.8063956871628761e-02 -4.0631402283906937e-02 2.2164626047015190e-02 -2.7302620932459831e-02 -3.3989854156970978e-02 -1.9791280850768089e-02 -2.1848294883966446e-02 4.9206823110580444e-02 -3.8661982864141464e-02 1.2327536940574646e-02 -1.4685490168631077e-02 1.1139617301523685e-02 5.5700208991765976e-02 1.0938073974102736e-03 3.4076713491231203e-03 -7.3240417987108231e-03 1.7299940809607506e-02 -8.5259256884455681e-03 4.2715035378932953e-02 -1.2343615293502808e-02 -1.5118677169084549e-02 -1.3558255159296095e-04 -2.5728402659296989e-02 -3.7041166797280312e-04 -3.3397592604160309e-02 -3.1960308551788330e-02 2.7856385335326195e-02 -3.6843165755271912e-02 -3.6531027406454086e-02 -1.4193403534591198e-02 -4.6270068734884262e-02 -2.0852671936154366e-02 2.0431715995073318e-02 4.2488500475883484e-02 -2.1173020359128714e-03 1.9164949655532837e-02 -4.5021463185548782e-02 1.1637114919722080e-02 1.9678413867950439e-02 -5.4082358255982399e-03 -1.2266669422388077e-02 4.4476889073848724e-02 1.8052849918603897e-03 2.7152676135301590e-02 1.9111156463623047e-02 -7.6287076808512211e-03 -1.3799610547721386e-02 1.2777642346918583e-02 2.3421745747327805e-02 3.1288191676139832e-02 -4.7935973852872849e-03 -4.0722388774156570e-02 -6.7726904526352882e-03 -2.6843357831239700e-02 -4.7116439789533615e-02 -2.9630405828356743e-02 -1.0894444771111012e-02 1.0319614782929420e-02 -2.5756347924470901e-02 2.7700103819370270e-02 -5.2222576923668385e-03 -2.7438642457127571e-02 -4.9051392823457718e-02 -1.1608112603425980e-02 -1.4423387125134468e-02 -1.9621662795543671e-02 3.2158814370632172e-02 4.4213440269231796e-02 3.3107989002019167e-03 3.8284629583358765e-02 9.8807588219642639e-03 -1.6073001548647881e-02 1.4576978050172329e-02 8.4267370402812958e-03 -2.8101056814193726e-02 -2.8103314340114594e-02 -1.9365467131137848e-02 -2.5989940389990807e-02 2.3340845480561256e-02 -2.7786701917648315e-02 -2.8513403609395027e-02 -2.1524664014577866e-02 9.4657056033611298e-03 -5.6085814721882343e-03 4.0534652769565582e-02 3.2067731954157352e-03 1.7975069582462311e-02 -7.3075485415756702e-03 4.2876306921243668e-02 1.3649486005306244e-02 4.9405179917812347e-02 4.4085483998060226e-02 -9.4230026006698608e-03 2.7645116206258535e-03 -1.5987917780876160e-02 -2.5213437154889107e-02 2.2875810042023659e-02 -4.7781806439161301e-02 4.8903264105319977e-02 2.2658199071884155e-02 6.5391655080020428e-03 -2.1940894424915314e-02 -6.1583116650581360e-02 -1.1643015779554844e-02 -4.1310865432024002e-02 -1.7581967636942863e-02 -3.7442222237586975e-02 1.1958973482251167e-02 -1.9805969670414925e-02 6.0382205992937088e-02 -3.3737022429704666e-02 1.5881137922406197e-02 -1.0812438093125820e-02 -1.7245817929506302e-02 -1.5763230621814728e-03 6.9555314257740974e-03 -3.6901071667671204e-02 -3.6369245499372482e-02 -6.0170977376401424e-03 -6.0642603784799576e-02 1.9625637680292130e-02 -4.8469007015228271e-04 -7.4658771045506001e-03 3.9575248956680298e-02 2.3950390517711639e-02 -2.6045931503176689e-02 -1.9580258056521416e-02 2.3926034569740295e-02 3.2302934676408768e-02 1.4019090682268143e-02 -1.0540061630308628e-02 -4.3289777822792530e-03 -3.0517127364873886e-02 -1.3696867972612381e-02 1.8995523452758789e-02 -3.2677423208951950e-02 7.1249932050704956e-02 5.4790128022432327e-02 -1.8916068598628044e-02 -9.8551549017429352e-03 -3.6238241940736771e-02 -6.7672774195671082e-02 -2.0922202616930008e-02 -5.9250205755233765e-02 3.6715753376483917e-02 1.0969654656946659e-02 -5.6685861200094223e-02 4.7619319520890713e-03 4.6358864754438400e-02 1.8635338172316551e-02 5.6540124118328094e-02 2.7523588389158249e-02 7.3756136000156403e-02 2.9535746201872826e-02 -2.1457932889461517e-02 4.4984009116888046e-02 -3.3202413469552994e-02 1.6770310699939728e-02 7.6603174209594727e-02 -1.2510716915130615e-02 2.9163686558604240e-03 -1.3930764980614185e-02 4.9022786319255829e-02 4.5311160385608673e-02 4.4922903180122375e-02 -3.4969970583915710e-03 -1.6229830682277679e-02 3.8297097198665142e-03 -1.9292881712317467e-02 -3.4365106374025345e-02 -5.0512142479419708e-03 -3.2385472208261490e-02 -2.9452661052346230e-02 -2.8818862512707710e-02 -3.5062149167060852e-02 -4.0584476664662361e-03 -7.8601222485303879e-03 -1.7130367457866669e-02 -8.4663238376379013e-03 5.0279822200536728e-02 -2.4327516555786133e-02 2.2760080173611641e-02 2.3230863735079765e-02 7.6713584363460541e-02 7.1956902742385864e-02 -1.7887862399220467e-02 -5.3703603334724903e-03 -1.4074085280299187e-02 -5.8455940335988998e-02 4.3207656592130661e-02 -7.3985002934932709e-02 -2.1543547511100769e-02 1.2186770886182785e-01 7.9546667635440826e-02 -3.8754384964704514e-02 8.0535141751170158e-03 -2.2331234067678452e-02 2.4871842935681343e-02 -5.9130601584911346e-03 -4.9673683941364288e-02 4.5827291905879974e-02 2.5944164022803307e-02 4.9168583005666733e-02 1.0410173982381821e-01 4.7467697411775589e-02 4.3616306036710739e-02 -1.0145585983991623e-01 8.8736906647682190e-02 1.2286732345819473e-01 1.0895443148910999e-02 2.0285869017243385e-02 6.3117556273937225e-02 -1.3767598569393158e-01 1.5258646570146084e-02 -3.3431138843297958e-02 -2.9129590839147568e-02 -1.0470249503850937e-01 -3.6262024194002151e-02 -5.4540701210498810e-02 -1.2720453739166260e-01 1.0621725767850876e-01 6.6871285438537598e-02 4.5013107359409332e-02 1.2927390635013580e-01 -9.6197791397571564e-02 9.4281792640686035e-02 -9.9287368357181549e-02 -6.6884398460388184e-02 -7.6393321156501770e-02 2.4973796680569649e-02 1.0557893663644791e-01 9.8783545196056366e-02 1.1110948771238327e-01 -5.3394749760627747e-02 3.0612975358963013e-02 -9.6150003373622894e-02 -1.9002525135874748e-02 -5.7178825139999390e-02 3.8290545344352722e-02 -1.0463129729032516e-01 1.1843633837997913e-02 6.6992327570915222e-02 -1.0228443145751953e-01 2.9330346733331680e-02 2.1288994699716568e-02 1.0279907286167145e-01 -1.4724448323249817e-02 1.0007174313068390e-01 -5.9950634837150574e-02 7.8956764191389084e-03 7.9876504838466644e-02 -8.1742316484451294e-02 -1.9433701410889626e-02 1.3783167116343975e-02 8.3502093330025673e-03 -5.5203553289175034e-02 -6.1119340360164642e-02 -8.3810351788997650e-03 2.1740280091762543e-02 -7.9576075077056885e-02 2.1474527195096016e-02 7.2084315121173859e-02 1.2895883992314339e-02 9.2963874340057373e-02 -1.9855570793151855e-01 -8.9863896369934082e-02 2.4458665866404772e-03 -3.6237906664609909e-02 8.5393644869327545e-02 8.3252497017383575e-02 6.6523081623017788e-03 6.4898766577243805e-02 -2.7001662179827690e-02 6.6386863589286804e-02 1.1101528257131577e-01 2.4835366755723953e-02 -4.5380949974060059e-02 -1.3441783376038074e-02 -9.3215413391590118e-02 1.3399684801697731e-02 -1.4833223819732666e-01 3.4494824707508087e-02 6.3574731349945068e-02 -1.2514436244964600e-01 2.5886438786983490e-02 1.0341689735651016e-01 -8.9489750564098358e-02 -1.3256476260721684e-02 6.8966828286647797e-02 7.4400715529918671e-02 1.7906213179230690e-02 3.5746235400438309e-02 -8.6830519139766693e-02 5.6450862437486649e-02 -7.2891324758529663e-02 -6.1132799834012985e-02 -9.0448014438152313e-02 1.5060903131961823e-01 -1.3485817238688469e-02 -8.2524458412081003e-04 9.3181304633617401e-02 8.1542255356907845e-03 7.4019230902194977e-02 -3.3283338416367769e-03 3.8268934935331345e-02 -4.9462273716926575e-02 4.2357984930276871e-02 -8.3124794065952301e-02 -2.8028663247823715e-02 -1.1129301041364670e-02 -8.2108899950981140e-02 -1.7842999100685120e-01 -1.4262594282627106e-01 8.2333937287330627e-02 -9.4371721148490906e-02 3.9180875755846500e-03 -2.5029273703694344e-02 4.4826634228229523e-02 1.7215156927704811e-02 5.6639341637492180e-03 2.9174489900469780e-02 1.8654201179742813e-02 -3.5002338699996471e-03 9.3116797506809235e-03 -2.9398661106824875e-02 -1.0835499502718449e-02 -2.8380572330206633e-03 1.4537158422172070e-02 -1.7271583899855614e-02 2.3114791139960289e-02 1.4769913628697395e-02 -2.4506982881575823e-03 -2.1764120087027550e-02 2.0475635305047035e-02 2.4368790909647942e-02 -2.8321774676442146e-02 1.9129654392600060e-03 -1.4781161211431026e-02 9.4565749168395996e-03 3.2602809369564056e-02 -4.9164770171046257e-03 -1.3478061184287071e-02 4.7415323555469513e-02 7.9789590090513229e-03 3.7457456346601248e-03 1.5662297606468201e-02 1.1703309603035450e-02 -3.0716609209775925e-02 -1.0568439029157162e-02 2.6227314025163651e-02 2.7367854490876198e-02 4.6318445354700089e-02 9.1646041255444288e-04 -2.2399991750717163e-02 -3.4182924777269363e-02 1.6764369793236256e-03 -5.7521313428878784e-03 -2.5683196261525154e-02 1.2881367467343807e-02 -3.0785938724875450e-02 1.3117699883878231e-02 1.1912719346582890e-03 -1.3111243955790997e-02 -4.5128524303436279e-02 -2.4270381778478622e-02 -2.1049149334430695e-02 -2.5302464142441750e-02 -1.5675744041800499e-02 2.0051745697855949e-02 -2.1753611043095589e-02 -5.6925951503217220e-03 -2.3318890482187271e-02 1.8467506393790245e-02 1.1910249479115009e-02 -2.7028713375329971e-02 8.1334691494703293e-03 -1.7948174849152565e-02 2.3663211613893509e-02 1.9473068416118622e-02 -3.5982854664325714e-02 1.6446689842268825e-03 -3.0236889142543077e-04 1.5965352067723870e-03 3.5907088313251734e-03 1.1208551004528999e-02 6.9649377837777138e-04 -1.9844187423586845e-02 -3.1840346753597260e-02 9.4522209838032722e-04 2.1482018753886223e-02 -9.0290169464424253e-04 -4.7294832766056061e-03 -7.9461019486188889e-03 8.3323922008275986e-03 5.9257782995700836e-03 2.9946817085146904e-02 8.7465997785329819e-04 -2.9110915493220091e-03 2.3903207853436470e-02 2.7503364253789186e-03 -8.1712119281291962e-03 1.7054235562682152e-02 1.8278658390045166e-02 2.0999554544687271e-02 2.5837944820523262e-02 2.8804173693060875e-02 1.4329197816550732e-02 2.4392735213041306e-02 -3.7097875028848648e-02 2.5655418634414673e-02 -1.5396399423480034e-02 2.7469971682876348e-03 1.1555605567991734e-02 2.6627106592059135e-02 1.1917393654584885e-02 -4.5769585995003581e-04 4.3946471065282822e-02 2.0218940451741219e-02 1.4087105169892311e-02 2.1133977919816971e-02 1.8343456089496613e-02 1.5967978164553642e-02 1.6648636665195227e-03 2.4924941360950470e-02 -2.8106354176998138e-02 2.2210950031876564e-02 -1.1624331586062908e-02 -7.9084746539592743e-03 8.5350954905152321e-03 3.6575488746166229e-02 2.8810428455471992e-02 2.9918814077973366e-02 1.8700776621699333e-02 4.1976897045969963e-03 -2.0491033792495728e-03 -1.7396701499819756e-02 -3.5505596548318863e-02 2.1213279105722904e-03 -6.4235883764922619e-03 -9.0947691351175308e-03 -1.5580945648252964e-02 2.7906449511647224e-02 2.5802059099078178e-02 3.0847430229187012e-02 2.0849538967013359e-02 2.1609922870993614e-02 1.0567328426986933e-03 2.2729987278580666e-02 4.8168334178626537e-03 -9.7721004858613014e-03 2.9730034992098808e-02 -1.9780104979872704e-02 -2.7299216017127037e-02 1.3204625807702541e-02 -8.6366245523095131e-04 -2.6015737093985081e-03 -8.7191909551620483e-03 2.5946596637368202e-02 -7.3578231967985630e-03 1.5789421275258064e-02 -9.6188066527247429e-03 4.1791680268943310e-03 -2.7516070753335953e-02 2.1317938342690468e-02 3.2481756061315536e-02 1.5210221521556377e-02 1.8693352118134499e-02 2.9267150908708572e-02 1.5032886585686356e-04 -1.8693888559937477e-02 -1.3589170761406422e-02 1.1179297231137753e-02 -2.3245194926857948e-02 -7.9663638025522232e-03 -1.2109239585697651e-02 -3.0329054221510887e-02 -2.0830772817134857e-02 -5.7807861594483256e-04 -1.9303653389215469e-02 3.0114578083157539e-02 -7.6499348506331444e-03 2.1274425089359283e-02 8.6631160229444504e-03 1.6130721196532249e-02 -3.3240688499063253e-03 -1.2857686728239059e-02 2.8935002163052559e-02 -7.3307187994942069e-04 3.1619049608707428e-02 2.1925972774624825e-02 7.6123718172311783e-03 2.4789746850728989e-02 2.7689479291439056e-02 -1.1777801439166069e-02 8.4957322105765343e-03 6.9091902114450932e-03 7.2237225249409676e-03 -1.1237452737987041e-02 -4.5993312960490584e-04 1.9283013418316841e-02 -1.1289140209555626e-02 -1.0038709267973900e-02 1.2204423546791077e-02 4.0842544287443161e-02 -2.1660383790731430e-02 -7.5413780286908150e-03 1.1484706774353981e-02 -3.1887821853160858e-02 -2.0351296290755272e-02 -3.1334619969129562e-02 2.9150998219847679e-02 -1.2496517039835453e-02 1.1993936263024807e-02 -1.6986586153507233e-02 9.9568041041493416e-03 2.1256396546959877e-02 -1.4210402034223080e-02 3.4616313874721527e-02 2.6455398648977280e-02 2.3776972666382790e-02 -3.1163776293396950e-02 -3.1118586659431458e-02 4.1060883551836014e-02 2.2126818075776100e-02 -8.1316316500306129e-03 1.7656570300459862e-02 -2.0354766398668289e-02 -2.7803662233054638e-03 -1.7809269949793816e-02 -1.2326967902481556e-02 8.2439091056585312e-03 -2.0278697833418846e-02 -3.2836090773344040e-02 -2.9423115774989128e-02 -7.5028375722467899e-03 7.1282680146396160e-03 2.6282635517418385e-03 -1.0597294196486473e-02 2.2143520414829254e-02 2.6326017454266548e-02 -4.7789984382688999e-03 1.5053072711452842e-03 1.8639108166098595e-02 -2.0667131990194321e-02 3.3619653433561325e-02 -1.1665987782180309e-02 2.3124242201447487e-02 1.9840335473418236e-02 -7.2171911597251892e-03 3.2270310912281275e-03 -2.6834721211344004e-04 1.5573424287140369e-02 -1.7686538398265839e-02 -2.2476572543382645e-02 -1.7663473263382912e-02 -1.7917416989803314e-02 3.4264136105775833e-02 -2.2753130178898573e-03 -5.3960368968546391e-03 1.5764895826578140e-02 2.5797311216592789e-02 2.9927857685834169e-03 -1.2039908207952976e-02 -3.2480087131261826e-02 2.4363856762647629e-02 -1.8159931525588036e-02 -9.4143720343708992e-03 -8.1210024654865265e-03 -2.9470458626747131e-02 1.4728243462741375e-02 -2.2936830297112465e-02 1.5200116671621799e-02 -3.2799419015645981e-02 -7.3664322495460510e-02 2.1220315247774124e-02 -3.2468050718307495e-02 -8.8504135608673096e-02 -2.0369742065668106e-02 -1.1898335069417953e-02 4.4688131660223007e-02 4.8453472554683685e-03 9.2144394293427467e-03 3.4915424883365631e-02 4.7739822417497635e-02 -4.7370858490467072e-02 -3.9523534476757050e-02 2.6913139969110489e-02 -1.7501020338386297e-03 2.9464358463883400e-02 -1.5979168936610222e-02 -2.4387052282691002e-02 -5.1705017685890198e-02 -1.7204225063323975e-02 -2.0678011700510979e-02 6.9879977963864803e-03 -8.6587049067020416e-02 -2.2599570453166962e-02 3.5673651844263077e-02 -7.0770971477031708e-02 -2.5563281029462814e-02 3.7762250285595655e-03 -2.8743049129843712e-02 5.4193273186683655e-02 4.5382592827081680e-02 -4.0549941360950470e-02 -5.5310141295194626e-02 -4.5589815825223923e-02 -2.8538491576910019e-02 -8.5003469139337540e-03 -3.6910362541675568e-02 -2.7806203812360764e-02 6.1474919319152832e-02 2.8634175658226013e-02 3.4123424440622330e-02 -4.1369028389453888e-02 2.9893547296524048e-02 -1.3317839801311493e-01 3.6670037079602480e-03 -7.0113372057676315e-03 2.3835485801100731e-02 1.7353476956486702e-02 -3.2064624130725861e-02 -3.9707876741886139e-02 2.1055895835161209e-02 -1.6917925328016281e-02 -1.2394366785883904e-02 2.2923590615391731e-02 1.8295999616384506e-02 -1.0246468707919121e-02 -7.2941966354846954e-02 2.2207649424672127e-02 -4.6479245647788048e-03 5.7832587510347366e-02 1.1713480344042182e-03 -1.0720578022301197e-02 1.7735660076141357e-02 1.8156328005716205e-03 -7.1587666869163513e-02 -2.8955586254596710e-02 3.9743293076753616e-02 2.2208096459507942e-02 -7.6269797980785370e-02 6.7494669929146767e-03 1.6168273985385895e-02 1.8820252269506454e-02 -1.8409062176942825e-02 -1.2935106642544270e-02 8.2495538517832756e-03 6.2078341841697693e-02 -7.9960711300373077e-03 3.7118200212717056e-02 -2.6015114039182663e-02 -2.1029526367783546e-02 -3.3295992761850357e-02 5.6410436518490314e-03 1.1615049093961716e-02 -3.6550570279359818e-02 5.3490395657718182e-03 -5.6144475936889648e-02 -1.0766981169581413e-02 -3.1905304640531540e-02 2.8200237080454826e-02 1.4271566644310951e-02 -3.9895985275506973e-02 3.7697739899158478e-02 8.8055534288287163e-03 -2.5468438863754272e-02 5.9774141758680344e-02 1.5609795227646828e-03 -9.2574827373027802e-02 1.5096829272806644e-02 -5.7320687919855118e-03 1.0852282866835594e-02 3.8032848387956619e-02 3.2939736265689135e-03 -3.4820035099983215e-02 -7.2139330208301544e-02 -1.7322931438684464e-02 5.4624937474727631e-02 4.4739656150341034e-02 6.0546878725290298e-02 -1.4996993355453014e-02 -4.0572606027126312e-02 -4.9113569548353553e-04 -3.7035662680864334e-02 -2.4495044723153114e-02 -2.8080606833100319e-02 1.2297875247895718e-02 1.3524146750569344e-02 8.1229200586676598e-03 -2.8867674991488457e-02 -4.7671776264905930e-02 1.7135921865701675e-02 -1.5716906636953354e-02 -8.9557664468884468e-03 2.3053403943777084e-02 -1.6535918693989515e-03 -2.3744976148009300e-02 1.1406598612666130e-02 3.5854723304510117e-02 2.1168673411011696e-02 3.9806757122278214e-02 -1.2783141806721687e-02 -1.5777230262756348e-02 9.8308967426419258e-03 1.4785152859985828e-02 6.3331099227070808e-03 -2.3977434262633324e-02 -2.2818641737103462e-02 -9.7783254459500313e-03 1.1090234853327274e-02 -1.3010694645345211e-02 2.3892160505056381e-02 7.7704810537397861e-03 3.4885914647020400e-04 -1.8494563177227974e-02 -1.0634040459990501e-02 -2.3406546562910080e-02 -1.6227945685386658e-02 2.0338570699095726e-02 2.6037723291665316e-03 -7.4194627813994884e-03 1.1718740686774254e-02 -1.2898094952106476e-02 3.0473854392766953e-02 1.4609398320317268e-02 -1.2532169057521969e-04 2.7333106845617294e-02 -1.9694816321134567e-02 -2.7335988357663155e-02 -1.5818442916497588e-03 1.6071531921625137e-02 -1.0630153119564056e-02 9.5856618136167526e-03 -3.4260388463735580e-02 2.8342837467789650e-02 -2.8040083125233650e-03 2.8769303113222122e-02 -2.0548040047287941e-02 9.6790995448827744e-03 2.9654463287442923e-03 -1.2148389592766762e-02 1.4603155665099621e-02 -9.8993089050054550e-03 4.3687843717634678e-03 -2.3894518613815308e-02 1.4399735257029533e-02 1.4430119656026363e-02 2.0291237160563469e-02 -2.8059821575880051e-02 2.0159708335995674e-02 -2.3248752579092979e-02 -1.1003107763826847e-02 3.5703483968973160e-02 -1.3225739821791649e-03 -2.6683099567890167e-02 3.1956609338521957e-02 2.0237294957041740e-02 1.1231265962123871e-02 -1.1204899288713932e-02 -2.7940861880779266e-02 9.1781346127390862e-03 2.0574159920215607e-02 -8.9798811823129654e-03 -1.9778773188591003e-02 4.0860883891582489e-02 2.9209326021373272e-03 1.6799535602331161e-02 -3.0170159414410591e-02 -1.5614060685038567e-03 -1.5861859545111656e-02 -3.2495111227035522e-02 -1.6792088747024536e-02 4.0081128478050232e-02 7.0921056903898716e-03 2.2941706702113152e-02 7.0835063233971596e-03 1.9313633441925049e-02 -3.9205015636980534e-03 -7.6522356830537319e-03 -9.8489047959446907e-03 3.4911115653812885e-03 2.9079480096697807e-02 6.1027989722788334e-03 -3.4099083393812180e-02 2.1155288442969322e-02 2.6246240362524986e-02 2.9810708016157150e-02 1.1235201731324196e-02 -3.3364894334226847e-03 5.0052017904818058e-03 -1.2343441136181355e-02 -2.0296970382332802e-02 1.6382099129259586e-03 3.9343185722827911e-02 2.9461614787578583e-02 8.3942641504108906e-04 1.9716344773769379e-02 5.4185707122087479e-03 5.7822717353701591e-03 2.4837642908096313e-02 2.4900219868868589e-03 1.7088282853364944e-02 -3.1772267073392868e-02 -2.4208787828683853e-02 2.6139467954635620e-02 1.0940273292362690e-02 6.3137058168649673e-03 2.2704822942614555e-02 -2.2279126569628716e-02 1.2069044634699821e-02 7.8346673399209976e-03 -7.5620124116539955e-03 -1.5268114395439625e-02 3.4143023192882538e-02 -5.9200045652687550e-03 1.2451193761080503e-03 -2.1576795727014542e-02 -3.2329980283975601e-02 2.7997570578008890e-03 -1.1039738543331623e-02 2.0397100597620010e-02 1.6005173325538635e-02 5.4885996505618095e-03 -2.3750808089971542e-02 3.2847717404365540e-02 9.5827290788292885e-03 3.6704319063574076e-03 -1.5499289147555828e-02 -7.2609618655405939e-06 1.4985514804720879e-02 -1.1839643120765686e-02 8.0618515610694885e-02 2.4499250575900078e-02 -3.0687695369124413e-02 3.7442846223711967e-04 1.7629208043217659e-02 -1.1387987062335014e-02 -1.1482317931950092e-02 -2.9519159346818924e-02 4.7351606190204620e-02 3.8253225386142731e-02 -2.3521245457231998e-03 -1.2376396916806698e-02 3.2254230231046677e-02 5.2940085530281067e-02 -7.4675790965557098e-02 1.1033389717340469e-02 5.2876435220241547e-02 1.1150552891194820e-02 1.6049555270001292e-03 2.8758779168128967e-02 -3.0908176675438881e-02 2.5649916380643845e-02 8.4450552240014076e-03 -9.5016425475478172e-03 -4.7814991325139999e-02 -4.8585958778858185e-02 -3.3264391124248505e-02 -2.8446359559893608e-02 9.0796984732151031e-02 2.1323690190911293e-02 -3.2192724756896496e-03 1.1474805325269699e-01 -5.9308495372533798e-02 8.2358755171298981e-02 -5.3301583975553513e-02 -6.5581113100051880e-02 -4.0485356003046036e-02 1.1114623397588730e-02 5.3429670631885529e-02 4.8687249422073364e-02 8.8638268411159515e-02 -8.8696395978331566e-03 3.1793408095836639e-02 -7.2003312408924103e-02 -3.6835104227066040e-02 -2.5168512016534805e-02 3.5597547888755798e-02 -5.6327044963836670e-02 2.0852826535701752e-02 3.1214892864227295e-02 -3.0234541743993759e-02 -1.9083393737673759e-02 2.2652244195342064e-02 8.7287865579128265e-02 -2.9135823249816895e-02 1.1786120012402534e-02 -4.0915995836257935e-02 9.1960513964295387e-03 3.4890286624431610e-02 -3.5979457199573517e-02 4.9832095392048359e-03 9.5794210210442543e-03 3.7624996155500412e-02 -3.5081230103969574e-02 -4.2752798646688461e-02 -2.0062520634382963e-03 6.8063065409660339e-03 -3.7215877324342728e-02 -2.0420089364051819e-02 9.2421002686023712e-02 -2.7096336707472801e-02 1.4658998697996140e-02 -1.2612617015838623e-01 -1.8989151343703270e-02 1.8781710416078568e-02 -2.8730088844895363e-02 1.1094192974269390e-02 4.7124311327934265e-02 1.1393127031624317e-02 4.6545293182134628e-02 1.3298535486683249e-03 -9.9124601110816002e-03 3.9139691740274429e-02 1.1793433688580990e-02 -2.2689525038003922e-02 1.4677939936518669e-02 -7.0238500833511353e-02 -1.7694495618343353e-02 -9.0748406946659088e-02 2.3391302675008774e-02 4.0217682719230652e-02 -2.2300465032458305e-02 8.3992704749107361e-03 2.2292967885732651e-02 -5.2517686039209366e-02 -5.8538261801004410e-03 3.3742595463991165e-02 6.3708893954753876e-02 -1.5737546607851982e-02 2.1720421500504017e-03 -6.6064270213246346e-03 9.1838072985410690e-03 2.5362926535308361e-03 -3.3346809446811676e-02 -5.3827516734600067e-02 7.4529714882373810e-02 1.3347312808036804e-02 3.2634709030389786e-02 8.6352013051509857e-02 2.2547941654920578e-02 2.1838804706931114e-02 -3.2417468726634979e-02 2.0485548302531242e-02 -1.6546927392482758e-02 3.5152513533830643e-02 -2.1921673789620399e-02 -7.8608551993966103e-03 1.2810461223125458e-02 -4.7595083713531494e-02 -7.3176845908164978e-02 -8.4560371935367584e-02 3.5169914364814758e-02 -4.1535783559083939e-02 -3.5937473177909851e-02 5.3022634238004684e-03 -1.3728967308998108e-01 -3.6081451922655106e-02 -8.1872381269931793e-02 -1.1118260025978088e-01 4.6514518558979034e-02 -2.0112544298171997e-03 -2.2977286949753761e-02 -2.7539277449250221e-02 -3.6861248314380646e-02 -2.1688174456357956e-02 5.8127693831920624e-02 -2.4290066212415695e-02 -3.4075830131769180e-02 1.3223644345998764e-02 3.5447496920824051e-02 -1.4962454326450825e-02 -3.0509425327181816e-02 -2.3413287475705147e-02 2.9431991279125214e-03 9.6698559354990721e-04 1.3868064619600773e-02 -4.0284980088472366e-02 -1.0584250092506409e-01 -1.8724879249930382e-02 5.7358909398317337e-02 -6.0534592717885971e-02 -7.3522858321666718e-02 4.4337441213428974e-03 2.2617623209953308e-02 -2.9608684126287699e-03 4.9510005861520767e-02 -4.9726024270057678e-02 -5.3300742059946060e-02 -2.9994709417223930e-02 -2.5027783587574959e-02 -4.3333455920219421e-02 -1.7939796671271324e-02 1.1599433608353138e-02 7.3065489530563354e-02 1.4489211142063141e-01 4.9089279025793076e-02 4.5541995204985142e-03 5.8958977460861206e-02 -2.1123109757900238e-01 6.4024843275547028e-02 4.2834237683564425e-04 7.1680180728435516e-02 5.7081771083176136e-03 -5.0619542598724365e-02 -5.2676466293632984e-03 1.3357146084308624e-01 6.5704032778739929e-02 5.0041507929563522e-02 1.3068118691444397e-01 1.0175910592079163e-01 9.7412370145320892e-02 -2.2356381639838219e-02 1.3131688348948956e-02 5.2572190761566162e-02 1.0770529508590698e-01 -2.3976240307092667e-02 -6.8978242576122284e-02 8.2682088017463684e-02 5.5734638590365648e-04 -1.2508346140384674e-01 -5.6688178330659866e-02 1.4190451800823212e-01 -1.5015372075140476e-02 -1.2105461955070496e-01 -1.4296351000666618e-02 3.2792735844850540e-02 2.1210459992289543e-02 -1.0821729898452759e-01 2.5602072477340698e-02 -6.7366086877882481e-03 8.0616205930709839e-02 1.5584572218358517e-02 -1.4320324175059795e-02 -4.3031353503465652e-02 4.0766172111034393e-02 7.6277712360024452e-03 -4.4345706701278687e-02 5.2179906517267227e-02 -5.2820574492216110e-02 4.1273206472396851e-02 1.8693240359425545e-02 -5.9154115617275238e-02 -6.3458452932536602e-03 -2.6038356125354767e-02 3.7801044527441263e-03 -8.4836117923259735e-02 -1.0577550157904625e-02 -6.5967097878456116e-02 -4.8425678163766861e-02 2.0414762198925018e-02 -8.0758899450302124e-02 -9.8097339272499084e-02 -2.8522867709398270e-02 4.9460101872682571e-02 -8.4781058132648468e-02 2.0984508097171783e-02 -5.4541099816560745e-02 1.2717389501631260e-02 -1.1781211197376251e-01 -2.1614355966448784e-02 1.1341684311628342e-01 4.2845852673053741e-02 4.9211982637643814e-02 -1.5527823939919472e-02 -2.9169682413339615e-02 -9.6718426793813705e-03 -1.4706352725625038e-02 -1.0087343305349350e-01 -6.9050028920173645e-02 -7.2586633265018463e-02 4.0071435272693634e-02 3.1364142894744873e-02 -9.3891754746437073e-02 -8.7493836879730225e-02 1.1584145575761795e-01 3.2622970640659332e-02 -2.0035805180668831e-02 -1.4106195885688066e-03 -1.4803676865994930e-02 -3.9515357464551926e-02 9.0365018695592880e-03 1.7023934051394463e-02 -8.8860373944044113e-03 -2.2814104333519936e-02 -7.6057515107095242e-03 -8.2486890256404877e-02 3.4313321113586426e-02 1.3081037439405918e-02 9.0025678277015686e-02 1.2536804378032684e-01 -5.8093734085559845e-02 -1.8286556005477905e-02 -1.0150706395506859e-02 2.6220843195915222e-02 -8.6429752409458160e-03 -7.0098862051963806e-02 -2.4664945900440216e-02 3.5190831869840622e-02 -1.8243055790662766e-02 -1.4428650960326195e-02 2.3891618475317955e-03 -1.1377427726984024e-01 -1.4994115568697453e-02 -7.3848284780979156e-02 2.7550209313631058e-02 7.0017762482166290e-02 2.9478766024112701e-02 2.8382437303662300e-02 6.1557229608297348e-02 6.3821636140346527e-02 -3.2303426414728165e-02 -3.4619376063346863e-02 -1.9161913543939590e-02 -1.3384043239057064e-02 6.1149382963776588e-03 -3.0179782770574093e-03 -1.3571111485362053e-03 2.6583639904856682e-02 5.9172427281737328e-03 7.8649498522281647e-02 5.3729889914393425e-03 -2.6220042258501053e-02 -4.7974944114685059e-02 5.2275829948484898e-03 2.8035243973135948e-02 4.7682225704193115e-02 -2.6713944971561432e-03 -2.4450503289699554e-02 -1.9965925812721252e-01 -5.0075180828571320e-02 1.4686822891235352e-01 -6.5915010869503021e-02 -1.1274409294128418e-01 -7.2288955561816692e-03 -3.4656820935197175e-04 4.4844347983598709e-02 2.1422561258077621e-02 1.9346728920936584e-02 2.8055150061845779e-02 1.5778804197907448e-02 -5.3238354623317719e-02 7.0645950734615326e-02 3.7625916302204132e-02 1.5549372136592865e-01 -2.7477096300572157e-03 -2.4562995880842209e-02 -5.1783323287963867e-02 3.3070784062147141e-02 1.3533236458897591e-02 -1.5936525538563728e-02 -5.3532542660832405e-03 -3.3313479274511337e-02 -3.5082429647445679e-02 -3.3072467893362045e-02 -8.4595950320363045e-03 1.5987897291779518e-02 2.6591874659061432e-02 1.1666830629110336e-01 -6.1373125761747360e-02 1.8408775329589844e-02 1.4183385670185089e-01 -4.0676180273294449e-02 4.5206705108284950e-03 7.4704727157950401e-03 3.4022141247987747e-02 -7.6167290098965168e-03 -9.6154063940048218e-02 1.0454978793859482e-01 -3.1954884529113770e-02 1.1834030039608479e-02 -2.9415946453809738e-02 -2.8958987444639206e-02 -4.0872171521186829e-02 -5.7929258793592453e-02 -4.2674943804740906e-02 1.4566376805305481e-01 4.6909905970096588e-02 -8.4363678470253944e-03 -2.2343846037983894e-02 5.5139254778623581e-02 -3.0437275767326355e-02 -1.4158542454242706e-01 7.0000395178794861e-02 6.5784581005573273e-02 -1.6675494611263275e-02 -5.9152178466320038e-02 -1.4134526718407869e-03 3.3185951411724091e-02 9.5499068498611450e-02 7.3012031614780426e-02 1.2348998337984085e-01 3.0183825641870499e-02 2.1206820383667946e-02 -7.3062308132648468e-02 6.8821705877780914e-02 4.5684728771448135e-02 -2.2792477160692215e-02 -5.9119224548339844e-02 3.2192714512348175e-02 -1.0178424417972565e-02 -1.2362721562385559e-01 -1.0955194942653179e-02 -9.1760516166687012e-02 6.3189263455569744e-03 -1.7622211948037148e-02 -5.0424519926309586e-02 3.9089921861886978e-02 -2.4106804281473160e-02 -4.5502614229917526e-03 7.9582028090953827e-02 1.0591053403913975e-02 1.9439950119704008e-03 1.9565006718039513e-02 1.4277411624789238e-02 5.0126105546951294e-02 3.0228909105062485e-02 -8.2145631313323975e-03 9.4688823446631432e-03 -2.0479066297411919e-03 -1.5944730490446091e-02 1.4004576951265335e-02 -3.5395438317209482e-03 5.3017623722553253e-03 3.3797593787312508e-03 -2.7719078585505486e-02 -6.2339948490262032e-03 4.1393313556909561e-02 -1.2327259406447411e-02 -4.5385226607322693e-02 3.2944243401288986e-02 4.4169683009386063e-02 2.0013306289911270e-02 -2.0836053881794214e-03 1.0524141602218151e-02 -1.5597913414239883e-02 2.9791383072733879e-02 6.6393283195793629e-03 -2.4892218410968781e-02 -2.2161668166518211e-02 -1.8806857988238335e-02 -3.9967042393982410e-03 2.3384934756904840e-03 2.1736565977334976e-02 3.6770630627870560e-02 2.9469382017850876e-02 7.0284083485603333e-02 -2.8814058750867844e-02 -4.2267148382961750e-03 -5.5118840187788010e-02 1.0467235930263996e-02 -4.6523392200469971e-02 1.9854171201586723e-02 5.4719783365726471e-02 2.4181932210922241e-02 6.8947046995162964e-02 -1.4850801788270473e-02 2.2862164303660393e-02 -5.1068902015686035e-02 1.8873443827033043e-02 -5.2309434860944748e-02 -2.3540623486042023e-02 -4.8676125705242157e-02 -3.3494103699922562e-03 5.9031913988292217e-03 -1.3191071338951588e-02 1.5800813212990761e-02 3.7699975073337555e-03 -5.0224964506924152e-03 7.8345043584704399e-03 1.8764762207865715e-02 -3.7598705384880304e-03 1.3045373372733593e-02 2.0178183913230896e-02 -3.4650988876819611e-02 1.3183198170736432e-03 1.3030817732214928e-02 -1.4641052111983299e-02 -5.3934562951326370e-02 -1.1496112681925297e-02 2.1750045940279961e-02 2.1199075505137444e-02 -5.6618370115756989e-02 2.8982553631067276e-02 2.7860127389431000e-02 -1.8232025206089020e-02 4.6335563063621521e-02 -2.5024211034178734e-02 -1.5822850167751312e-02 -2.1335579454898834e-02 1.1152744293212891e-02 2.0556800067424774e-02 2.4650203064084053e-02 -2.7505559846758842e-02 -4.8013255000114441e-03 7.2394106537103653e-03 1.0200819931924343e-02 3.7686243653297424e-02 -2.2398808971047401e-02 -1.3994785957038403e-02 -1.0855274274945259e-02 -3.1516995280981064e-02 -2.5049773976206779e-02 -1.6483182087540627e-02 -1.9717171788215637e-02 2.7962170541286469e-02 -9.5784859731793404e-03 3.0143499374389648e-02 1.0215527378022671e-02 -3.2905735075473785e-02 -2.5381220504641533e-02 1.9874554127454758e-02 3.9101064205169678e-02 1.3008238747715950e-02 -2.3201275616884232e-03 -1.6925849020481110e-02 3.3758230507373810e-02 2.0616859197616577e-02 -6.0685817152261734e-03 1.9299840554594994e-02 5.2978843450546265e-02 -2.6951329782605171e-02 -1.5712324529886246e-03 5.5412009358406067e-02 2.0647101104259491e-02 1.9927756860852242e-02 4.1690305806696415e-03 2.3393101990222931e-02 2.2595485672354698e-02 -1.4324073679745197e-02 5.3062867373228073e-03 1.2500025331974030e-02 -1.8954841420054436e-02 -3.1509287655353546e-02 -5.6043531745672226e-02 -1.5884669497609138e-02 3.2724000047892332e-03 1.2027644552290440e-02 -1.4524408616125584e-02 -4.8926267481874675e-09 -3.7245918065309525e-02 2.6030518114566803e-02 -1.6107223927974701e-02 1.6543556703254580e-03 5.9886500239372253e-02 -1.4976818114519119e-02 -3.5485401749610901e-02 -7.3061096481978893e-03 -7.9983234172686934e-04 -6.3563645817339420e-03 1.4468065928667784e-03 2.7160210534930229e-02 -1.3685137964785099e-02 4.0330510586500168e-02 2.8789838775992393e-02 1.4452514238655567e-02 -1.6561169177293777e-02 -4.9102474004030228e-02 3.3613409847021103e-02 4.7870883718132973e-03 6.2673068605363369e-03 -1.8766285851597786e-02 -5.4585812613368034e-03 -4.0961135178804398e-02 1.2360860593616962e-02 1.0257374495267868e-02 -1.5741644427180290e-02 3.1372446101158857e-03 -3.5649023950099945e-02 1.1874326504766941e-02 4.5824153348803520e-03 1.8007650971412659e-02 2.2656626999378204e-02 -4.2945249006152153e-03 1.7783461138606071e-02 -1.1799239553511143e-02 2.6561545208096504e-02 -4.8113673925399780e-02 -5.8842371217906475e-03 -1.3771373778581619e-02 1.1531012132763863e-02 1.6090690623968840e-03 4.9631860107183456e-02 2.4403410032391548e-02 -4.4640186242759228e-03 9.3766404315829277e-03 -4.0384046733379364e-02 5.3121512755751610e-03 -3.5561084747314453e-02 -6.4265574328601360e-03 9.9651273339986801e-03 -1.1335897259414196e-02 4.6785075217485428e-02 -6.1375400982797146e-03 3.3607479417696595e-04 4.8844385892152786e-02 3.7698678672313690e-02 -8.1826178357005119e-03 5.2404619753360748e-02 -9.1332029551267624e-03 6.5633635967969894e-03 -1.4108071103692055e-02 1.9215591251850128e-02 -3.1880039721727371e-02 -7.6947570778429508e-03 -3.4336712211370468e-02 9.0724416077136993e-03 -2.4505648761987686e-02 1.3401598669588566e-02 8.8040642440319061e-03 1.9930340931750834e-04 5.2643595263361931e-03 4.7313597053289413e-02 -1.5986032783985138e-02 8.8490564376115799e-03 -1.0485992766916752e-02 -9.1828341828659177e-04 7.4540362693369389e-03 1.4157021651044488e-03 6.3462622463703156e-02 3.8911566138267517e-02 5.4931780323386192e-03 -2.2489545866847038e-02 -2.3601477965712547e-02 1.1707341764122248e-04 4.9436479806900024e-02 -2.9974158853292465e-02 -4.8669338226318359e-02 -4.0826317854225636e-03 -5.8927167207002640e-02 -2.1969053894281387e-02 -8.5694584995508194e-03 -2.0487736910581589e-02 1.7292695119976997e-02 1.4920401386916637e-02 5.1076975651085377e-03 -3.1679630279541016e-02 1.5283491229638457e-03 2.5628285482525826e-02 1.9114410504698753e-02 4.9249690026044846e-02 -1.3733839616179466e-02 7.6492545194923878e-03 -2.8460958972573280e-02 3.8718439638614655e-02 -1.6948798671364784e-02 3.3220205456018448e-02 -7.4443197809159756e-03 1.5912352129817009e-02 -2.5684734806418419e-02 1.3106643222272396e-02 2.2568115964531898e-02 -3.4360598772764206e-02 1.2649324722588062e-02 -4.3514594435691833e-02 2.1371131297200918e-03 2.9591675847768784e-02 2.1515211090445518e-02 -3.0338298529386520e-02 -1.3518993000616319e-05 -1.9724290817975998e-02 -2.7407733723521233e-02 -2.0726392045617104e-02 -6.0336317867040634e-02 4.5241764746606350e-03 2.5297269225120544e-02 1.7871053423732519e-03 5.6878700852394104e-03 -2.1572098135948181e-02 7.9776588827371597e-03 6.2746000476181507e-03 1.0086715221405029e-02 4.6746946871280670e-02 -2.6435141917318106e-03 -4.8905543982982635e-02 -8.0642038956284523e-03 -2.3996155709028244e-02 -2.0485600456595421e-02 2.6066461578011513e-02 -7.0721046067774296e-03 -5.7328711263835430e-03 -3.3574733883142471e-02 -2.2483220323920250e-02 3.0878095421940088e-03 -1.3303029350936413e-02 -5.1945451647043228e-02 -1.0645360685884953e-02 5.9428974054753780e-03 -3.0429160222411156e-02 2.1118476986885071e-02 -4.8301275819540024e-02 -5.7652470422908664e-04 -1.6416644677519798e-02 -1.8494369462132454e-02 -5.6680727750062943e-02 1.2470053043216467e-03 -3.7819240242242813e-02 -7.0995767600834370e-03 -3.1849812716245651e-02 -1.9843870773911476e-02 1.9142773002386093e-02 1.3675427064299583e-02 4.0759440511465073e-02 1.9614394754171371e-02 4.7431871294975281e-02 -4.1926626116037369e-02 2.5621667504310608e-02 -6.9677252322435379e-03 3.4107059240341187e-02 7.0381560362875462e-03 2.7977636083960533e-02 6.2776282429695129e-03 -8.4962174296379089e-03 -1.1830793693661690e-02 -1.3341077603399754e-02 7.7604507096111774e-03 -5.4249618202447891e-02 1.8652163445949554e-02 1.6831824323162436e-03 -3.6230699624866247e-03 2.2592967376112938e-02 -6.3228514045476913e-03 4.0610980242490768e-02 5.5503997951745987e-02 1.0926441755145788e-03 3.7577834445983171e-03 5.6071698665618896e-02 -2.5705402716994286e-02 -1.7220417037606239e-02 3.8723409175872803e-02 -9.8464926704764366e-03 -4.0407583117485046e-02 6.0586407780647278e-03 9.8254457116127014e-03 1.9910974428057671e-02 1.1718641035258770e-03 -1.7043311148881912e-02 3.6418993026018143e-02 -5.6548817083239555e-03 -1.3883693143725395e-02 2.8104703873395920e-02 2.0265128463506699e-02 4.0413741022348404e-02 -3.9634283632040024e-02 -2.6171702891588211e-02 -1.7465611919760704e-02 4.9033472314476967e-03 1.9531622529029846e-02 5.9843980707228184e-03 -2.8692996129393578e-02 2.4617165327072144e-03 -3.0296863988041878e-02 -1.6921918140724301e-03 1.5116223134100437e-02 -2.6069726794958115e-02 -2.4022215977311134e-02 6.5194731578230858e-03 -7.6487548649311066e-03 1.2232329696416855e-02 -2.1976945921778679e-02 -2.6402141898870468e-02 1.5171454288065434e-02 -2.4880969896912575e-02 2.1342599764466286e-02 -5.0965887494385242e-03 -4.5532822608947754e-02 -1.9267456606030464e-02 2.8140172362327576e-02 2.5222145020961761e-02 -1.1955239810049534e-02 7.3739392682909966e-03 -8.5259908810257912e-03 -1.0851047700271010e-03 -3.3411507029086351e-03 -1.8526824191212654e-02 5.5535993305966258e-04 6.1733960174024105e-03 -4.1446547955274582e-02 2.5705270469188690e-02 4.3336883187294006e-02 -3.0904976651072502e-02 4.5575937256217003e-03 -1.3409639708697796e-02 -8.5797123610973358e-03 2.4412764236330986e-02 -1.1541087180376053e-02 -3.4052133560180664e-02 2.1256892010569572e-02 -3.7245623767375946e-02 -1.5784144401550293e-02 -3.4084051847457886e-02 -4.9273543059825897e-02 3.4338835626840591e-02 4.4183395802974701e-03 7.8086582943797112e-03 -1.8339347094297409e-02 -1.7571819946169853e-02 8.6562254000455141e-04 -1.7125073820352554e-02 7.2236265987157822e-03 2.4057721719145775e-02 2.5679597631096840e-02 7.8925445675849915e-02 -6.1411224305629730e-02 -8.8090468198060989e-03 6.1785434372723103e-03 -3.6304567009210587e-02 -3.3694606274366379e-02 -2.9806371778249741e-02 -1.5403046272695065e-02 5.7542875409126282e-02 3.8983817212283611e-03 1.3020414859056473e-02 -3.0924262478947639e-02 -6.2465474009513855e-02 -2.7773098554462194e-04 -9.9358912557363510e-03 5.8803586289286613e-03 1.1282347142696381e-02 -3.1677946448326111e-02 6.3406072556972504e-02 3.6996006965637207e-03 5.1157437264919281e-02 -3.2907012850046158e-02 -3.9079349488019943e-02 5.4590380750596523e-04 -2.2259481251239777e-02 -8.5930796340107918e-03 -3.6597449332475662e-02 -9.0182982385158539e-03 5.6923436932265759e-03 -5.6639026850461960e-02 2.1103875711560249e-02 -6.2244161963462830e-03 -5.2555114962160587e-03 -2.3187143728137016e-02 2.9797473922371864e-02 -3.1010955572128296e-03 5.6025952100753784e-02 1.0283524170517921e-02 -2.8649799525737762e-02 -5.8388799428939819e-02 -5.2012380212545395e-02 3.6891065537929535e-02 -5.1784697920084000e-02 -3.0922001227736473e-02 -3.1552180647850037e-02 1.3085432583466172e-03 5.7106353342533112e-02 3.6111071705818176e-02 -8.1277918070554733e-03 -8.9369220659136772e-03 3.2706752419471741e-02 -4.4860165566205978e-02 7.0526540279388428e-02 2.6632478460669518e-02 6.4026981592178345e-02 1.1433169245719910e-02 1.1431745253503323e-02 -6.7455142736434937e-02 -6.5721869468688965e-03 -1.5117418020963669e-02 4.1854707524180412e-03 -1.8408048897981644e-02 -6.1942249536514282e-02 -3.8725689053535461e-02 -1.5813915058970451e-02 1.5454818494617939e-02 2.5206575170159340e-02 -1.5800796449184418e-02 6.6723152995109558e-02 -1.5854652971029282e-02 1.5595562756061554e-02 9.2378437519073486e-02 -5.6994199752807617e-02 3.0850494280457497e-02 1.0333231650292873e-02 3.1527932733297348e-02 2.4960111826658249e-02 -5.6647382676601410e-02 2.6369269937276840e-02 5.0844516605138779e-02 4.9834330566227436e-03 -4.1277767159044743e-03 2.0887529477477074e-02 -6.0863818973302841e-02 -5.3771112114191055e-02 -2.7045987546443939e-02 6.5274894237518311e-02 2.2898336872458458e-02 6.9835507310926914e-03 7.5034326873719692e-03 -1.6429552808403969e-02 -5.2323177456855774e-02 -8.8559255003929138e-02 5.2194375544786453e-02 5.6722693145275116e-02 -5.5670004338026047e-02 -2.2662784904241562e-02 -1.7329161986708641e-02 3.9044275879859924e-02 2.9585558921098709e-02 7.2054535150527954e-02 7.1907557547092438e-02 7.5932801701128483e-03 2.9711073264479637e-02 -1.1399286799132824e-02 1.8595527857542038e-02 3.0895046074874699e-04 -1.4751266688108444e-02 -2.5725869461894035e-02 2.0145172311458737e-04 2.5381121784448624e-02 -7.7331155538558960e-02 8.5583026520907879e-04 -3.1702939420938492e-02 3.4345548599958420e-02 -2.9655158519744873e-02 -5.1926132291555405e-02 -2.1545449271798134e-02 -1.6502195969223976e-02 -1.4180856756865978e-02 7.0374928414821625e-02 -1.8231453374028206e-02 1.0282677412033081e-01 3.0562125612050295e-03 2.0351480692625046e-02 9.0975232422351837e-02 -2.2108981385827065e-02 1.4689251780509949e-02 -2.0356946333777159e-04 -3.8763771299272776e-03 1.6716014593839645e-02 -6.1073750257492065e-03 6.6663860343396664e-03 2.9893301427364349e-02 -2.2686149924993515e-02 -1.8306471407413483e-02 -5.6760986335575581e-03 -1.6799842938780785e-02 2.3573435842990875e-02 2.1553801372647285e-02 3.8691140711307526e-02 -2.5381157174706459e-02 1.3385540805757046e-02 2.8600821271538734e-02 7.2977185249328613e-02 -2.0192127674818039e-02 