<?xml version="1.0"?>
<MethodSetup Method="MLP::MLPBNN">
  <GeneralInfo>
    <Info name="TMVA Release" value="4.2.1 [262657]"/>
    <Info name="ROOT Release" value="6.10/09 [395785]"/>
    <Info name="Creator" value="tasheng"/>
    <Info name="Date" value="Mon Jan 17 19:21:00 2022"/>
    <Info name="Host" value="Linux cmsbuild64.cern.ch 2.6.32-696.30.1.el6.x86_64 #1 SMP Tue May 22 06:09:36 CEST 2018 x86_64 x86_64 x86_64 GNU/Linux"/>
    <Info name="Dir" value="/home/tasheng/bmva/TMVA/BP/train"/>
    <Info name="Training events" value="57215"/>
    <Info name="TrainingTime" value="6.04736647e+02"/>
    <Info name="AnalysisType" value="Classification"/>
  </GeneralInfo>
  <Options>
    <Option name="NCycles" modified="Yes">600</Option>
    <Option name="HiddenLayers" modified="Yes">N+5</Option>
    <Option name="NeuronType" modified="Yes">tanh</Option>
    <Option name="RandomSeed" modified="No">1</Option>
    <Option name="EstimatorType" modified="No">CE</Option>
    <Option name="NeuronInputType" modified="No">sum</Option>
    <Option name="V" modified="Yes">False</Option>
    <Option name="VerbosityLevel" modified="No">Default</Option>
    <Option name="VarTransform" modified="Yes">N</Option>
    <Option name="H" modified="Yes">True</Option>
    <Option name="CreateMVAPdfs" modified="No">False</Option>
    <Option name="IgnoreNegWeightsInTraining" modified="No">False</Option>
    <Option name="TrainingMethod" modified="Yes">BFGS</Option>
    <Option name="LearningRate" modified="No">2.000000e-02</Option>
    <Option name="DecayRate" modified="No">1.000000e-02</Option>
    <Option name="TestRate" modified="Yes">5</Option>
    <Option name="EpochMonitoring" modified="No">False</Option>
    <Option name="Sampling" modified="No">1.000000e+00</Option>
    <Option name="SamplingEpoch" modified="No">1.000000e+00</Option>
    <Option name="SamplingImportance" modified="No">1.000000e+00</Option>
    <Option name="SamplingTraining" modified="No">True</Option>
    <Option name="SamplingTesting" modified="No">False</Option>
    <Option name="ResetStep" modified="No">50</Option>
    <Option name="Tau" modified="No">3.000000e+00</Option>
    <Option name="BPMode" modified="No">sequential</Option>
    <Option name="BatchSize" modified="No">-1</Option>
    <Option name="ConvergenceImprove" modified="No">1.000000e-30</Option>
    <Option name="ConvergenceTests" modified="No">-1</Option>
    <Option name="UseRegulator" modified="Yes">True</Option>
    <Option name="UpdateLimit" modified="No">10000</Option>
    <Option name="CalculateErrors" modified="No">False</Option>
    <Option name="WeightRange" modified="No">1.000000e+00</Option>
  </Options>
  <Variables NVar="6">
    <Variable VarIndex="0" Expression="Btrk1Pt" Label="Btrk1Pt" Title="Btrk1Pt" Unit="" Internal="Btrk1Pt" Type="F" Min="2.00013399e-01" Max="1.00547304e+01"/>
    <Variable VarIndex="1" Expression="abs(Btrk1Dz1/Btrk1DzError1)" Label="Trk1DCAz" Title="Trk1DCAz" Unit="" Internal="Trk1DCAz" Type="F" Min="4.01805992e-05" Max="8.23362500e+03"/>
    <Variable VarIndex="2" Expression="abs(Btrk1Dxy1/Btrk1DxyError1)" Label="Trk1DCAxy" Title="Trk1DCAxy" Unit="" Internal="Trk1DCAxy" Type="F" Min="9.54853531e-05" Max="2.27588608e+02"/>
    <Variable VarIndex="3" Expression="BsvpvDistance/BsvpvDisErr" Label="dls" Title="dls" Unit="" Internal="dls" Type="F" Min="2.00039959e+00" Max="9.31062891e+03"/>
    <Variable VarIndex="4" Expression="Balpha" Label="Balpha" Title="Balpha" Unit="" Internal="Balpha" Type="F" Min="4.76321657e-05" Max="3.14021730e+00"/>
    <Variable VarIndex="5" Expression="Bchi2cl" Label="Bchi2cl" Title="Bchi2cl" Unit="" Internal="Bchi2cl" Type="F" Min="5.00016920e-02" Max="9.99972939e-01"/>
  </Variables>
  <Spectators NSpec="0"/>
  <Classes NClass="2">
    <Class Name="Signal" Index="0"/>
    <Class Name="Background" Index="1"/>
  </Classes>
  <Transformations NTransformations="1">
    <Transform Name="Normalize">
      <Selection>
        <Input NInputs="6">
          <Input Type="Variable" Label="Btrk1Pt" Expression="Btrk1Pt"/>
          <Input Type="Variable" Label="Trk1DCAz" Expression="abs(Btrk1Dz1/Btrk1DzError1)"/>
          <Input Type="Variable" Label="Trk1DCAxy" Expression="abs(Btrk1Dxy1/Btrk1DxyError1)"/>
          <Input Type="Variable" Label="dls" Expression="BsvpvDistance/BsvpvDisErr"/>
          <Input Type="Variable" Label="Balpha" Expression="Balpha"/>
          <Input Type="Variable" Label="Bchi2cl" Expression="Bchi2cl"/>
        </Input>
        <Output NOutputs="6">
          <Output Type="Variable" Label="Btrk1Pt" Expression="Btrk1Pt"/>
          <Output Type="Variable" Label="Trk1DCAz" Expression="abs(Btrk1Dz1/Btrk1DzError1)"/>
          <Output Type="Variable" Label="Trk1DCAxy" Expression="abs(Btrk1Dxy1/Btrk1DxyError1)"/>
          <Output Type="Variable" Label="dls" Expression="BsvpvDistance/BsvpvDisErr"/>
          <Output Type="Variable" Label="Balpha" Expression="Balpha"/>
          <Output Type="Variable" Label="Bchi2cl" Expression="Bchi2cl"/>
        </Output>
      </Selection>
      <Class ClassIndex="0">
        <Ranges>
          <Range Index="0" Min="2.0055849850177765e-01" Max="1.0054730415344238e+01"/>
          <Range Index="1" Min="4.0180599171435460e-05" Max="8.2336250000000000e+03"/>
          <Range Index="2" Min="3.2792278216220438e-04" Max="2.2758860778808594e+02"/>
          <Range Index="3" Min="2.0009975433349609e+00" Max="9.3106289062500000e+03"/>
          <Range Index="4" Min="4.7632165660616010e-05" Max="3.0939915180206299e+00"/>
          <Range Index="5" Min="5.0001692026853561e-02" Max="9.9997293949127197e-01"/>
        </Ranges>
      </Class>
      <Class ClassIndex="1">
        <Ranges>
          <Range Index="0" Min="2.0001339912414551e-01" Max="9.5628461837768555e+00"/>
          <Range Index="1" Min="8.4410829003900290e-04" Max="3.2567260742187500e+03"/>
          <Range Index="2" Min="9.5485353085678071e-05" Max="3.1622268676757812e+01"/>
          <Range Index="3" Min="2.0003995895385742e+00" Max="7.5661132812500000e+03"/>
          <Range Index="4" Min="7.7949196565896273e-04" Max="3.1402173042297363e+00"/>
          <Range Index="5" Min="5.0018373876810074e-02" Max="9.9996358156204224e-01"/>
        </Ranges>
      </Class>
      <Class ClassIndex="2">
        <Ranges>
          <Range Index="0" Min="2.0001339912414551e-01" Max="1.0054730415344238e+01"/>
          <Range Index="1" Min="4.0180599171435460e-05" Max="8.2336250000000000e+03"/>
          <Range Index="2" Min="9.5485353085678071e-05" Max="2.2758860778808594e+02"/>
          <Range Index="3" Min="2.0003995895385742e+00" Max="9.3106289062500000e+03"/>
          <Range Index="4" Min="4.7632165660616010e-05" Max="3.1402173042297363e+00"/>
          <Range Index="5" Min="5.0001692026853561e-02" Max="9.9997293949127197e-01"/>
        </Ranges>
      </Class>
    </Transform>
  </Transformations>
  <MVAPdfs/>
  <Weights>
    <Layout NLayers="3">
      <Layer Index="0" NNeurons="7">
        <Neuron NSynapses="11">
          5.7444917179962487e-02 2.2908438807216278e+00 1.2883668251278166e+00 3.8768547307185623e+00 -1.8112878572873641e+00 -1.9731708525665221e+00 -2.9605846005007519e-01 2.2801214098663642e+00 -1.7770939914772657e+00 -1.0964383995698888e+00 -6.9941549942822756e-01 
        </Neuron>
        <Neuron NSynapses="11">
          -1.3213172430382565e+00 -1.2047981118076472e+00 -1.1770281190853465e-01 -3.2752510754590447e+00 6.0094634598104368e-01 -8.3733097414046020e-01 -5.8086781278484190e-01 7.0285316122958197e-01 1.6831908886458034e+00 -3.5257338511385550e-01 -1.1473422795651256e-01 
        </Neuron>
        <Neuron NSynapses="11">
          6.3839432270312868e-01 2.2003685064514436e+00 -1.0741007876768749e+00 5.0572429551513185e+00 1.4649595892848217e+00 -1.9442216262463090e+00 -4.6989920610616185e+00 1.5414510083978110e+00 5.5463488474325882e+00 1.3802132884650635e+00 -8.0617907955176502e+00 
        </Neuron>
        <Neuron NSynapses="11">
          -4.7739343098478688e+00 7.3061882358502805e-01 3.0329383132418292e-01 -4.6703182279864275e-01 1.7110830352266599e+00 -1.5653671149879957e+00 -3.0386921327551377e+00 1.6706705779415851e+00 1.1273082374744587e+00 2.4125530998968485e+00 6.7046670899722915e-01 
        </Neuron>
        <Neuron NSynapses="11">
          1.6189504408666788e-01 -1.4425199949078440e+00 -2.6705524421751703e-01 3.8444695642051809e-02 1.3220616321292744e+00 8.0920279978560761e-01 8.5939054777187120e+00 7.4470186167428054e-01 2.7522970076341530e-01 4.6302385040845051e-01 1.7900399780059295e-01 
        </Neuron>
        <Neuron NSynapses="11">
          -2.7147733853675121e-01 1.3324073905088635e-01 -9.6672418534494320e-01 7.0938721229451204e-02 1.6454095237367505e-01 -4.3824235980596976e-01 -4.7924641747809187e-02 3.8974550698982431e-02 1.0095774865984895e-01 8.4662029949799356e-01 4.5682002953614527e-02 
        </Neuron>
        <Neuron NSynapses="11">
          -6.0096746921677635e+00 6.3586804938697195e-01 1.0935379643440148e+00 5.3302372557677806e+00 -7.8587161220567492e-01 -2.9304162251265975e-01 5.5519796535557808e-01 -5.4611457719297440e-01 5.7772578065726776e+00 -1.2449844311737807e-03 -8.3881174980100024e+00 
        </Neuron>
      </Layer>
      <Layer Index="1" NNeurons="12">
        <Neuron NSynapses="1">
          -5.6258105713451227e+00 
        </Neuron>
        <Neuron NSynapses="1">
          -1.5981452605695043e-01 
        </Neuron>
        <Neuron NSynapses="1">
          8.1426587596725308e-01 
        </Neuron>
        <Neuron NSynapses="1">
          5.8876544588119728e+00 
        </Neuron>
        <Neuron NSynapses="1">
          4.1567066200599301e-01 
        </Neuron>
        <Neuron NSynapses="1">
          8.4893611855155471e-01 
        </Neuron>
        <Neuron NSynapses="1">
          -5.2691492880588884e+00 
        </Neuron>
        <Neuron NSynapses="1">
          -1.4034404628193795e-01 
        </Neuron>
        <Neuron NSynapses="1">
          8.8110619360311357e+00 
        </Neuron>
        <Neuron NSynapses="1">
          1.1299729600249186e+00 
        </Neuron>
        <Neuron NSynapses="1">
          -1.0209269216849302e+01 
        </Neuron>
        <Neuron NSynapses="1">
          -5.4405627815939828e-01 
        </Neuron>
      </Layer>
      <Layer Index="2" NNeurons="1">
        <Neuron NSynapses="0"/>
      </Layer>
    </Layout>
    <InverseHessian NElements="7921" NRows="89" NCols="89">
      <Row Index="0">
        5.8412907520841773e-02 5.5462302587345830e-02 -8.1386625235028050e-03 4.8194077220981221e-02 -5.4756199533453143e-01 1.3139127317421644e+00 -6.2967676685177325e-03 -1.3365259031001493e+01 1.1476773364283981e-02 -1.7691241495886950e-01 -1.0497539894018127e-02 -4.1779776204923555e-02 1.2391903646984737e+00 -2.3238860628842187e-02 -2.3691477714164737e-02 3.8708097245630213e-01 9.8430887657118227e-01 2.0247403545838521e-02 1.6261207101968012e-01 -4.1635327929474927e-02 7.1423804638717781e-03 6.6168484949831768e-02 1.3612479820399659e-01 -1.4856640319636165e+00 -3.2340482450743913e-01 3.1137011664910594e-02 -8.1304837614782599e+00 -2.1361159508872980e+00 1.1875035818738743e-02 -6.1204714112556076e+00 -4.2461344244006449e-01 8.4402853388946464e-01 5.7458104123618114e-01 -1.2378320388763926e-01 1.6046410797137793e+00 3.3184894607008825e-02 1.6446265591563768e-02 4.1548022148978037e-01 2.4141319441551010e+00 -5.1554650206825252e-02 -3.7741598225477446e-01 -1.0648652375254912e-02 1.7113432897818726e-01 -2.8437292477607658e-02 -3.1105397146504038e-03 -5.5560420175021497e-01 -1.1340165171182096e-02 -5.7584568677335876e-03 -2.7437376179839668e-01 -9.0162126218686911e-01 1.9912661098217627e-02 -4.6326860985135312e+00 8.1727172427310084e-03 4.8790795714123397e-02 -5.8785624877590349e-03 -6.9076189643319155e-03 2.8291110683598197e-01 5.2372839720370101e-02 1.4057433028653546e-03 1.4593056177794372e-01 -3.8879227158964813e-01 -1.0083261234316229e-03 5.6348760043005868e+00 3.7815389715939313e-03 5.6450418356234239e-02 -2.2011129230819207e-03 4.4709963406344116e-02 1.1496480918487744e+00 -3.3604406869577902e-01 5.8136366639266239e-02 -8.1550406459991507e+00 1.1741273190775132e+00 -1.0113319638719236e-02 5.7358708041729010e+00 -4.4042095965095601e-01 7.0433783680496176e-01 5.8210349238167047e-01 3.0845570704499697e-01 1.8688493785192786e-02 5.7193329731456959e-02 -1.3339451224360355e-01 2.0045256708257780e-01 3.4879423221071524e+00 4.2790780195403610e-02 -8.7382100292781761e-01 3.5944055143046660e-01 -1.3921093579817323e-01 -9.8286317535566847e-01 -4.2682062213991800e+00 
      </Row>
      <Row Index="1">
        5.5462303123420043e-02 3.1487741806877216e+02 -8.6874316078706126e-01 7.6572155465658662e+00 -1.4194310512391570e+02 4.6107157573085078e+02 -2.3350074533098034e-01 3.9403957882688701e+02 1.1608759819278971e+00 2.9155666460186138e+00 -8.8608972322379298e-01 -6.6330226978117890e-01 -3.1178743727862224e+02 -1.6009723448738633e+00 -6.6139872902667651e+00 5.1745970846898025e+01 2.1818434333860432e+02 -8.9839362296333913e-01 6.0578186352861303e+02 1.8303205500051739e-02 1.9995061869282535e+00 1.3798925413201502e-01 -5.9420293242255937e+00 2.9501191969741603e+02 -8.9277245495861877e+00 1.5028384824390582e+01 2.3024527440042442e+02 -8.4833244776848005e+01 -5.7656138261660974e+00 -8.0220216950443501e+01 2.4195465862930966e+01 -1.4842202470616606e+01 -1.4806933370163851e+01 2.2313503848635747e+00 1.8368802595281039e+02 -2.3692920237552728e-01 1.0202615492650644e+00 8.8208737692092740e+01 5.0672998103752320e+02 -4.9773354534704444e+00 -2.3627509973153064e+02 1.3184041105993767e+00 2.7208302398080582e+00 5.0179873175711220e-01 6.4592416007334202e-02 -1.6896605118477640e+02 -1.1460029381969061e-01 6.7792162365506253e-02 5.8951954788775723e+01 -4.9033417841280738e+01 1.0670353500553864e+01 5.8745615203100351e+02 7.1803713139363023e-01 2.6968651050164603e+00 -4.5069997297621583e-01 1.3337836910187811e-01 1.1080802806613082e+01 -4.7520896429729120e-02 3.6491493394259372e-01 8.6400918359870769e+00 2.3085587833366623e+02 -4.3709091593070855e-02 2.7568836826693769e+02 3.9179154673175548e-01 6.9650467983380551e-02 7.4084493703831314e-02 -4.7798224680040242e+00 1.2856351663684890e+02 -1.1221364813585309e+01 1.6127886023337837e+01 1.3872878874977016e+02 6.6290544144354908e+02 -2.8687033041328203e+00 1.1880913538553887e+02 2.5278490582072333e+01 -9.8706478006443490e+00 -1.4725017767462752e+01 -4.9813830290013570e+00 2.2960300151248951e+01 -3.8094310507688345e-01 -2.6721825684228737e+01 -3.4043236647924630e+01 1.3074092102806153e+03 1.6762819049326794e+01 2.7262489479629107e+02 -2.6477649409248311e+01 4.7720607592977693e-02 1.7890193279916591e+01 -1.0609771027069678e+03 
      </Row>
      <Row Index="2">
        -8.1386625176271821e-03 -8.6874315835309668e-01 7.6166368950752403e+00 -2.7329085766198541e-01 1.4154233202918336e+01 1.2701131900860977e+01 2.3911726223885266e-03 3.2125593778560869e+01 2.4846776267965026e-02 -3.7118356940539856e+00 -8.6505151825084781e-03 9.7122750157242976e-02 1.0061998840610324e+00 -2.8761282430919883e+00 2.1442034878861066e-01 -4.8885884045021442e+00 -1.6840369023840854e+01 -2.5651584398571103e-01 -4.4438406579274670e-03 -1.0440479123228946e-01 1.9684183716916384e+00 1.9335094072142497e-01 -1.0878292550990731e+00 1.1041627689848763e+01 -2.3419844647144540e+01 4.3510106673074561e-02 -1.0252349712125564e+01 -7.5660528785157567e+01 -1.3553206075755098e-01 -1.1443485267178630e+01 -2.4141672341563276e+00 6.8459185934637894e+00 2.6250269176929115e+00 4.8896456664056104e-01 -1.2202038406745787e+01 3.3778112717163387e+00 -2.0027017425923319e-01 -2.0673295580226814e+00 2.0183951091809256e+01 3.3286818467041263e-01 8.9449334236895140e+01 6.7810352473899840e-02 2.7870160914742828e+00 -3.5859198074391654e-02 -2.2082703550847006e-02 1.3189124195940032e+00 -7.0053959937930255e-01 -1.5057168908694343e-02 -3.5165295234435807e+00 1.5515360382950323e+01 2.2086065063679935e-02 -1.1402095744056123e+02 -2.5983827183907897e-02 -3.1730938113625706e-02 1.0785487551067282e-02 1.3907516689493749e-02 1.5725293656094430e+00 -3.0474784150842384e+00 6.8226682983377307e-02 6.9937166490689662e-01 2.2676822792471398e+00 -5.7663459829317837e-03 9.8255579928828070e+00 1.8556412406843824e-02 2.0863767114791487e-01 1.5419726135480949e-01 -6.3274158577480155e-01 1.5624848369816675e+00 -1.6399694391452709e+01 -1.1881069619435750e-01 -1.7883084375907288e+00 -5.4580748571593347e+01 -4.4644479342298315e-02 3.8316610971654967e+01 -2.3086385845470891e+00 5.9901445970124279e+00 2.6688412053971176e+00 -1.5480537967821919e+00 9.8182635065356738e-02 -4.9682197539022095e+00 9.8165764526599564e-01 3.3528666166523693e+00 1.8812939956312348e+01 8.8189035870604116e-02 -2.5155426491085635e+01 2.4525791984934768e+00 -1.6269306082598631e+00 -4.2044301300345825e+00 -4.1449839492587110e+01 
      </Row>
      <Row Index="3">
        4.8194077254533063e-02 7.6572155527595092e+00 -2.7329085747343945e-01 1.4608773154756545e+00 -8.5672943366290077e+00 1.6143619529613795e+00 -1.9222842059450792e-02 -8.2054707023373339e+01 3.8042592193171815e-01 -3.6147321322350789e-01 -6.1419296930626255e-02 1.0299614651508155e-02 -6.9558981208549104e+00 1.2003201456998316e-01 -1.0754370908614621e+00 2.9794830976329956e+00 3.1501630543444072e+00 9.6937441462220220e-02 4.3968957192911660e+00 -3.2416797024195299e-01 -8.8274557634641496e-02 2.5668109023294958e-02 6.4740523844701570e-01 3.4195348416684861e+00 -1.2613925123277836e+00 4.5959949538472369e+00 -1.0903144829106143e+01 -2.4338912547398195e+00 -3.5558582127895993e-01 4.9531119959104188e+00 3.7156752352481099e+00 2.8223513842793924e-01 -8.6309115962500027e-01 -1.6117807106498108e-01 5.2856417074687041e+00 3.1631219518223584e-02 3.1255675974541997e-01 6.0736379529234075e+00 3.7484467227850762e+00 -2.8045428571449277e-01 -5.3913430052004948e+01 2.0656575777534134e-01 5.8255868743088124e-01 -5.0893705766795437e-02 1.4381055205873194e-02 -4.1616246233082261e+00 -6.5976186736274062e-02 8.7895304078158945e-02 4.8432627998716953e+00 -1.1400474112948649e+00 4.0490303032450814e-01 1.4384530981621349e+01 1.5568413031367703e-01 2.2615071008167936e-01 -2.7704839727469212e-02 -3.3848308612251243e-04 3.1123860769731665e-01 -2.5852560356781195e-03 7.3443265866738883e-02 4.8557382263991911e-01 1.4230850557740125e+00 -2.4860162631835242e-03 1.5007592853978458e+01 6.5985852952312754e-02 2.0564415169209838e-01 -1.2590313707794041e-02 5.4119609185665341e-01 -3.8369402760917293e-01 -1.3587495511230852e+00 4.9850108750829882e+00 -1.7926639709379881e+01 1.6588235104396638e+00 -2.1021920821570722e-01 -1.5993386175152118e+00 3.7605675012512814e+00 -1.1591679008872835e-01 -8.8957724643526170e-01 3.3857396542762286e-01 3.8634502338041854e-01 -1.7184390541935546e-06 -5.6445722169880650e+00 -1.4995806078364651e+00 6.4807199991653306e+00 6.0794316597591824e-01 -4.4672854776276054e+00 -5.4984448301445363e+00 -3.6193072876144483e-01 6.9528461640977834e-01 -1.2075178271451547e+01 
      </Row>
      <Row Index="4">
        -5.4756199589674281e-01 -1.4194310497102808e+02 1.4154233202517187e+01 -8.5672943315056660e+00 1.3893675396554761e+03 -3.1975326959220331e+02 -2.8262976253414762e-01 -1.7528658461924642e+03 -2.4039148777931745e+00 -5.8662246294884405e+01 -1.5616039782686195e+00 -7.4824387113616719e-02 1.7024610809161715e+02 -1.0104710409219264e+01 5.3318761273120447e+00 -4.8673696637569498e+02 4.0706069283206125e+02 4.3167361218375042e+00 -8.9176670361284914e+02 2.0151951385023237e+00 1.5739813503579882e+01 1.4070754262550884e+00 -2.1182111938572138e+01 -1.7179169003275268e+02 -3.9444012527631244e+01 -4.8424651055782945e+01 -2.5441632800185857e+02 -1.9676657141154647e+02 1.0372058627854202e+00 -5.3622378590484368e+02 -2.2746682608553261e+01 8.8658393950244616e+01 5.1757690429514911e+00 6.4684087805220116e+00 -1.4341242651609360e+02 1.3309254766116254e+01 -3.9868062695194482e+00 -5.4508716023200338e+02 -7.1788932457808994e+02 -1.6656074547023669e-02 2.3705025223122984e+03 1.4181663469857426e+00 4.3043752497393470e+01 2.2173167310295328e+00 -1.5236977065704838e-01 5.5105643375892399e+01 1.1964562754027757e+00 1.0269578585507284e+00 -5.9125656507667804e+02 -6.1881452956748291e+01 3.1789327765935211e+00 -2.3785688328832566e+02 -3.4214161269786856e+00 -9.3228852634862651e+00 7.0672125879891357e-01 5.4296519549383571e-01 -5.6812152015014317e-01 -9.0423211417297154e+00 -6.0849953043594951e-01 -2.0272462639744038e+01 -1.6639063631087930e+02 -3.4427008000743720e-02 -3.5837065184162020e+02 -2.3988285978178031e-01 2.1542727477611606e+01 2.4993811612854849e-01 -1.5556305012017411e+01 -1.3375177615916525e+02 -2.4599902105752797e+01 -5.2751949398528510e+01 6.7012575891132326e+02 -6.3315535068202371e+02 7.2028294776525410e+00 2.1387386031641722e+02 -2.0627366429196332e+01 6.1766518115047717e+01 5.9520566398082355e+00 -1.5229431770648134e+01 -8.2190935208177329e+00 -1.5669881895333653e+01 3.2344788984106657e+01 2.6088823159711205e+02 -8.0988718707132875e+02 7.3548501850257253e+00 -6.0992922720855108e+02 2.8966166899753659e+01 -4.9759242030446337e+01 -2.0057632056056857e+01 3.6863871255976431e+02 
      </Row>
      <Row Index="5">
        1.3139127475515124e+00 4.6107157716924274e+02 1.2701131809478213e+01 1.6143617260517447e+00 -3.1975327516046900e+02 1.4471546319580779e+04 -7.0240617228572932e-01 9.7075796587467194e+03 2.3320228654293231e+00 1.6415589605483113e+01 5.8155153169587859e-02 7.0080184758270967e+00 -1.9517523961460799e+03 -1.1619399063125986e+01 -6.5443325399066783e+00 2.2686756862167396e+01 3.3203903336361996e+03 -1.7728890871085120e+01 7.5233123173286003e+02 -2.6190072163634559e-01 2.1591031096497325e+01 -3.1190547134780524e+00 2.4073820076500994e+01 -2.0375363522134938e+02 -8.5205360183873495e+01 1.0747947330560367e+01 2.9693872961381317e+02 -1.0369191839692410e+04 2.5903485343527741e+00 -8.7419564291106653e+03 1.4740758915202630e+01 2.5843035031708009e+01 4.1561025424663454e+00 -3.3306447980822867e+01 -7.6422034684157580e+00 -1.2301592124196471e+01 3.0004296297580728e+00 1.7584541769843071e+02 1.2788270647951522e+04 2.6520627682397224e+00 6.5483716708635693e+03 -3.2749041940832404e+00 2.0633644678909501e+01 -5.4084806917056341e+00 8.4124896106317637e-01 -3.6477170556856623e+02 -1.3883456140605421e+00 -5.1562224014861213e-02 2.5007229831699441e+01 -2.9963701516245192e+03 3.9248478286174722e+00 -4.7565655467585257e+03 1.1698180397045796e+00 -1.8027961075168133e+01 -5.0153978241543451e-01 -1.2752505241291496e+00 -8.8466829593461895e+01 8.6321055672983817e+00 -2.1198452494172670e-01 7.2003651558228214e+01 2.9895729012347501e+03 -9.5804677737923560e-02 7.3132952997977554e+02 1.2460400488258307e+00 1.3197831474186387e+01 -3.4205594684006579e-01 5.7891018492501267e-01 -2.1916621799170061e+03 -1.0045426939434611e+02 8.7691085072187231e+00 1.9419000603045652e+02 1.9118291606149738e+04 -9.3003123168315778e+00 9.0071873211860657e+03 1.4932660712837365e+01 6.3054720764731144e+01 -3.9216211282612488e+00 5.4955238434023187e+01 8.6237094287573711e+01 9.4346451915104126e+00 -1.4223747177556948e+01 -8.1789015197368940e+01 4.7241859062539195e+04 2.7134986341491647e+00 3.6320022552288046e+03 -1.5412830085952258e+01 -2.0249094186652549e+01 -7.8985827416553676e+00 -4.3606938807112725e+04 
      </Row>
      <Row Index="6">
        -6.2967676719968280e-03 -2.3350074629950224e-01 2.3911726083572227e-03 -1.9222842074978447e-02 -2.8262976187130723e-01 -7.0240620697875888e-01 3.4212248966486100e-02 6.2642145367426565e+00 -3.4509745406645226e-03 3.7223749359374406e-02 3.1761843620867602e-03 1.2553742145935468e-02 6.6474741587616737e-01 1.6672375354585597e-02 1.5557013291003716e-02 1.6585709909161012e-01 -2.9809646464000572e-01 -3.0113703972466811e-02 1.2735684452968428e+01 3.5580404525516816e-03 -1.9134825031451586e-02 -5.9102300177531868e-03 -3.4598471763936003e-02 -8.3636166654135069e-01 6.5455096798843065e-02 -7.5898202417011090e-02 1.1875472978509802e+00 -2.4372103535732066e+00 1.6692072394794460e-01 1.6775787913463773e+00 -8.0590589006843613e-03 -2.8317985590771061e-01 -3.8051872298592866e-02 1.9359228096812647e-02 -5.9919755893333004e-01 -1.6644680186896459e-03 -5.2641924594480933e-03 1.4367393180317145e-01 3.3768659865713424e-01 1.2934521410885677e-01 7.5241592565174358e+00 2.3827638376070406e-03 -3.3943027559406980e-02 4.7304688903644677e-03 -1.7968706088598138e-03 9.5247390257413411e-01 6.7967844330506233e-03 4.1034321994161136e-03 2.4236770268944302e-01 -2.0397761412925952e+00 -1.8293272218493425e-01 1.1241679080134460e+01 -4.8595842713254917e-03 -2.5382792297746481e-03 7.1097603753277104e-04 1.6659620131655793e-03 -1.6668287888489529e-02 -1.0351311167268775e-02 -1.0941757919762374e-03 -1.6656907552101766e-02 -2.1916562669207229e-01 2.2696143401322588e-03 -4.6880635164598061e+00 -1.2473262698210917e-03 -1.7347046820729517e-02 3.6385201459606656e-04 -1.1113677923971103e-02 2.6763580836269840e-03 8.5278051914133485e-02 -7.8993845143832522e-02 9.6807670164475945e-01 -3.3299386659761652e+00 1.6320420457090748e-01 -2.2504471161410038e+00 -8.8064708562061219e-03 -2.6875406652883949e-01 -3.6645629910564317e-02 -6.3874222074265824e-02 2.4765355971185524e-02 -1.4314823459919074e-02 7.7936186783117020e-02 -7.8183980923456076e-02 -1.7341852640668093e-01 -4.2588204129218721e-01 1.9503050379181475e+00 5.1441334880931229e-02 3.5982036620405014e-02 5.2083672618435370e-02 2.5041822786079901e+00 
      </Row>
      <Row Index="7">
        -1.3365259030559173e+01 3.9403956017985854e+02 3.2125593678144526e+01 -8.2054707437502657e+01 -1.7528658383547224e+03 9.7075790000470352e+03 6.2642145534164175e+00 3.7082848018866777e+05 -2.1089342580981782e+01 6.6003624874590429e+01 -2.4153222711032392e+00 -1.6100358050251025e+01 -2.5144578747509827e+03 6.7509358698168583e+01 8.9527877240949920e+01 -2.8523187517952675e+02 3.5950571460066822e+03 -2.3094916850420589e+01 -5.6435023888763681e+03 3.7248508893260649e+01 -4.1578423877705376e+01 -2.4476919852726613e+01 -1.1891168277071185e+02 1.3398921659349958e+02 5.6527758588576773e+02 -3.0833871900962538e+02 8.0177633819526491e+03 6.0452006097122794e+03 -2.8820296929673070e+01 -3.2470869279169594e+04 1.5526127251520856e+02 -1.1633025755601293e+03 -5.0613710729020374e+02 -5.2403609312395048e+01 -2.4371769300321012e+02 -2.6343395379612900e+01 -1.2349677874268451e+01 5.3721810420278985e+02 1.0135271303624284e+04 9.8433518572095835e+00 1.8703881307181466e+05 -2.3059790646766853e+01 -7.2494633408975204e+01 1.1644575611411984e+01 9.1579934028802565e+00 -6.1869314003977627e+02 1.1281843883135167e+01 -3.9080611735303288e+00 3.3921691416166232e+02 -1.5693023319855332e+04 1.0765210984324884e+00 -7.9189744849574490e+03 -1.0315612471581508e+01 -6.7253545627952420e+01 4.5279303447959034e+00 -2.4228473814393716e+00 -1.2224370556468781e+01 1.9991721561927079e+01 -8.1459054264905717e-01 3.0468324902831336e+02 5.2205001905905865e+03 2.0119153579368687e-01 -1.0200542338401079e+04 -6.0687907422238014e+00 3.0581827761110617e+01 1.0790388283443075e+00 -1.9177925303475610e+02 -3.1965545097069598e+03 6.3186908004929478e+02 -3.0179885816128251e+02 7.6857867919772361e+03 1.5580076155141565e+04 -3.5401295045303499e+01 5.2923343102872372e+04 1.4572413315585101e+02 -1.1163439555873574e+03 -5.1272161216570669e+02 1.2378126733070525e+02 1.4250030798804542e+02 3.6752381336388609e+01 2.9050136645055773e+02 -1.0485076516765080e+03 3.1312022758497787e+04 3.0840510168741275e-01 5.6272362368437047e+04 2.9632736781933218e+01 -9.1281488299734548e+01 7.9666646165097700e+02 2.4200654604150761e+04 
      </Row>
      <Row Index="8">
        1.1476773352772973e-02 1.1608759812962566e+00 2.4846776184496058e-02 3.8042592172761852e-01 -2.4039148771767480e+00 2.3320228382399364e+00 -3.4509745178474133e-03 -2.1089342360326555e+01 5.6097735955041583e-01 -4.6593087706518155e-01 -9.8271006907576869e-02 -4.2058509434356822e-02 -1.8307311469208132e+00 -7.0639220549917753e-03 -2.6227701535426851e-01 1.6954164887150158e+00 -7.6375392922162604e+00 3.6813908359320427e-02 -1.4988060383688548e+00 -5.4618449334762187e-01 5.0384678040381159e-02 2.4942001138937711e-01 -1.4673480162909125e-01 -1.2431732874429141e+01 -1.5547432760790836e+00 2.0029306941882483e+00 1.0442273330431519e+01 -2.8065897187555720e+01 -4.8316030191393460e-02 7.4126350618445258e+00 -1.4755893213976097e+00 8.5252515368890081e-01 1.3330158256471516e+00 1.7764482352637806e-01 1.8599173416268560e+00 -2.3701623726420387e-02 6.5967626993483630e-02 1.1480226447875683e+00 1.1311403307876297e+01 -5.7245111435387630e-02 -7.1982464408605624e+00 6.5248080858739094e-02 3.9406498848987842e-01 1.1671713743911830e-01 -8.8360927708952333e-03 -6.7173506953120554e-01 1.1775557158803573e-02 5.2089270367303347e-02 9.5369384485832731e-01 3.6112729807027790e+00 -1.2285086961297858e-02 5.5171153753973670e+00 1.1637540999696496e-02 -1.6254874280203446e-02 8.7150712852606168e-03 1.2298113164957887e-02 5.8585318797374164e-02 -3.1389401691549038e-02 2.5375567182825520e-02 2.4863655935651430e-01 -1.0024799647245046e+00 -3.4896064885234224e-04 3.8073150508280378e+00 1.8365421407157578e-02 2.5032335299148656e-01 9.4044391144250152e-03 -1.5506532084675763e-02 -1.2436271553929760e+01 -1.5617460742960199e+00 2.0917239434347930e+00 9.2892646217476660e+00 -1.2314129187628915e+01 -8.4325440333888710e-02 4.6740854369709268e+00 -1.4151887731530683e+00 4.6383523714293950e-01 1.5389218555390194e+00 -3.9076080195408613e-01 7.1105043779674845e-02 -5.8959380915734438e-02 -1.8873845865692436e+00 -1.6831584388633236e-01 1.6345642038447654e+01 3.7568535117078472e-03 -3.2663370612169578e+00 1.1630396210100469e+00 -4.3281417250243936e-01 -2.1443009835527587e+00 -1.9655138618647165e+01 
      </Row>
      <Row Index="9">
        -1.7691241495696275e-01 2.9155666239840166e+00 -3.7118356942562691e+00 -3.6147321352196765e-01 -5.8662246287318638e+01 1.6415588801748527e+01 3.7223749360312530e-02 6.6003624778124504e+01 -4.6593087741906736e-01 3.2748562448228427e+01 -1.2041813313751265e-01 5.9304532730716508e-01 -4.2226458995822668e+01 4.2617375280938656e+00 4.2427817246038330e-01 3.0442240551284357e+01 4.5633046755651833e+01 6.5246692879433588e-01 -9.4939682426504746e+00 4.3604489989632400e-01 -1.6289891119939288e+01 -1.5068452667125318e-01 -2.1668446363219291e+00 7.6083769948633275e+00 -8.2785875604155894e+00 -2.9613858709255449e+00 5.0190178481892019e+01 1.8503523467415062e+02 3.9636791650766207e-01 3.3381587930733076e+01 8.9642462641650811e-01 1.6583454882760242e+00 -3.0811653202853555e+00 2.8459489052143105e+00 7.5872430429277159e+01 -1.9647506917183284e+00 -1.8971224733416342e-01 -1.2658333854348202e+01 1.9547085045069089e+01 -4.7340888357158062e-01 -1.2112502282966823e+02 -9.3607907969300852e-02 -2.2272972695001645e+00 4.0249066273349843e-01 -1.1638653764166379e-01 -2.6261424464467673e+00 -4.9724736024320215e-01 -4.6650287491364101e-02 -1.8703174551080906e+01 -1.0534926459618146e+02 -1.5077619059224145e-01 1.2004984594465495e+02 -1.0116988085294931e-01 -3.6185748885665947e+00 2.7913455307043547e-02 1.3351942524282512e-01 -1.9923979930358933e+00 -2.3070736191339658e+00 -8.7137953343396468e-02 7.0389891634322135e+00 -6.1142498765740072e-02 2.3260748667783770e-02 -1.0010462569410447e+02 -8.4718306104213284e-02 -6.6823574076897785e-01 8.1531585677030102e-02 7.4979201042026322e-01 3.7453217171009626e+01 -8.5593874201276545e+00 -3.0494501441400734e+00 3.4638899772042180e+01 1.5223985428185802e+02 4.9893246084398324e-01 -7.2227265521767549e+01 6.4744637394986559e-01 1.8710125269448664e+01 -2.7557971542615549e+00 -6.1993492807730846e+00 3.9679709133956265e-01 -2.2800451941849094e+00 2.1955042256767023e+00 8.7706230380384209e-01 2.5320411878544164e+01 -3.6638248858615885e-01 7.0480539223617825e+01 7.8644516176400070e-01 -1.8130483753772936e-01 5.2779059416854404e+00 4.6074632464863285e+01 
      </Row>
      <Row Index="10">
        -1.0497539893795760e-02 -8.8608972398559160e-01 -8.6505151298923444e-03 -6.1419296910733168e-02 -1.5616039768542251e+00 5.8155134895287119e-02 3.1761843616759213e-03 -2.4153223675093614e+00 -9.8271006889939366e-02 -1.2041813327466505e-01 1.6603554951886298e-01 8.8382647310072976e-02 3.9979960165384676e+00 2.4584578405837727e-02 4.1124031439467162e-02 -8.8959251094007574e-01 3.8424306978948941e+00 -7.6612896173410272e-02 1.3202268940481304e+01 9.3696940546816598e-02 1.2354363531602425e-01 -1.1408753067594844e-01 4.5762409143358973e-01 2.1956705138507612e+01 2.1362881652827532e+00 2.0003887162235709e-01 -1.5354543451720538e+01 -1.9114111808488676e+00 -3.8433490748726332e-02 1.1576600879096759e+01 5.4226429889413130e-01 -7.3480632480343955e+00 6.2438441385722288e-01 -7.6940611862524586e-02 -5.1024903620193438e+00 -1.4473028380623515e-01 1.2987391863836097e-02 9.2135399686303177e-01 -3.7370848702339705e+00 5.7927868636272278e-02 -3.5384102920447788e+01 2.0258308242191637e-02 -5.1484539795286599e-01 -1.0535539745252534e-01 2.6755653111255363e-04 1.3139064532249254e+00 4.6446061166837971e-03 -1.1108054183745318e-02 3.1700247509536084e-01 -1.6269673404885907e+00 9.5663239198407780e-04 7.0407748974488413e+00 1.4157051235478989e-02 -2.5004896169217972e-02 -2.7312967841381128e-02 -2.4303848591225967e-03 -2.8348977120736785e-01 1.0937098562361093e-01 9.0059297980868425e-04 -2.0312104719553170e-01 1.3732592622536477e+00 8.3736935330238141e-04 -3.2586704987588746e+00 -2.3171123246512500e-03 -3.0130766484791671e-01 -1.1758522604193404e-02 4.5791216894741082e-01 2.1260756481642936e+01 1.9621472648720659e+00 1.9184492298323924e-01 -1.6580769185456337e+01 -4.4663154812210450e+00 -5.2066465327310484e-02 -2.2532962282311928e+00 5.3767901714042010e-01 -7.3654057628589689e+00 4.9624622460505519e-01 8.1088304845090886e-02 -1.6362402547265575e-01 1.7137441327983188e-01 2.2355905948195148e-01 -3.7736795118185718e-01 -3.3593166842399991e-02 -7.0379079826032864e-04 3.2716552240393502e+00 -8.1613632238936729e-01 6.0699637779933657e-01 -1.1003947506125438e+00 1.8855168086553471e+00 
      </Row>
      <Row Index="11">
        -4.1779776192338858e-02 -6.6330226892235045e-01 9.7122750296006810e-02 1.0299614559946990e-02 -7.4824386993495778e-02 7.0080185277238343e+00 1.2553742156107411e-02 -1.6100358015290112e+01 -4.2058509383035680e-02 5.9304532736021531e-01 8.8382647304684619e-02 1.5722686242556059e+00 3.6759817412125653e+00 3.7681003908243865e-01 4.3955673032159401e-02 -1.3579458878036612e+00 -3.1575974443509125e-01 -8.3028012090573700e-02 2.1346489886997560e+01 -1.3619065681498621e-01 -9.6402678512004014e-02 -2.1352277684393167e-01 -1.1013601700289311e-03 1.0727901791212005e+01 1.9332243872094419e+00 6.5013339331488240e-01 2.5805678616123110e+01 1.1432451331128163e+01 -3.0034317390687085e-02 -1.1027088024846307e+01 1.3380547247751723e-01 -3.2699250688158799e+00 4.2204308639001914e-01 7.9405670938959061e-01 -2.8210587648982610e+00 -7.8063045419576094e-01 -3.8993693000582877e-02 1.8792761754938034e+00 8.5202336972638939e+00 1.4053687907303827e-01 1.6148835874531429e+01 1.4419447886415190e-01 -8.4477812586544121e-01 9.2967333888036366e-02 -7.0149321283393962e-02 1.6701721994862462e+00 -6.0820103867397446e-02 -9.1334919829419436e-03 1.4725908688467229e+00 -6.7857730002742755e+00 -8.1756563464254028e-02 4.5203254944304192e+01 3.5139729051981046e-02 -3.9201841877836330e-01 -8.8764513278583954e-03 1.0073166184413748e-01 -5.1065266136623633e-01 -2.1899686869273266e-01 8.4703684969054116e-03 2.3346270327585644e-01 1.3977548332909540e+00 1.6205414984843403e-03 7.4998433845757972e-01 -1.3895512131564640e-02 -4.4230880699688413e-01 -1.0236236833657542e-03 1.9282952390984798e+00 1.2768915787048373e+01 1.6838284772141563e+00 6.5711611080324028e-01 2.3460550567316297e+01 1.3343041375136067e+01 -2.6641173757338148e-02 -4.8467214097036049e-01 6.0297612881305696e-02 -2.7515389269629096e+00 3.8985265931714896e-01 -4.3526029107120916e+00 -1.2026877595861664e-01 -1.7440830984501648e-01 -6.8022163951302408e-02 -2.8965144779698254e-01 1.0801722733803340e+01 -1.2832181500933615e-01 6.2640363366145113e+00 -6.5110412461973532e-01 1.0294143308310368e+00 -3.4968267326839020e-01 -7.9190854030441331e+00 
      </Row>
      <Row Index="12">
        1.2391903633965740e+00 -3.1178743720294483e+02 1.0061998949002273e+00 -6.9558981023501474e+00 1.7024610852234568e+02 -1.9517523888163269e+03 6.6474741301138351e-01 -2.5144579301923513e+03 -1.8307311465976124e+00 -4.2226459062473481e+01 3.9979960135708383e+00 3.6759817444870171e+00 2.7846769929351899e+03 -5.9581352180536484e-01 8.6219329929008364e+00 -1.0073961073295544e+02 -6.3433131270276654e+01 -3.2086260359391616e+01 8.5481547306427728e+02 -4.6097652660653790e+00 1.8521406403677883e+01 -2.4797985408556076e+00 1.4015023546617519e+01 8.8768915936127087e+01 4.3927440748440659e+01 5.8940977567603881e-01 1.5078186583986104e+02 4.9486647092138446e+02 7.5137589304677626e+00 1.2409560273541138e+02 -3.7888202478031303e+01 -4.0727218686923251e+01 4.8326629409509010e+01 6.2201499513130551e+00 -1.9213411515635519e+03 7.6481331431942401e-01 -2.6155244612557773e+00 -3.6317761888116365e+01 -2.3296464244358476e+03 3.5238945552624678e+01 -2.0847947702696365e+02 3.0571495136325257e+00 3.4838009158521857e+00 9.2412859454928098e-01 -8.2575539625173899e-01 2.0153930892008148e+02 7.9695582318965563e-02 -5.2870218606092489e-01 -2.8434157442250580e+01 8.7134495274350047e+02 -9.3566638605722403e+00 -8.1384906283654664e+02 -2.1737806223023753e-01 1.7285720192624652e+01 -3.0393163915555860e-01 4.2775316350944870e-01 4.7693866017833217e+00 3.6584074368295916e+00 -2.7129714668541283e-01 -4.1499850120046176e+01 -5.6570837541628384e+02 7.1017754073829931e-02 -1.9017704068496823e+02 -2.3267678940196612e-01 -1.9910168428905308e+00 -1.9632517215178424e-01 2.4238663063122647e+01 9.9380024800680314e+02 4.4001666672621482e+01 2.1849333538539906e-01 1.3348301708600357e+02 -1.3393103847930543e+03 3.6346170743978234e+00 -2.7838937643170357e+02 -4.0147336302498012e+01 -6.7100048505397382e+01 4.9384707666765941e+01 -1.6808274644821349e+01 -3.2585614183782248e+01 3.7824381553317474e+00 2.7639754361184071e+01 5.0824628534905415e+01 -3.8764720821835431e+03 -1.6739194614358581e+01 -8.7539769816575733e+02 3.4292887055054585e+01 1.1137281057208076e+01 -5.9772517408576569e+01 3.0188750377451411e+03 
      </Row>
      <Row Index="13">
        -2.3238860637111003e-02 -1.6009723570294128e+00 -2.8761282430320652e+00 1.2003201465733593e-01 -1.0104710399885235e+01 -1.1619399443727161e+01 1.6672375331910932e-02 6.7509358072653413e+01 -7.0639221770629756e-03 4.2617375272895295e+00 2.4584578467811202e-02 3.7681003917358852e-01 -5.9581348119639266e-01 9.4195812954488449e+00 -1.4569812277188593e-01 6.1375249224920214e-02 2.5849435149872750e+01 2.4685082074230869e-01 -4.4786235576889794e+01 3.3127443622379626e-02 -4.6309359079221117e+00 -9.7548882856110491e-02 9.4923843098850547e-01 -1.1921023802832844e+01 9.8989127959960115e+00 -1.2322669607052804e-01 -5.1614898808570523e+01 4.2013384687716098e+01 1.4539467306763199e-01 2.4901250285805872e+01 1.4269879265747201e+00 -7.9324355876161832e+00 -5.6742634950416648e-01 -2.3149159258185442e-01 1.4890159191481223e+01 -2.5614503151270220e+00 1.2450501050498197e-01 4.3100693166730553e+00 -8.4583056093281002e+00 -2.6619616416586345e-01 1.4622827666811645e+01 -1.2510002100761602e-01 -4.3029598305187253e+00 -1.9873595859875173e-01 -1.8637509614483766e-03 4.4918660374311292e-01 7.7487654917394400e-02 1.3672389288056461e-02 2.2601136370211634e+00 -4.6772590354885324e+01 -8.8930805738947960e-02 1.4066981375742967e+02 1.0331348074622625e-02 -7.9177737689704175e-01 3.0222769327756453e-03 3.5058599058562789e-04 -1.8599239862986592e+00 -8.3971673339743813e-01 -3.3440683535328475e-03 -2.0290852755570086e+00 -1.4218846906666286e+01 1.0501503254886121e-02 -1.2342463610344566e+01 -1.3856759060791066e-01 -9.8419757189265056e-01 -2.8609809778569625e-02 1.0158790864523992e+00 8.6494404144263726e-01 1.4713056339830262e+01 -5.9727245691015285e-02 -5.6702440990056516e+01 1.5875421275262966e+01 6.7606397984669386e-02 -5.6966871045529842e+01 1.1969757759647197e+00 -8.4407330211856308e+00 -8.2463321184439753e-01 2.8214677901304830e-03 -2.9420237612460931e-01 -6.4839654644295619e-01 -3.9137808264427670e-01 -3.9918461788930317e+00 -2.8943448461901074e+01 -1.5643844577969235e-01 3.8746931202870435e+01 -1.8384617861280939e+00 2.4845059878628710e+00 3.5286682010840964e-01 6.5553861761203450e+01 
      </Row>
      <Row Index="14">
        -2.3691477748399414e-02 -6.6139872976349068e+00 2.1442034863302317e-01 -1.0754370908624085e+00 5.3318761340497245e+00 -6.5443327918037539e+00 1.5557013273364430e-02 8.9527876745327376e+01 -2.6227701554841693e-01 4.2427817204516405e-01 4.1124031454774133e-02 4.3955672965058291e-02 8.6219330154920648e+00 -1.4569812273488947e-01 1.0456512729322576e+00 -2.4084422645742625e+00 -1.3943145940315862e+00 -6.9885270324570078e-02 -1.1313581635001924e+01 4.6110358843585622e-02 -1.6830516089679193e-01 8.8598563916666637e-03 -4.9276927433362894e-01 -3.0909950442581717e+00 3.2703805059172658e-01 -3.3127162582014300e+00 1.0497157078354817e+01 1.2983242212904997e+01 2.6979511757966274e-01 -1.5676684528900751e+00 -3.0652688264371859e+00 1.3447047813841075e+00 8.2534363724610438e-01 1.1349281187418649e-01 -6.5684234748184949e+00 1.4423770720728180e-01 -3.4414647435366796e-01 -2.2598941771703958e+00 -6.3212867998492932e+00 1.7969576455420933e-01 6.4789043189201038e+01 -8.3071381901759819e-02 -9.7888377944204463e-02 4.6678801252213672e-02 -1.1455640719849806e-02 3.4931643174131044e+00 2.0670058312108330e-02 -7.1355971049397948e-02 -1.9487888393261414e+00 -4.2174384205718525e+00 -2.9785502284441301e-01 -1.0020836833546269e+01 -1.0750961789430891e-01 -1.6113446337862375e-01 1.9750909031966277e-02 7.9556634911535223e-04 -1.7439630473359102e-01 -4.1605636884007827e-02 -5.6968323457572190e-02 8.2976075272654271e-02 -2.8808911781899411e+00 1.3043240346889522e-03 -1.4129848908982240e+01 -4.5041752603453208e-02 2.0734512758295409e-02 1.1333227502876967e-02 -3.6283139581621637e-01 5.7036886598500125e-01 5.0573426793581755e-01 -3.4736305148459392e+00 1.4349852495855473e+01 1.5608887991428873e+00 1.3462572946320486e-01 -2.3061232342734002e+00 -3.1984288508475114e+00 1.5808393585013252e+00 8.8420126600377769e-01 -3.3057741455719158e-01 -3.6778538223458052e-01 -7.7952585396646790e-02 4.1581475830253325e+00 9.1853662932097346e-01 -1.6162053578846987e+01 -4.2321351203690416e-01 6.2813946800901679e+00 4.5087992774203141e+00 -8.8257620636849471e-02 -6.5378038484283263e-01 2.3058158469993966e+01 
      </Row>
      <Row Index="15">
        3.8708097244345652e-01 5.1745970794380668e+01 -4.8885884044533485e+00 2.9794830981730378e+00 -4.8673696634389529e+02 2.2686755206581438e+01 1.6585709902255588e-01 -2.8523187727015465e+02 1.6954164884458884e+00 3.0442240548203266e+01 -8.8959251063361477e-01 -1.3579458874741346e+00 -1.0073961056184650e+02 6.1375249813289567e-02 -2.4084422647277437e+00 2.8737976231929798e+02 -1.8067652460696581e+02 -1.2193487336308939e-01 -4.7258405015549343e+01 -1.8027422057604348e-01 -4.0775014828415372e+00 1.0890741786063924e+00 1.1117872440196681e+00 -7.7793267099028029e+01 -1.2952632326525659e+01 1.7169727725931249e+01 4.4734285532058198e+02 2.9552795527714625e+02 3.5554226648039222e-01 -4.0644591967946326e+01 2.2496979500632976e+00 4.0074342584323290e+01 -7.8951132453763213e+00 1.9397407907363426e-01 9.2739407130261313e+01 -3.0671465230042587e+00 1.3639304263194210e+00 1.3486601060614959e+02 2.7936131087174954e+02 -9.0841857453858244e-01 3.5916980014648288e+01 -2.5002162444837855e-01 -2.5411593349187378e+01 9.1643103587772423e-01 -1.6288110540760445e-01 -3.0109596247623724e+01 -6.4963242586586745e-01 -1.7993267815998037e-01 2.0712173336984370e+02 -1.2231644485227298e+02 -2.0789711564825097e+00 3.1305778124283461e+02 9.8059397104402113e-01 5.0036130541110895e+00 5.8096921608225736e-02 -1.3154844455975345e-01 5.1447561149611829e+00 2.5731404986932991e+00 2.0178896980584682e-01 -5.5269252150465036e+00 2.5392611114454951e+01 2.2305246790153221e-02 -3.3316609459463507e+01 1.6200838331714201e-01 -1.4352340038783723e+01 1.2899399406202164e-01 2.0683246941249633e-01 -9.5476763735574977e+01 -1.9746594253485540e+01 1.8255020755522533e+01 1.6225077005473872e+02 1.3167038075927212e+02 -2.0992910698441127e+00 2.1793991008307785e+01 3.2147238874904263e+00 5.3192031406054383e+01 -5.3864881899027139e+00 2.4417280529920449e-01 4.0640027272334125e+00 4.3079700885926870e+00 -1.1746221624751541e+01 -8.8102708570241305e+01 -1.5049339713769623e+02 -3.9603700108470772e+00 9.4846165013329198e+01 -4.6633339066923174e+00 3.2045315183903043e+01 2.1199084532761297e+01 2.1796609266731764e+02 
      </Row>
      <Row Index="16">
        9.8430888241364300e-01 2.1818434254243886e+02 -1.6840369065025243e+01 3.1501629402735034e+00 4.0706069134478128e+02 3.3203902863394469e+03 -2.9809645034313981e-01 3.5950573920309544e+03 -7.6375392973658052e+00 4.5633047061128963e+01 3.8424307119332024e+00 -3.1575976623938717e-01 -6.3433129999990015e+01 2.5849435335970139e+01 -1.3943144645984922e+00 -1.8067652385161819e+02 8.0552322362782688e+03 1.0167687022684518e+01 1.2886179208317804e+04 7.7126366324488966e+00 -2.6095157959510086e+01 -2.5451072245164208e+00 3.0623639981564097e+01 3.6050676868989285e+02 1.2475868094451135e+02 -1.3730063045189489e+01 -1.1248295883506835e+03 4.9399012356473759e+03 2.4183658858954005e-01 -4.3027952117498571e+03 4.8368653229480678e+01 -4.6271809325480467e+02 6.8694316198961163e+00 -1.1852039991013235e+01 -5.1674656784985154e+02 -3.3741361242504084e+01 1.5479080428845431e+00 -1.4910902835361617e+02 -3.0139449696599138e+02 -1.3874258481489630e+01 -9.6204724864363670e+03 -4.2567950716271525e+00 -3.4174515100538592e+01 -9.0546993453150009e+00 6.8283262760738617e-01 -1.7918029975504211e+02 -9.5715038949585285e-01 -1.3010224117878677e-01 -2.7361397133572609e+02 -4.9909829811565578e+03 1.0122144239579939e+01 6.6112298988699913e+03 5.8816071118525104e-01 -1.6082777593535933e+01 -1.1373376643598625e+00 -3.1451053534363638e-01 -2.9390148404869251e+01 2.8383353981651407e+00 -1.1710602229504730e-01 1.0211828588857315e+01 1.3789001337896289e+03 4.2372277614385334e-02 -5.5128079088628292e+03 -4.0343941251253423e-01 -7.5723290373716736e+00 -1.0207961260370713e+00 1.9993461913246268e+01 -2.3675226497837096e+02 1.0378586791300609e+02 -1.1056774849661053e+01 -8.9355644449601994e+02 1.6082278702732559e+04 4.4949456216298325e+00 3.2262336189746857e+03 4.4093055827047557e+01 -4.4344641643284973e+02 -3.1886298165371505e+00 2.7521559944859355e+01 3.2759566289010642e+01 1.1630351911169065e+01 -7.7614134989253216e+00 1.2424646750083193e+02 2.0104124004492940e+04 1.7032411371434407e+01 5.4164079846965469e+03 -5.8251611401622831e+01 2.8181855023087476e+01 -3.8270764314165632e+01 -1.4578410330801051e+04 
      </Row>
      <Row Index="17">
        2.0247403530195385e-02 -8.9839362786453714e-01 -2.5651584419073759e-01 9.6937441695664983e-02 4.3167361250909151e+00 -1.7728891043036128e+01 -3.0113703989103624e-02 -2.3094917115755379e+01 3.6813908291373917e-02 6.5246692838784170e-01 -7.6612896126323049e-02 -8.3028012026427289e-02 -3.2086260342109370e+01 2.4685082086740207e-01 -6.9885270495153445e-02 -1.2193487347436260e-01 1.0167686943414559e+01 3.3504898051883005e+00 5.6927903848280437e+00 6.4291862018362261e-02 -3.0961910264759729e-01 1.0465286871049495e-01 -1.3929158189124174e-01 -3.9792674517918982e+00 -1.5449558853074055e+00 -4.0149108935086686e-01 1.4563591390654381e+01 2.8950046644520285e+01 1.2783143023802790e-01 -1.1962637919386907e+00 -6.6623081486758134e-03 1.9137793416225213e+00 -1.7000242092165430e-01 1.2496243304195266e-01 3.5317249236781862e+01 1.2580295107963824e-02 2.2983235763298415e-02 -4.7074993289427454e+00 -2.7787980135610727e+01 -3.2470798181051865e+00 -7.1481951947207563e+01 -5.1084205254007087e-02 -5.6174071542670312e-01 2.8962095213883855e-02 3.6977718376132174e-03 -1.1035366358562357e+00 -3.9007699458475376e-02 1.7994221056789494e-02 -5.0416350795770768e+00 1.1631844387084129e+00 3.4675351794009046e-03 -1.4417697875644080e+01 -3.5654630434517713e-02 -2.0873409185415664e-01 2.0545772643854650e-03 -1.4643096393624488e-03 3.0591427690137607e-01 -1.0214972969988170e-01 -5.5284937080219976e-03 -3.7033344262272294e-01 -3.5553937891013447e+00 -2.8544553518549676e-03 8.7317612635670230e+00 -2.8003552835032535e-03 -1.7672917943426114e-01 3.4012243355637795e-03 -8.4816210183387461e-02 -2.1066800458887620e+00 -1.4576257531071963e+00 -3.6723458061535930e-01 2.0043286890065957e+01 6.9685899660828454e+00 1.7039850312311283e-01 2.5452332073473372e+00 6.8228152186847843e-02 2.1939972914274417e+00 -9.7754699591439898e-02 -7.7729843920106304e-02 -1.2828938992868227e-01 -5.8827817500044177e-02 -3.1227430459566108e-01 1.1350538544335900e+00 -3.6564577461705881e+01 2.8501574141107833e-01 -1.2573350470319689e-01 -1.9482144746661634e-01 2.0775080281211522e-01 3.3322842439434730e-02 3.7276950095658648e+01 
      </Row>
      <Row Index="18">
        1.6261206867238798e-01 6.0578184739994333e+02 -4.4439040192401080e-03 4.3968953775518003e+00 -8.9176669564073279e+02 7.5233067337796092e+02 1.2735684465440544e+01 -5.6435024884939194e+03 -1.4988062164103102e+00 -9.4939682849442377e+00 1.3202269017724202e+01 2.1346489858935215e+01 8.5481552141670022e+02 -4.4786235117417093e+01 -1.1313581230592931e+01 -4.7258403611044372e+01 1.2886178992516259e+04 5.6927905657606708e+00 2.5194531169707276e+05 -1.5232296731633248e+00 3.1530211313673064e+01 -1.1523621001774558e+01 2.7737301193734368e+01 -4.6559257905477034e+02 4.9545102828521635e+02 7.6339390660561108e+01 4.9057549286007488e+03 -6.9075311258962756e+02 -1.2044990023995538e+01 -7.4298237713809562e+04 -1.9006783868893365e+01 -1.4615687014805569e+03 1.4012226709486814e+02 -8.2977643877094476e+00 -2.0075330364144547e+03 -7.1798227486947184e+00 6.4289924120168100e+00 3.0214493114804418e+02 -8.9682455334477127e+03 -6.5661050989499074e+01 -1.5463632058101892e+05 3.9777244908374305e+00 -3.6178654079679006e+01 -4.8164305642631886e+00 2.0710962254144727e-01 1.9995025707850241e+03 2.5897294657147469e+00 -1.8181850062924769e+00 -2.3227330332988640e+02 -8.7266951356828213e+02 9.1979633052267445e+01 3.5260055103838444e+04 2.8687292621927951e+00 -3.7022598352315867e+01 -3.2981770651186468e+00 3.4159473265394347e-01 5.0750068778288551e+00 8.6472415777023777e+00 6.0986205250401326e-01 1.0930372677114792e+02 8.2440576145984232e+02 1.3793049880503006e-02 -3.2510817758113146e+04 -6.7567653359545909e-01 -5.5825125447299797e+00 -1.6807391769005147e+00 4.2978824318233578e+01 4.6090229201463478e+02 4.3639541151083660e+02 7.4074064058049913e+01 4.9425203779081130e+03 1.2756531898677609e+04 1.8183171488902907e+01 8.2115606951117516e+04 -1.8006775243886135e+01 -1.4297561862446109e+03 1.2863350752422801e+02 1.6057748076953395e+01 5.7996740773545667e+01 1.6707654739136668e+01 -1.1255654047363350e+01 -3.8811449184458712e+02 2.1926703672596683e+04 1.3542567472975665e+02 4.7143464292684330e+04 -4.6564551996050994e+01 -3.7881970643015848e+00 -1.9272473223024608e+02 2.4616790681236416e+04 
      </Row>
      <Row Index="19">
        -4.1635327904090857e-02 1.8303210108753909e-02 -1.0440479113958107e-01 -3.2416796999478970e-01 2.0151951330445392e+00 -2.6190058058091381e-01 3.5580404357453688e-03 3.7248508978518657e+01 -5.4618449329752383e-01 4.3604489984489159e-01 9.3696940569592393e-02 -1.3619065673888098e-01 -4.6097652778488394e+00 3.3127443574505810e-02 4.6110358616880232e-02 -1.8027422042885077e-01 7.7126366920544029e+00 6.4291861932010669e-02 -1.5232296014728490e+00 8.4445238019161439e-01 1.4078481908166099e-01 -2.5532812468644700e-01 1.9623549755214209e-01 1.4635752692252144e+01 2.3079202324319743e+00 -1.5756017283202872e+00 -6.4076977408188940e+00 1.6918946223290135e+01 4.7124911935052083e-02 -1.6172083729635460e+00 2.8200039155690897e+00 -4.7675427519927560e-01 -2.5359314803733302e+00 -1.3468723731355264e-01 5.5952369301888432e+00 4.5658819515970520e-02 2.5553255787406914e-02 -2.7407060184150733e+00 -1.0331893164833218e+01 3.3384713071578365e-03 -3.1122969572170405e+00 -1.2890720017372903e-01 -8.5040662762664820e-01 -1.4545742282042862e-01 1.2431656488955081e-02 -4.3505298754165489e-01 2.9194414442256400e-02 -2.9836496755058055e-02 -1.0281028178986134e+00 8.3406090381504328e-01 -1.6603654547332702e-02 -2.4945873915217817e+01 -1.0592904465632800e-02 -3.5401358749257317e-02 1.0940107921173889e-03 -1.2775844521160790e-02 -1.1039793757770155e-01 -7.3156619486767355e-03 -1.6203138900541703e-02 -6.3458513348564338e-01 2.4438619897769058e+00 1.2299124934487156e-03 -3.0619051971589215e+00 -2.0755859155417049e-02 -3.8519936768553009e-01 -9.8141052673202320e-03 -8.4902232135959516e-02 1.4815674958972796e+01 2.3236140541980053e+00 -1.7320589741068932e+00 -4.1215066702425265e+00 1.0105022219330493e+01 1.1252118955978865e-01 -3.1209792105801171e+00 2.9316261336866511e+00 -1.8794735694637854e-02 -2.7112743302589286e+00 5.3882854904736721e-01 5.9490942550986636e-02 2.4830507520477316e-02 1.5024937361674473e+00 -5.2914446513602287e-01 -5.9135096813348165e+00 -8.7850723583851500e-02 9.3255997832629123e-01 -2.7050794516090382e+00 6.3733373325930764e-01 4.1509380056962115e+00 7.1846623768519127e+00 
      </Row>
      <Row Index="20">
        7.1423804347503506e-03 1.9995062050361634e+00 1.9684183713001548e+00 -8.8274557451446967e-02 1.5739813487090942e+01 2.1591031586474855e+01 -1.9134824970667100e-02 -4.1578422750579193e+01 5.0384678161899621e-02 -1.6289891118588795e+01 1.2354363527454568e-01 -9.6402678634912475e-02 1.8521406345712844e+01 -4.6309359075913639e+00 -1.6830516104026697e-01 -4.0775014810540533e+00 -2.6095157696022341e+01 -3.0961910249380764e-01 3.1530212162528187e+01 1.4078481911821794e-01 2.0451492310401072e+01 1.3714544709841042e-01 -2.8547468040488733e-01 2.2480120806210358e+01 1.0200283590729594e+01 3.1313447317460119e-01 1.2282971132996985e+02 -9.1604775798732589e+01 -2.1519968255193106e-01 -1.8428173817083916e+01 -1.5607397330743815e+00 -2.3979046236973076e+01 2.4225484239984860e+00 1.1670452027944660e-01 -4.2649646968664584e+01 -1.2659852169424823e+00 -1.8234826216951550e-02 3.3888582752251502e+00 2.9634574572992278e-01 -2.4531509461970191e-02 9.6670165823772550e+01 1.8855556500426307e-01 -1.3053497183663930e+01 8.5992114064750047e-02 1.6282725299890496e-02 1.2015243371061202e+00 2.5864930988458368e-01 1.5313311966841728e-02 3.1634386451322825e+01 8.7057368357840460e+01 1.9118323282462946e-01 -8.1426221529021859e+01 -3.4514384965513734e-02 1.7054670036505923e+00 -4.4791048405103409e-02 2.4905594101808648e-02 5.3368748158754897e-01 1.4157000106878515e+00 5.7660796231907341e-02 -1.3790074518455185e+01 1.3863024818729173e+01 -9.0797881118767215e-03 6.5329177231295034e+01 -1.5435986255333545e-02 -5.8669634161733484e+00 -1.4711474586892703e-02 -3.2432775060583652e-01 1.2450960183854325e+00 6.0618860624934818e+00 1.1223014395183228e-01 1.0835881073266957e+02 -2.8623494732073027e+01 -4.1204633888583547e-01 6.9273020664928481e+01 -1.0212360774832505e+00 -2.6138614402904476e+01 2.5144540793261481e+00 -9.0388294420091264e-01 1.7291732204927210e-01 2.1489525942627483e+00 1.4261085623407155e-01 -8.0262065674870726e+00 5.8565814695883631e+01 3.5163851837384419e-01 -5.6071214476319717e+01 -7.0431918179906727e-01 1.4157904977061285e+01 -4.2314578249702777e+00 -1.1604101273434104e+02 
      </Row>
      <Row Index="21">
        6.6168484921365955e-02 1.3798925175042454e-01 1.9335094056976165e-01 2.5668108942608403e-02 1.4070754298751353e+00 -3.1190547950654945e+00 -5.9102300118693205e-03 -2.4476919997527148e+01 2.4942001133201619e-01 -1.5068452671941468e-01 -1.1408753069475033e-01 -2.1352277691857843e-01 -2.4797985349830469e+00 -9.7548882835262946e-02 8.8598564616725953e-03 1.0890741786029097e+00 -2.5451072655951066e+00 1.0465286882432788e-01 -1.1523621132801054e+01 -2.5532812460982918e-01 1.3714544729832487e-01 4.0403106469517985e-01 -4.8516243505578904e-01 -1.3238590997167048e+01 -1.8371469467643902e+00 -3.2544489870329069e-01 -1.5042264252473771e+01 -1.9097701574440634e+01 2.0637532234666169e-02 2.1679618916466268e+00 -2.9327502192192902e+00 2.0204654248981364e+00 2.1135254242055677e+00 2.4624425717943271e-01 4.5032867068147873e+00 2.7997983326242148e-02 -3.6153384781939094e-02 -1.4634454489596065e+00 1.5045228402254907e+00 -1.0838147798919581e-01 1.9601212987152394e+01 -6.8924541892454533e-02 3.2144853885627905e-01 4.1862740894822816e-02 -1.2763664056715585e-02 -5.4047897618579616e-02 -1.7391706229721804e-02 -2.0896078302291531e-03 -2.2045491384246390e+00 6.3067355747480178e+00 8.7213100707491109e-03 3.9749323069409002e+00 -3.2471418223973647e-02 -7.6479768589803515e-02 -6.4240483334364958e-05 8.4883847835947601e-03 4.1545402526305963e-01 -8.3619863826023072e-02 -5.0077531206760284e-04 2.5025102295933266e-01 -3.5750335437422791e+00 -1.3570844783328531e-03 1.3726329347249703e+01 -4.4126829929301732e-03 1.1686496857115714e-01 1.2352572076236945e-02 -3.9545763389447164e-01 -1.0629213195003787e+01 -1.7275529347765444e+00 -3.2685081364824276e-01 -1.2430888899519399e+01 -1.0912221716921607e+01 1.4496789386930043e-02 3.7201029430434573e+00 -2.8992227044048482e+00 2.0684630239745143e+00 2.3176781404208544e+00 -3.4302084669759791e-01 1.0702128097346858e-02 -1.3802569109375226e-01 -7.6278883816698340e-03 1.2198463034520728e+00 1.8336897133057251e-02 4.4412713700529793e-02 -8.0574572915826614e+00 3.1910508578411383e+00 -2.6813992198259190e-01 -3.7472700098909493e+00 -7.6555809315135983e+00 
      </Row>
      <Row Index="22">
        1.3612479838607738e-01 -5.9420293236642188e+00 -1.0878292540633332e+00 6.4740523820866935e-01 -2.1182111942431760e+01 2.4073820238159897e+01 -3.4598471745946824e-02 -1.1891168248222675e+02 -1.4673480104676184e-01 -2.1668446367450791e+00 4.5762409161228867e-01 -1.1013598554815429e-03 1.4015023548459634e+01 9.4923843069383684e-01 -4.9276927409603044e-01 1.1117872419907873e+00 3.0623640070866713e+01 -1.3929158251459955e-01 2.7737301580753410e+01 1.9623549658739492e-01 -2.8547468022618350e-01 -4.8516243440098011e-01 9.2556714347429736e+00 -3.7572988200611391e+01 4.8554142310755992e+00 3.5097975503150169e+00 -7.7837342775749363e+01 5.0855302086590996e+01 -7.8305055378233424e-01 -5.4297879962177831e+00 4.7351614105059188e+00 -1.0498698482598924e+01 -5.9780063893248725e-01 -2.7936601740717575e+00 -1.2636081498515505e+01 -2.3430121296424522e-02 5.0541700803473844e-01 1.5824742527395756e+01 7.4798566922981991e-01 -1.0958992236939152e-01 -2.6025893980843830e+02 -3.5845542866370506e-01 -6.4791730826979821e-01 -7.7249278545793387e-01 5.8612114975573781e-02 4.5089620829026629e+00 3.0346085416871893e-03 -7.2642355948481063e-02 1.6627861099647902e+01 -3.1524967379496957e+01 2.3821133075197837e-01 1.2720815252029570e+02 2.6779964014855961e-01 9.4897794261641266e-01 -5.3294818085253166e-02 -1.1047355794520619e-01 -1.5282122726764413e+00 1.1259728885416025e+00 4.5900092140509274e-02 -1.4382841707060834e-02 9.3635283902395940e+00 8.0629110941267401e-04 -7.4870938181848032e+00 -2.5365588790149982e-02 -1.3255476058999704e-01 -1.3106334967041955e-01 6.8129644276038031e+00 -3.2911657189594585e+01 4.5181796646999057e+00 3.8932034148174961e+00 -9.8678386999337249e+01 6.0607619018471723e+01 -8.6365853188494879e-01 -2.9869846859102836e+01 4.4118930960441620e+00 -1.3040757718760037e+01 -1.0738703132508891e+00 5.9510248687338798e+00 -9.2090136372384457e-01 1.6519937584976381e+00 -2.5272150766629640e+00 -6.6334395122208445e+00 5.4632034544276486e+01 4.7091556324040917e-01 4.7877576589892250e+01 -6.4682570039325435e+00 4.5223553044681186e-01 1.1055470165920118e+00 -9.8531447185118566e+00 
      </Row>
      <Row Index="23">
        -1.4856640325067474e+00 2.9501191934146726e+02 1.1041627692842624e+01 3.4195348522390532e+00 -1.7179168966619000e+02 -2.0375364693044685e+02 -8.3636166765993725e-01 1.3398918504640460e+02 -1.2431732874197721e+01 7.6083769553772385e+00 2.1956705137126235e+01 1.0727901790485058e+01 8.8768917103436365e+01 -1.1921023810185659e+01 -3.0909950511775079e+00 -7.7793267101321049e+01 3.6050676192273386e+02 -3.9792674442354432e+00 -4.6559260411188006e+02 1.4635752691774611e+01 2.2480120809544179e+01 -1.3238590995946636e+01 -3.7572988222907426e+01 1.1406759716127033e+04 1.7878311708274975e+02 -3.4470873498117022e+01 -8.6418059598458672e+02 5.5782328033840604e+03 -4.8721702263102600e+01 9.5592104807673604e+02 1.3605860070020330e+02 -9.9145630031672420e+02 5.0199612540591851e+01 1.8804705216793547e+01 -4.6722469294846076e+02 -1.7816957042436645e+01 -1.1176623517145137e+00 1.1574615417985979e+02 -4.7020810917907511e+02 2.4942560200264605e+00 -4.3825972199104726e+03 1.2398128855533876e+01 -5.1919258510035171e+01 -8.6858200960762524e+00 2.1982630258047342e-01 -2.1491430923936832e+02 -2.1055498894068876e+00 1.0482396209029099e-01 -3.2468953950797186e+01 4.1262411140336189e+02 5.4807788427386583e-01 -1.5769459694195539e+03 1.8088061362447005e-01 -1.0122017352657835e+01 -5.7028631085960093e+00 4.9579602444339166e-01 -4.1128794166806983e+00 4.2603568144484222e-01 2.6297185954659597e-01 -6.1772239735801122e+00 2.3306215203003012e+02 -5.3651393444736462e-02 3.6891932233702391e+02 1.5530539803423173e+00 -3.6872314902987910e+01 -2.1729204514148215e-01 -1.0162141647779578e+01 1.0739365531893040e+04 1.5583831837799011e+02 -3.4262851268555067e+01 -9.1827437486894348e+02 4.9222304743660716e+03 -4.9081690665135973e+01 3.5742883778270334e+02 1.4183332076135198e+02 -9.6257178941896825e+02 3.8243480288967589e+01 -3.9851740495881899e+01 4.8456102710040625e+00 1.9921770617315531e+00 -7.4032454647468739e+00 -3.9285702154457226e+01 -7.6179265949255523e+02 -4.0471696903582597e+00 4.2608143799370694e+01 -1.5115276236071372e+02 7.1730495847980208e+01 -1.3248299953585303e+02 6.1554969552251578e+02 
      </Row>
      <Row Index="24">
        -3.2340482525316361e-01 -8.9277246168688951e+00 -2.3419844649152026e+01 -1.2613925111832316e+00 -3.9444012468175060e+01 -8.5205362804699689e+01 6.5455096777063307e-02 5.6527758224215358e+02 -1.5547432786570543e+00 -8.2785875625586698e+00 2.1362881654466852e+00 1.9332243878026549e+00 4.3927440987266671e+01 9.8989127968320911e+00 3.2703804965793637e-01 -1.2952632325732338e+01 1.2475867967127124e+02 -1.5449558871648914e+00 4.9545102510694414e+02 2.3079202356849451e+00 1.0200283587171189e+01 -1.8371469493920911e+00 4.8554142317948124e+00 1.7878311716622565e+02 4.7327361530890107e+02 1.2721061642082518e+00 2.0943505692612919e+02 2.9025126229505349e+02 2.1671325162362587e+00 3.9470567009972274e+02 -6.6616510541116136e-01 -2.8356757859605983e+02 4.9208415707868989e+00 2.3833645073585261e-01 -4.4535977135709864e+01 -2.0606226346196689e+01 6.3040705245652939e-01 3.8086454584306239e+01 -1.5968866404783330e+02 9.0403078398193015e-01 -1.3562448700387031e+03 4.0891784729043812e-02 -3.0011349023310121e+01 -6.0134183929427620e-01 -1.7976212369496675e-03 1.5918625886401287e+01 5.8685214588806920e+00 -8.5199446817955951e-02 5.2626080094776626e+01 -1.5958560455648694e+02 -1.6555521178043264e-01 9.0581566225551069e+02 4.8710932589175696e-03 -9.5149327220039659e-01 -3.3218216589719773e-01 9.6806807304839970e-01 -1.1939955672546603e+01 1.5076152339334861e+01 3.8041695165448175e-01 -1.0117344194055477e+01 -6.4684974166630127e+00 6.3652225630096357e-02 2.1667659533210099e+01 -1.4453063479982140e+00 -8.1118135099695792e+00 -1.4187829578649838e+00 5.9976728337103538e+00 1.7993681877384176e+02 4.3526480782786604e+02 1.3512393157343214e+00 1.7535487721094810e+02 6.8035084908036197e+01 1.3801337377373279e+00 -4.2209420800488442e+02 -7.2422704598973442e-01 -2.8653688048552874e+02 3.3514056062803470e+00 -7.5142117204085448e+00 -2.4155953777054009e+00 2.3547007665309806e+01 4.7609089460497103e+00 -3.7813760143193846e+01 -1.7018349696709612e+02 1.1329130879474292e-01 3.7498418779114314e+02 -1.2385154611613393e+01 2.4139951108863439e+01 1.4720697936929927e+00 4.8897186677534000e+02 
      </Row>
      <Row Index="25">
        3.1137011741417808e-02 1.5028384856158389e+01 4.3510107410943188e-02 4.5959949534125650e+00 -4.8424651075970132e+01 1.0747948477634054e+01 -7.5898202304912094e-02 -3.0833871683804318e+02 2.0029306949563166e+00 -2.9613858687223864e+00 2.0003887146477972e-01 6.5013339359068190e-01 5.8940967839907366e-01 -1.2322669652314969e-01 -3.3127162578946967e+00 1.7169727722348512e+01 -1.3730062465183437e+01 -4.0149109057229854e-01 7.6339392366237007e+01 -1.5756017292067601e+00 3.1313447248878057e-01 -3.2544489841747815e-01 3.5097975499294094e+00 -3.4470873545933735e+01 1.2721061616051301e+00 2.7947254782079558e+01 6.9717015816975845e+01 -8.4384388285737600e+01 -2.6688329847577913e-01 9.3347104712439659e+01 1.1512857483188355e+01 1.4149355164293040e+01 -9.1310867683250085e-01 -2.5605486451569132e-01 -3.6423937410726346e+00 5.9443652330160202e-01 1.0812916085849777e+00 3.8830465520958398e+01 3.6695997612710926e+01 -3.1066884972072578e-01 -3.3115977191692218e+02 1.0256569300475296e+00 2.7799471618846354e+00 -1.1785320547643340e-01 -6.4389817852742240e-02 -5.1455968142632287e+00 -1.3013121710296394e-01 3.2520946208103751e-01 3.5088305114674995e+01 -2.5367806215217570e+00 7.7679309590710499e-01 -9.1121393505018204e+00 7.6008363926832967e-01 1.1555939207786561e+00 -1.2227828081624814e-02 2.5828035998149784e-02 -6.0355504708695662e-03 1.1571459494315350e-01 3.0791720856952587e-01 2.7250837871465592e+00 9.1213247071859769e+00 -2.2899284545149987e-03 3.5803670764435083e+00 2.6895385577359315e-01 1.1066307321942759e+00 -2.1144619782454750e-02 3.7791579970555524e+00 -3.9052130328573909e+01 1.5805511323600245e+00 2.9089900236284372e+01 2.9332290444084638e+01 -6.1149296420332064e+01 -3.6461606961319271e-01 4.5082846243167296e+00 1.1987446439161157e+01 1.1387657373041602e+01 -7.0058265041524281e-01 -5.1104164421494080e-01 4.5654738425605018e-01 -8.6272561231711009e-02 -2.0347690027775187e+01 -1.2019493846923849e+01 3.6769768077230985e+01 1.0990736037464739e+00 -2.5412802842941485e+01 -2.1318456984442872e+01 -1.8205935147605248e+00 6.1997398090016524e+00 -7.0675943687232618e+01 
      </Row>
      <Row Index="26">
        -8.1304837605882483e+00 2.3024527407708933e+02 -1.0252349718297303e+01 -1.0903144847003489e+01 -2.5441632834120355e+02 2.9693871443299577e+02 1.1875472998366490e+00 8.0177634279765189e+03 1.0442273321089075e+01 5.0190178540156722e+01 -1.5354543446767181e+01 2.5805678615107155e+01 1.5078186667935569e+02 -5.1614898765208217e+01 1.0497157099775585e+01 4.4734285549810829e+02 -1.1248295906728599e+03 1.4563591406231945e+01 4.9057549700699747e+03 -6.4076977437243618e+00 1.2282971125589333e+02 -1.5042264252822202e+01 -7.7837342722516667e+01 -8.6418059465077545e+02 2.0943505692883116e+02 6.9717015695158139e+01 3.8751660345578937e+04 -1.0084660896136120e+03 2.7625690032028579e+01 1.2445883497839870e+03 1.2789734273636441e+01 -1.8279152180452572e+03 -2.6919740696177001e+02 5.9314701254013706e+01 3.9101768180300382e+00 -6.2806168421432830e+01 -1.6638216083899664e+01 4.1281575026097539e+02 1.2446145126146730e+03 2.7637725124269175e-01 -1.3491031445624307e+04 2.3149903710708212e+01 -6.9027073634731849e+01 4.3568364766403853e+01 -2.1603346339283243e+00 -2.4453971197611850e+02 5.0692316428527988e+00 2.9076121303597131e+00 9.5156995152279524e+02 1.7792904680268839e+02 -1.2755511893170855e+01 -5.3545964426416904e+03 -5.3377119264593329e+00 1.1455312431231505e+01 4.1141791528715643e+00 3.7139942729965654e+00 2.4269526955627953e+01 2.9035852045494671e+01 -6.0973832373660741e-01 9.8731483541312627e+01 4.7731169704857166e+02 2.4978157545843427e-01 -4.7196314950473607e+02 2.2681121864740255e+00 -9.1420674913679250e+00 2.3199011276505033e+00 -6.2265444343766418e+00 -8.5932617859918184e+02 8.7065040095969920e+01 5.7148148138232330e+01 3.8506153117078029e+04 6.4980567279318348e+02 3.3121609002532352e+01 -4.5077115455642343e+02 3.1852722564067083e+01 -1.7298815206980130e+03 -2.1955102822413400e+02 -1.5458941659745088e+02 3.0553344074651136e+01 4.5587581482792913e+01 2.8311938769871063e+01 -6.6161350300084541e+02 2.7939818704763620e+03 -2.4751883851619510e+01 2.1769177011377133e+03 7.5668685218025722e-01 6.6819865024874645e+01 7.0556740715809963e+02 -7.7168884971297518e+02 
      </Row>
      <Row Index="27">
        -2.1361159582502296e+00 -8.4833247928996570e+01 -7.5660528716566915e+01 -2.4338911210334118e+00 -1.9676656677946448e+02 -1.0369191916547716e+04 -2.4372103781994294e+00 6.0452001336812973e+03 -2.8065897219385327e+01 1.8503523407642629e+02 -1.9114111796572484e+00 1.1432451365779183e+01 4.9486648282165214e+02 4.2013384485217017e+01 1.2983242076994379e+01 2.9552795440558111e+02 4.9399011728689075e+03 2.8950046551560447e+01 -6.9075350075960159e+02 1.6918946296691871e+01 -9.1604775565294403e+01 -1.9097701607297072e+01 5.0855302201563518e+01 5.5782327993390873e+03 2.9025126070637430e+02 -8.4384387630779784e+01 -1.0084661069253549e+03 2.3027316287314426e+05 -3.0056285750694965e+01 2.6268061505046200e+04 1.7456331780643546e+02 1.1275939088574516e+01 -2.2046068117502492e+02 -1.1387970403479095e+01 5.9961595742058944e+02 -1.3612673681431548e+02 -4.2538691423978490e+00 5.6406609626809927e+02 -1.0776167020821944e+04 -3.5517766743546531e+01 -2.4433381366848946e+04 -3.4515254170362293e+00 -6.1775629964144791e+01 -2.4365286794236418e+00 1.4202601440364220e+00 -2.5193335659815057e+02 3.4823270230538235e+00 -1.9682178373631323e+00 5.4459626054367982e+02 -1.0028157209232450e+04 1.1525347978885975e+01 6.9533128511905670e+03 3.1034718859143475e+00 -4.7382934305322124e+01 1.0618976593325442e+00 7.2038061860215064e-01 3.2908703596272971e+01 2.6892958731732278e+01 -6.4066848202128313e-01 2.1667452220013365e+02 -1.2260050968716387e+03 9.4174206454766374e-02 -1.2034454186677933e+04 -1.5059948650609529e+00 1.1779553953470895e+01 -2.5722519995961788e+00 5.0199216948621626e+01 6.2931030644837156e+03 1.3848735575431709e+02 -7.7264919915117844e+01 -8.4751000220351966e+02 2.0043107089124236e+05 -3.1933698451207476e+01 -1.0492090133249760e+04 1.5929970216710086e+02 9.3779728208249935e+01 -2.2633541512047202e+02 2.9423833748383025e+01 -3.5049200849834705e+01 7.0439221750082538e+01 3.1884592014830559e+01 -2.5599043373126980e+02 -2.9891049516970579e+04 3.8144921283665887e+01 2.8295520361323743e+03 -1.4542411824753958e+02 2.8366564895365350e+01 3.7271760876853858e+02 3.2537012317594999e+04 
      </Row>
      <Row Index="28">
        1.1875035713031501e-02 -5.7656138311039626e+00 -1.3553206143501967e-01 -3.5558582158855456e-01 1.0372058646066762e+00 2.5903482435878686e+00 1.6692072399724822e-01 -2.8820296208141372e+01 -4.8316030604442402e-02 3.9636791780561875e-01 -3.8433490813312279e-02 -3.0034317742699379e-02 7.5137589402399803e+00 1.4539467378212256e-01 2.6979511791566990e-01 3.5554226874819506e-01 2.4183652869032812e-01 1.2783143060106658e-01 -1.2044989483256359e+01 4.7124912361348928e-02 -2.1519968405940110e-01 2.0637531927096130e-02 -7.8305055413244995e-01 -4.8721702255516661e+01 2.1671325201703260e+00 -2.6688330073673139e-01 2.7625690064524921e+01 -3.0056285425251644e+01 6.2430011053083945e+00 8.0029812305865562e+00 -1.4980025456390553e+00 -6.0292339185068533e-01 1.2462563440337812e-01 -1.6566745685066681e-02 -3.5837341230571980e+00 -1.1544718188603670e-01 -3.8638557914703900e-02 -1.7190638204798034e+00 5.0581599331380858e+00 1.5787044967550541e+00 -1.8950779772072565e+01 -1.3040362150823082e-01 -3.1828453343440577e-01 2.2592927576258394e-02 1.9014292140618984e-02 2.3013778719927771e+00 -2.1640548462745546e-02 2.5166618089607750e-02 9.0551508902359501e-01 -5.4668888396627153e+00 -3.1837112676166273e+00 -2.9331416197528597e+01 -1.2016668310237927e-01 3.3042987984003958e-02 -1.5867536494414525e-02 -7.6037786815286584e-03 -4.2773926592818157e-01 -3.4804211645597327e-02 -2.6436440795430727e-02 -2.1313834916725227e-01 -1.1803959102481940e+00 3.0235195359047007e-02 1.8635453010501806e+00 -1.5243288520598419e-02 -2.0257083130815090e-02 3.6819441579672464e-03 -7.7364862904439358e-01 -4.3993108033414231e+01 2.1042955346775991e+00 -3.1570344761718172e-01 2.7881325175984429e+01 -1.5297089740446381e+01 5.7883068883900153e+00 2.3873292107309680e+00 -1.5802951090862383e+00 -5.7446269694541030e-01 1.9535034298593262e-01 2.5600596418528276e-01 -3.2418631226992423e-01 1.3019372270971830e-02 1.4403936397600763e+00 -5.2649931984072929e-01 1.9566193025678277e+01 -7.7945739343843785e+00 -6.5540805509568099e+00 1.8250502986395307e+00 1.2953059780568993e-01 6.9830999717261832e-01 -1.7683793935556761e+01 
      </Row>
      <Row Index="29">
        -6.1204713935876498e+00 -8.0220154794864357e+01 -1.1443485079312239e+01 4.9531131633957557e+00 -5.3622381942998618e+02 -8.7419543073624372e+03 1.6775787686504318e+00 -3.2470868503808975e+04 7.4126357731332675e+00 3.3381588556617508e+01 1.1576600600249645e+01 -1.1027087943720831e+01 1.2409541495649725e+02 2.4901248764149450e+01 -1.5676698384292851e+00 -4.0644596367608756e+01 -4.3027943633496761e+03 -1.1962644095392649e+00 -7.4298237375020981e+04 -1.6172082092435582e+00 -1.8428170864581546e+01 2.1679614534054563e+00 -5.4297867214767450e+00 9.5592096020103781e+02 3.9470566013046096e+02 9.3347110617632254e+01 1.2445885170336771e+03 2.6268060072565102e+04 8.0029835856353984e+00 8.7163113316253619e+05 -6.3178873700201095e+00 -8.2533542869151165e+02 8.5590399603572223e+01 1.2354153416256430e+01 -2.7104372716678495e+02 -1.2175914128795043e+01 -7.7208076842134865e-01 4.0385401473015224e+02 -5.0305908032804728e+03 -1.5819971488750859e+00 -2.0205623440265656e+04 1.2847943132433448e+00 -4.1864589524694907e+01 -6.8025325926509224e+00 1.3771478492598366e-01 2.7589425307378406e+02 2.3022934349637652e+00 4.2432227804529088e-01 2.2692722282628529e+02 -4.8588340050876141e+03 7.8125622200350335e+00 4.3810925488948822e+04 1.7935567695604855e+00 -1.3254455285787117e+01 -1.5499622000806994e+00 2.7059242604588496e-01 2.0225995040731505e+01 -4.0696575417769054e-01 9.6251371391554130e-01 7.3385434173047543e+01 8.2472844633273780e+01 2.5791922672563494e-01 -1.9687132922649384e+04 -1.2970478464631015e+00 -1.4792261674767360e+01 -8.6124167076950808e-01 -8.7540040606821208e+00 9.7453047091629264e+02 3.9356527315061442e+02 9.3606964549993563e+01 1.1961167619423265e+03 -1.4445721048734125e+04 1.2397563355283193e+01 1.1121437221312523e+05 -2.8061840870097292e+00 -8.0623748454235806e+02 8.4608611958230881e+01 -7.0167540597923637e+00 -3.7884849592949195e+01 4.7841077245500969e+00 -2.6834811765569611e+01 -3.3746047003449405e+02 -5.3353161735612259e+04 1.7385762642819259e+01 -1.7463895294316343e+05 -3.0872628194355840e+01 2.2391363983148292e+01 -1.1300233322045993e+02 -1.2174171226197961e+05 
      </Row>
      <Row Index="30">
        -4.2461344206224894e-01 2.4195465913767634e+01 -2.4141672323595094e+00 3.7156752368108972e+00 -2.2746682666819083e+01 1.4740760624008544e+01 -8.0590589618521578e-03 1.5526127504673786e+02 -1.4755893202192607e+00 8.9642462741789197e-01 5.4226429899676110e-01 1.3380547351578626e-01 -3.7888202614601596e+01 1.4269879260350076e+00 -3.0652688278100109e+00 2.2496979488029183e+00 4.8368654052337661e+01 -6.6623098194464603e-03 -1.9006781697040424e+01 2.8200039143234461e+00 -1.5607397354917598e+00 -2.9327502193093045e+00 4.7351614194314386e+00 1.3605860066555161e+02 -6.6616513911267816e-01 1.1512857490023551e+01 1.2789734333846852e+01 1.7456331693300672e+02 -1.4980025484996251e+00 -6.3178944788685811e+00 4.4688128683473067e+01 -2.2526538347978409e+01 -2.7030003842749604e+01 -2.1189446668989445e+00 2.8385528017722947e+01 6.7121595917926569e-01 1.1366921744323646e+00 1.5529765095717211e+01 -3.0452355298730254e+01 -3.3082107698029156e-01 -1.0528008432069328e+02 8.3199751548890799e-01 -1.1673482348613504e+00 -8.3350584672385031e-01 2.1627453169246094e-01 -1.9746195044485972e+01 -1.0750558736286220e-02 3.7047816235175085e-01 2.4512473854778591e+01 -4.4307125306979287e+01 8.5998662538325954e-01 -1.2430043971433770e+02 6.0118143196440443e-01 8.4245938777516471e-01 -4.1062279791754364e-02 -1.3348084257704218e-01 -1.3853368856759971e+00 1.9386094822302669e-01 1.9685743683113710e-01 -1.3120587539178814e+00 2.8944416612760506e+01 1.9678121137330119e-03 -3.9678332481475081e+01 2.6476271119882178e-01 -9.4266976196649921e-02 -9.8962660951307305e-02 2.6058637174368195e+00 1.0919757581005639e+02 -4.7361438632157027e-01 1.2609579449172230e+01 -1.1709807088001341e+01 1.0665233396023217e+02 -1.0815367909918934e+00 -3.4000907701323740e+01 4.4983914862634855e+01 -2.3572858214495948e+01 -2.8730034282366841e+01 5.9006558081652489e+00 1.7914303301795833e+00 4.2768435595874976e-01 -1.5657654300241610e+01 -1.2474921643159609e+01 -2.0854906567273474e+01 1.1298704363712120e+00 2.7383302966255918e+01 -4.7633121065618681e+01 -3.8685289577315984e-03 4.3291874919472150e+01 4.7213640283706965e+01 
      </Row>
      <Row Index="31">
        8.4402853483175022e-01 -1.4842202234429351e+01 6.8459185937157185e+00 2.8223513776640630e-01 8.8658393707544747e+01 2.5843043009168468e+01 -2.8317985584342886e-01 -1.1633025630665943e+03 8.5252515709243826e-01 1.6583455014721560e+00 -7.3480632483318171e+00 -3.2699250681455276e+00 -4.0727219451424332e+01 -7.9324355871949512e+00 1.3447047809778272e+00 4.0074342599131342e+01 -4.6271808932785643e+02 1.9137793419052502e+00 -1.4615686914687976e+03 -4.7675427773395168e-01 -2.3979046231649512e+01 2.0204654259698400e+00 -1.0498698466964299e+01 -9.9145630064270017e+02 -2.8356757859746017e+02 1.4149355166293409e+01 -1.8279152173166376e+03 1.1275934946904385e+01 -6.0292338872650353e-01 -8.2533546090253185e+02 -2.2526538372938901e+01 2.2386120181936667e+03 -5.1904792491178270e+01 -6.2553574458601071e+00 8.1863910821597500e+01 2.6731101734032997e+01 -2.0188012821256129e+00 3.3451178752263232e+01 4.9932030890634633e+02 -6.4432757301576937e-01 4.1902186167966574e+03 -6.4293380792234178e-01 9.2557788771064224e+01 4.4544992845879534e+00 -3.8740009304110440e-01 -8.6054130636862283e+00 -1.5617951898805513e+00 -6.1463028488101701e-01 -2.8219980393159858e+00 4.8737455853261054e+01 1.4469279651923657e+00 -6.7478915467113256e+02 8.4061132082227918e-01 8.1712124279579257e+00 2.0670027012957242e+00 -4.2331612489595849e-01 1.4608438682668748e+01 -6.0740383543545065e+00 -2.7782623468851853e-01 4.6631761550608644e+01 -9.8909542953482742e+01 -7.7216248385752806e-02 -3.0709993768949062e+02 3.9936867193486592e-01 4.7552644623804554e+01 5.8590541394497042e-01 -1.8535846258003705e+01 -9.3642227712749741e+02 -2.5659204127703543e+02 1.3138590435295335e+01 -1.7727478694807280e+03 1.7856184288186864e+02 1.6571559559773372e+00 5.8902871550526470e+02 -2.0867237389990905e+01 2.2197816574587728e+03 -4.2436381453043133e+01 1.3235821462787968e+01 2.9579314092079443e+00 -1.2976524882361534e+01 9.5218288388730343e-01 6.1135526412435745e+01 -2.4826172000591583e+01 2.2270767297195135e+00 -6.6452134992611775e+02 1.6440724786816705e+01 -9.5081765801122543e+01 1.4274113199929678e+02 -5.1575749408641332e+02 
      </Row>
      <Row Index="32">
        5.7458104094820328e-01 -1.4806933408723580e+01 2.6250269166721587e+00 -8.6309116087983284e-01 5.1757690981776250e+00 4.1561012989695882e+00 -3.8051872185690054e-02 -5.0613710936135612e+02 1.3330158252331759e+00 -3.0811653215423940e+00 6.2438441365021391e-01 4.2204308549068525e-01 4.8326629514179281e+01 -5.6742634961173444e-01 8.2534363842375869e-01 -7.8951132474462611e+00 6.8694309992861236e+00 -1.7000242005016575e-01 1.4012226530723274e+02 -2.5359314800433990e+00 2.4225484261126269e+00 2.1135254246901822e+00 -5.9780064932304011e-01 5.0199612559528404e+01 4.9208416019780730e+00 -9.1310868081281837e-01 -2.6919740701078393e+02 -2.2046068066540931e+02 1.2462563911516519e-01 8.5590405458850455e+01 -2.7030003847464666e+01 -5.1904792509930878e+01 3.3107095041241202e+01 5.2868483005373212e-01 -4.5984227206204501e+01 -6.7929506412230223e-01 -2.6383663463361540e-01 -6.6457719475157484e+00 1.1430418432784791e+01 -1.6144238600158217e-01 -2.6770739115821198e+02 -2.3978118438279211e-01 -2.5912689281178132e+00 -4.4654892146444986e-01 -1.3802474547908719e-01 2.0482879766521336e+01 -3.4170199973957732e-01 -2.0462951531343451e-01 -2.4300643137598627e+01 2.3952633480075747e+01 2.5285143222454387e-01 2.1495388858742081e+02 -1.9059397233285011e-01 -9.4787654441745417e-01 -2.7596040942962041e-01 4.4959624171971371e-02 9.9372548519568227e-02 -6.4765787564141508e-01 -3.2993568483551172e-02 -1.6472250031492877e+00 -1.3543871156051864e+01 -6.5488294840854167e-03 5.6250201879069209e+01 -1.1225452779826739e-01 -2.4927108602083763e+00 2.0247153654069004e-02 7.8529762670682601e-01 6.8973129958104451e+01 5.7498995381270577e+00 -1.1865276226029184e+00 -2.5835857054507471e+02 -1.4644909830894596e+02 -1.1388097743330836e-01 2.7370465485844761e+01 -2.7307336424666627e+01 -5.2032600958535120e+01 3.3191978522414132e+01 -2.4283306423492337e+00 -2.1296041956735516e+00 -9.0060747465437885e-01 4.2903763368656769e+00 1.1782651197673349e+01 6.0571605384024629e+01 1.0409441639213837e+00 -3.5652781563686631e+01 2.6567103082341696e+01 4.6857574571970240e+00 -5.4524111852692712e+01 -1.0514304133245432e+02 
      </Row>
      <Row Index="33">
        -1.2378320395930587e-01 2.2313503959554737e+00 4.8896456656941556e-01 -1.6117807055660416e-01 6.4684087833779813e+00 -3.3306447563663824e+01 1.9359228051411992e-02 -5.2403610142529942e+01 1.7764482340429069e-01 2.8459489044927091e+00 -7.6940611965296557e-02 7.9405670940204665e-01 6.2201499204920045e+00 -2.3149159335857056e-01 1.1349281123278715e-01 1.9397407589121940e-01 -1.1852039895238704e+01 1.2496243275578883e-01 -8.2977652028203011e+00 -1.3468723673991309e-01 1.1670452172407408e-01 2.4624425678782449e-01 -2.7936601738810021e+00 1.8804705187184169e+01 2.3833644503682549e-01 -2.5605486257465110e-01 5.9314701278214208e+01 -1.1387970778472436e+01 -1.6566745359860684e-02 1.2354156724424683e+01 -2.1189446605353948e+00 -6.2553574280797832e+00 5.2868482455805177e-01 5.4220010686593740e+00 1.1104490401728089e+01 -8.4922688703326932e-01 -1.7073606454514764e-01 -2.8371184388853408e+00 -2.6447152549657403e+01 -6.2893097690953637e-03 3.4323136586346664e+01 1.4304086533733329e-01 -4.6536391103214214e-01 4.2849737806409693e-01 -1.9396878542228030e-01 -6.9067417623166705e-01 -1.3252437325941924e-01 3.4665153474399954e-02 -1.7961036041762100e+00 2.6355635501495271e+01 -1.3388454781328396e-01 -2.5619149713078514e+01 -6.8182937523810147e-02 -6.1017989940975781e-01 8.4062730561957899e-03 3.1606778965824700e-01 6.8449432674867694e-02 -1.0744763888233022e+00 -5.5332463527602016e-04 5.9356394233418541e-02 -9.3953728746757861e+00 5.9676639330952241e-04 1.5534070542315021e+01 -2.7531079075801657e-02 -4.0909575587363634e-01 4.9856121737615874e-02 2.2302269764979572e+00 3.5012118617099063e+01 -2.1589989227554696e-01 -3.9032597323368878e-01 6.1487943531629931e+01 -3.9841223726270840e+01 1.5523495937509596e-02 1.2295289255736861e+01 -2.0401345085067470e+00 -3.3237550355641794e+00 1.0251630721480114e+00 -1.3412678631231010e+01 1.0791901626135636e-01 -1.3630166672504092e+00 5.7170112530696215e-01 1.6035433047873606e+00 -7.2796195786098892e+01 -2.7530849617087405e-01 -3.0009741207862518e+01 2.7551576397290001e+00 1.0858528887108287e+00 -9.0186914011614716e-01 3.5790529918310064e+01 
      </Row>
      <Row Index="34">
        1.6046410794974122e+00 1.8368802595416491e+02 -1.2202038406286462e+01 5.2856417179732631e+00 -1.4341242646025057e+02 -7.6422026810469106e+00 -5.9919755999988311e-01 -2.4371770739182830e+02 1.8599173413469012e+00 7.5872430409170335e+01 -5.1024903618473312e+00 -2.8210587621588115e+00 -1.9213411514619861e+03 1.4890159184059701e+01 -6.5684234849323770e+00 9.2739407100769313e+01 -5.1674656854057685e+02 3.5317249232477785e+01 -2.0075330483205616e+03 5.5952369339680974e+00 -4.2649646959584516e+01 4.5032867027224501e+00 -1.2636081475361774e+01 -4.6722469334111469e+02 -4.4535977217311881e+01 -3.6423936910105681e+00 3.9101765683260510e+00 5.9961595541371207e+02 -3.5837341362709658e+00 -2.7104368081473513e+02 2.8385528088640431e+01 8.1863911022096389e+01 -4.5984227249896200e+01 1.1104490404969638e+01 3.0184991068401737e+03 -1.5613302005821311e+01 1.8290767995013582e+00 -4.3739609458816631e+01 4.9360695565468632e+02 -4.1722870822156089e+01 -3.2562454775720835e+02 -2.1270326993071174e+00 -7.9129010530177766e+00 -3.4862182633452354e-01 -9.2148062615252213e-01 -2.3260535193619262e+02 1.6133904065659301e+00 6.5393748715385369e-01 -5.9232835867589529e+01 4.9793232780881226e+01 3.1510143450556427e+00 -9.7225322771444917e+02 -2.6597922472116631e-01 -3.0068931286537008e+01 7.8947990855922967e-01 1.1113289673162208e+00 1.8642825173170422e+01 -1.2937049155222198e+01 1.1210156579178943e-01 4.3101530541462125e+01 -5.7333272377509275e+01 -4.6581843424917224e-02 8.1593429593183100e+02 -5.3721023236505516e-02 8.0366867977072616e+00 1.9747911394860251e-01 -4.9047243357248451e+00 4.8334573988745092e+02 -5.1124222715607686e+01 -3.2319986674634578e+00 8.3666205684015267e+01 -2.5668337135805632e+02 -8.1376404859333675e+00 2.0438055162131786e+02 3.1614541590797543e+01 1.1839415140526461e+02 -4.4427347756966213e+01 -2.5943371162950495e+01 1.7206805733311604e+01 -1.1971289388806325e+01 -2.1136233253158707e+01 -1.8348830947806743e+01 -1.4307237829323064e+03 7.1549401453252415e+00 -9.7036452263078786e+01 -2.6897652260403841e+01 -1.9990177017778525e+01 5.7940388471894892e+01 1.3165205662764345e+03 
      </Row>
      <Row Index="35">
        3.3184894640704954e-02 -2.3692919694701686e-01 3.3778112719570474e+00 3.1631219698336377e-02 1.3309254766805338e+01 -1.2301591865911178e+01 -1.6644680591694494e-03 -2.6343395780713763e+01 -2.3701623558512241e-02 -1.9647506923558438e+00 -1.4473028385543871e-01 -7.8063045413603216e-01 7.6481329928357678e-01 -2.5614503156430892e+00 1.4423770696736754e-01 -3.0671465251094787e+00 -3.3741361173375481e+01 1.2580294961867189e-02 -7.1798230970161967e+00 4.5658819451799615e-02 -1.2659852161855270e+00 2.7997983399435003e-02 -2.3430120983042813e-02 -1.7816957065925653e+01 -2.0606226349291688e+01 5.9443652446235284e-01 -6.2806168427578768e+01 -1.3612673705481245e+02 -1.1544718208905913e-01 -1.2175912615112793e+01 6.7121595881106921e-01 2.6731101744416421e+01 -6.7929506366805348e-01 -8.4922688703058613e-01 -1.5613302012360336e+01 1.1694595969503597e+01 -1.3308472827846823e-01 2.9808130429493076e+00 1.8559511988842132e+01 1.1670665616201337e-03 7.6127296556951478e+00 2.3203883844337064e-02 8.7954145778819424e+00 -1.0800330996404633e-01 3.2593228290435039e-02 -2.1612553696906645e-01 -4.7469374683420595e-01 -1.7650630013650408e-03 5.6458509280969338e-01 2.0134591981623089e+00 -1.4925126806579536e-02 -1.7975635424943175e+02 4.4442136863637099e-02 2.5475417982285933e+00 5.3446709130491099e-02 -1.5069584615253850e-01 1.3437177039825201e+00 -2.9026809893075209e+00 -1.1116916101623353e-03 -2.8208589793539431e+00 -3.6852232957603519e+00 -1.0129002552235811e-02 -3.8376392131089233e+01 -5.1579789910674023e-03 1.0182421563567345e+00 1.0633779011028258e-01 -1.4488643661679468e+00 -3.2205635206299675e+01 -9.5489298879831885e+00 6.2712835554706270e-01 -5.8831994457048317e+01 -1.5968377609439995e+02 -1.2695376619197446e-01 3.0624112508201506e+01 6.8128530644226604e-01 2.5558667785771547e+01 -6.9764932461805595e-01 3.0803361971260359e+00 3.3177740745678364e-02 -6.3084838298837189e+00 -1.7404661940238952e-01 2.5330894558947232e+00 -4.8589514763567315e+01 6.7279082851479988e-02 -2.8096452583113088e+01 -4.3948692069583306e-01 -6.2607664229977091e+00 1.6990989279739559e+00 2.6382914891289563e+01 
      </Row>
      <Row Index="36">
        1.6446265608199173e-02 1.0202615517100355e+00 -2.0027017417094645e-01 3.1255675974583041e-01 -3.9868062716329007e+00 3.0004297197083361e+00 -5.2641924545408798e-03 -1.2349677725957008e+01 6.5967627073971136e-02 -1.8971224724100422e-01 1.2987391865300669e-02 -3.8993692968039520e-02 -2.6155244685727976e+00 1.2450501046838219e-01 -3.4414647435574997e-01 1.3639304261128160e+00 1.5479080874119973e+00 2.2983235683518601e-02 6.4289925367193064e+00 2.5553255688914745e-02 -1.8234826232935930e-02 -3.6153384741218271e-02 5.0541700811095636e-01 -1.1176623532110987e+00 6.3040705207432657e-01 1.0812916087309410e+00 -1.6638216079191110e+01 -4.2538691941283560e+00 -3.8638557807654378e-02 -7.7208118475869014e-01 1.1366921737670255e+00 -2.0188012826769759e+00 -2.6383663394382689e-01 -1.7073606475286962e-01 1.8290767954559648e+00 -1.3308472836219565e-01 2.2381079355451006e-01 9.1956846445059881e-01 1.1354178336932819e-01 -7.9187507520038156e-02 -2.7966744654302602e+01 -6.9703506931598214e-02 -1.5450558967503980e-01 -5.7204346041052186e-02 1.1259149123605516e-02 -8.4969622004510548e-01 -1.9330870563026098e-02 1.0665657060523054e-02 1.4766394790178765e+00 2.3563284694591857e+00 4.3521485805561200e-02 -7.6458639119955478e+00 4.7019194474909910e-02 1.3351601358760945e-01 -8.7125063611424580e-03 -6.1203122620028944e-03 -8.0480084308632627e-02 9.4221533429294346e-02 1.6536954353786437e-02 -2.5737569396329718e-01 1.2327277031146764e+00 -2.1250530303151827e-04 5.9434395652206149e+00 1.1233459025951964e-02 -7.8098929142569773e-02 -1.1591549519590610e-02 3.1789766235977890e-01 -2.4117428875714606e+00 4.3989762613728306e-01 1.1899603589889696e+00 -2.0016724607146479e+01 -7.6699739218884133e-01 -5.8864876623009252e-02 2.5567704338754993e+00 1.1115955161183211e+00 -2.2298865977896796e+00 -3.2739778721210261e-01 4.0096627154538345e-01 5.1064544495424191e-02 1.6761378742407279e-01 -1.2558412714290288e+00 -6.8624416125207965e-01 5.5855864463007601e+00 4.6175920471903359e-02 -5.4255169339056075e-01 -1.5233480862781210e+00 1.8655698095270151e-01 2.5771636324200448e-01 -6.4095552183294808e+00 
      </Row>
      <Row Index="37">
        4.1548022191976486e-01 8.8208737584437131e+01 -2.0673295567505958e+00 6.0736379488631265e+00 -5.4508716021784903e+02 1.7584541403694311e+02 1.4367393219720692e-01 5.3721810841886327e+02 1.1480226452366753e+00 -1.2658333850201448e+01 9.2135399772989879e-01 1.8792761758228751e+00 -3.6317761582424744e+01 4.3100693218277142e+00 -2.2598941723415455e+00 1.3486601062292289e+02 -1.4910902940224332e+02 -4.7074993274913597e+00 3.0214493562770076e+02 -2.7407060221628150e+00 3.3888582651813408e+00 -1.4634454461611597e+00 1.5824742524406822e+01 1.1574615440641594e+02 3.8086454614293530e+01 3.8830465505145234e+01 4.1281574999815592e+02 5.6406609921170821e+02 -1.7190638200006463e+00 4.0385399553808384e+02 1.5529765051228791e+01 3.3451178604162237e+01 -6.6457719073230992e+00 -2.8371184354988515e+00 -4.3739609429820263e+01 2.9808130437008780e+00 9.1956846293777295e-01 4.8896845366399532e+02 5.2310792161532299e+02 2.9158297829420659e+00 -2.3965415515014902e+03 9.2238225935697182e-01 2.5462783557791226e+00 -1.2344657036746902e+00 -6.5714834372776573e-02 -5.0132801116324742e+01 -6.3091962499805310e-02 -4.5177261175476247e-01 4.5740368441326314e+02 -2.9693718664901098e+02 -2.2779341705226068e+00 -1.4372415052680299e+02 2.6201633465733662e+00 8.6713850695282986e+00 -2.6648820278303464e-01 -1.1828068992150742e-01 2.0974601466807599e+00 1.9089811477753056e+00 4.4489243397788059e-01 2.9772076908117015e+01 1.2005700005485778e+02 -1.4377636711781605e-02 -1.1861323387129232e+01 9.6572445138413343e-02 4.2968857000130356e-01 -2.0353178157559482e-01 1.5057547280415204e+01 1.9660525225788646e+01 4.3070134190545126e+01 4.1729465243595982e+01 -2.4179192092432118e+01 6.8943399838317418e+02 -5.0321601011400734e+00 -3.4214084150758572e+02 1.3583637275834587e+01 2.6105890434047268e+01 -6.4030311868279224e+00 4.9912130889942707e+00 4.7012431446974379e+00 1.9573598666527579e+00 -2.3756125815085497e+01 -1.6603346406423830e+02 4.7881914846031754e+02 -4.5469220725345245e+00 4.7433638458722788e+02 -2.0358244923867463e+01 5.3884713302089371e-01 2.6106577509015910e+01 -1.2264328976997571e+02 
      </Row>
      <Row Index="38">
        2.4141319569862389e+00 5.0672998169565108e+02 2.0183951012809640e+01 3.7484465198863290e+00 -7.1788932893634774e+02 1.2788270629514009e+04 3.3768662815550377e-01 1.0135271849513054e+04 1.1311403324233467e+01 1.9547085716074022e+01 -3.7370848533020062e+00 8.5202336517239114e+00 -2.3296464289719356e+03 -8.4583052770517604e+00 -6.3212865746066473e+00 2.7936131230322644e+02 -3.0139446469768882e+02 -2.7787979984011315e+01 -8.9682450684309006e+03 -1.0331893284103462e+01 2.9634531107876683e-01 1.5045229129884350e+00 7.4798551477751118e-01 -4.7020809874571654e+02 -1.5968866175560365e+02 3.6695996590517737e+01 1.2446145240569408e+03 -1.0776166944099237e+04 5.0581601640097205e+00 -5.0305925819277763e+03 -3.0452356801785825e+01 4.9932030195632251e+02 1.1430419520919259e+01 -2.6447152867478962e+01 4.9360695542068203e+02 1.8559511784679923e+01 1.1354170353179383e-01 5.2310792449931614e+02 1.7166320527782664e+04 2.6483944088171686e+01 1.7728882985949516e+04 2.3823097249119201e+00 5.3330607875235728e+01 1.6226934758787883e+00 -2.1809346805826157e-01 -4.8299796993317432e+02 -1.5041519412086370e+00 5.5017639594222345e-01 4.1564024246070767e+02 -7.3200075460523367e+03 -3.0144511978851369e+00 2.2240563132762909e+03 1.1871082987328334e+00 -9.4147192405071110e+00 1.7901057064045744e-01 -9.2788827656102080e-01 -5.2052310003491584e+01 -2.0382760112238429e-01 1.3762338198648649e-01 1.1945443286746740e+02 3.0981594694233499e+03 1.0691430010410841e-02 -5.4008870144486427e+03 1.1338147373153333e+00 2.0664509419846581e+01 4.6967682640229036e-01 -1.4210442314973360e+01 -2.4255195753060343e+03 -1.3564173336942196e+02 3.3927034612237776e+01 9.7917767234288408e+02 1.2377918102150783e+04 1.8778721130432361e+00 5.2586280626654625e+03 -2.6670055931362747e+01 5.2640791760740922e+02 1.3023830284414046e+01 3.2145376121659908e+01 9.0348345488242188e+01 -9.2582506156749567e+00 -2.6319913850176818e+01 -2.3123287329748604e+02 4.0064046009811827e+04 -7.2889336801277391e+00 4.4465276889516354e+03 3.8293818096057223e+01 -5.1938617525570805e+01 6.1267499551606797e+00 -3.5714689538220598e+04 
      </Row>
      <Row Index="39">
        -5.1554650226157683e-02 -4.9773354508493526e+00 3.3286818482707403e-01 -2.8045428595893762e-01 -1.6656073483375167e-02 2.6520628697562643e+00 1.2934521411517541e-01 9.8433518770616502e+00 -5.7245111512072726e-02 -4.7340888329341446e-01 5.7927868546309338e-02 1.4053687891482855e-01 3.5238945541898062e+01 -2.6619616438408661e-01 1.7969576470514309e-01 -9.0841857479523469e-01 -1.3874258447651300e+01 -3.2470798180583702e+00 -6.5661051043192856e+01 3.3384714383792036e-03 -2.4531509327843537e-02 -1.0838147798351727e-01 -1.0958992311972410e-01 2.4942560247309018e+00 9.0403078018541172e-01 -3.1066885129691868e-01 2.7637726374837257e-01 -3.5517766798183857e+01 1.5787044969003730e+00 -1.5819969562580809e+00 -3.3082107711022446e-01 -6.4432756731471841e-01 -1.6144238709019865e-01 -6.2893098936132041e-03 -4.1722870821961436e+01 1.1670666926078752e-03 -7.9187507591087947e-02 2.9158297813726790e+00 2.6483944171403891e+01 5.3214351159866613e+00 8.2489338950836100e+01 2.7940518355482391e-02 6.9434743277162880e-01 2.8092468748259526e-02 -2.2128226199610745e-02 1.8996993725684987e+00 1.0720311607580257e-01 1.2088989630149372e-02 4.1960995925827262e+00 -1.7750035288365325e+01 -2.2442352958556526e+00 -2.4162947945704218e+01 -2.8970186856824842e-02 2.2052361133000886e-01 1.1521225902640708e-02 1.5466571758863928e-02 -4.3022669444738426e-01 6.9091249574520064e-02 -3.3058197206887741e-03 4.0560355072193488e-01 -6.9974561835203986e-01 1.7835880568272788e-02 -4.3375565597089007e+01 -6.6132066864605932e-03 1.9014557673511945e-01 2.7058422691410289e-03 -3.7596701972058444e-02 -4.0661485942058508e+00 9.0014368686256674e-01 -4.3478643323694038e-01 -2.0477673805492884e+00 -2.5006186227528815e+01 2.0949317015904021e+00 -5.4354746406897902e+00 -3.6697655332883605e-01 -9.6760118626010772e-01 -1.8270874385019667e-01 -4.1285894907708887e-01 -2.5222818895322691e-01 -5.0633151050254455e-03 9.6111910071480722e-01 -8.2784872325151238e-01 1.9757111504873151e+01 -4.9167494983198186e+00 -3.6019604900771558e+00 8.5579936533639811e-01 -2.8537278353308632e-01 5.4054670390147075e-01 -1.9729322003247749e+01 
      </Row>
      <Row Index="40">
        -3.7741598056618386e-01 -2.3627510067712865e+02 8.9449334170701093e+01 -5.3913430171265986e+01 2.3705025209278392e+03 6.5483716155532748e+03 7.5241592680723599e+00 1.8703881330353022e+05 -7.1982464743416870e+00 -1.2112502250878481e+02 -3.5384102909921687e+01 1.6148835845552767e+01 -2.0847947541835151e+02 1.4622827859869744e+01 6.4789043318463030e+01 3.5916980833557318e+01 -9.6204724906748161e+03 -7.1481951849895609e+01 -1.5463632038098574e+05 -3.1122969789517683e+00 9.6670165549519879e+01 1.9601213007133431e+01 -2.6025893984101828e+02 -4.3825972134261046e+03 -1.3562448689468060e+03 -3.3115977259311063e+02 -1.3491031442612777e+04 -2.4433381296966923e+04 -1.8950779804485272e+01 -2.0205624235033989e+04 -1.0528008488915134e+02 4.1902186136179935e+03 -2.6770739084573574e+02 3.4323136491803666e+01 -3.2562454620605467e+02 7.6127296079809526e+00 -2.7966744696279129e+01 -2.3965415505442361e+03 1.7728882946091238e+04 8.2489338874866704e+01 4.5995363334000111e+05 2.1039854839872305e+00 5.5444655302082538e+01 3.5478913993930725e+01 -6.3762908543799313e-01 6.2262789737959611e+02 -1.2819840947090029e+00 9.8497151547588579e-01 -7.7390966813714476e+02 8.4713725322857499e+02 1.5508013147367706e+01 1.5092309783607721e+05 -1.4138308647082226e+01 8.8621204613526061e+01 9.3419258785141892e+00 1.2303044470683773e+00 -1.8061649828741793e+01 -1.5736552167722493e+01 -2.7553909234645744e+00 -5.6724482154147699e+02 -2.2474838530338602e+03 1.3088764575968526e-02 2.2396285610333085e+04 2.4637637062128306e+00 -5.4305007395159919e+00 6.9677109679947691e+00 -2.1850637960444459e+02 -4.4900630517969030e+03 -1.2313577215775249e+03 -3.3487243153753082e+02 -1.4492966549040675e+04 -8.9481595726734959e+03 1.3180321359763578e+01 2.4504862492859364e+04 -1.0408491641948733e+02 4.0967014277296576e+03 -2.3729559041491652e+02 -1.3805889516335833e+02 6.8078809511863966e+01 -3.7403208594020278e+01 2.0881844438870758e+02 1.9698009646005664e+03 1.7324163471845710e+04 1.3112022643217699e+01 3.8024775928014456e+03 3.0679430395714934e+02 1.0666634250820672e+02 3.9517008367289100e+02 -1.1261736897419922e+04 
      </Row>
      <Row Index="41">
