<?xml version="1.0"?>
<MethodSetup Method="DNN::DNN2">
  <GeneralInfo>
    <Info name="TMVA Release" value="4.2.1 [262657]"/>
    <Info name="ROOT Release" value="6.10/09 [395785]"/>
    <Info name="Creator" value="tasheng"/>
    <Info name="Date" value="Mon Jan 17 19:39:59 2022"/>
    <Info name="Host" value="Linux cmsbuild64.cern.ch 2.6.32-696.30.1.el6.x86_64 #1 SMP Tue May 22 06:09:36 CEST 2018 x86_64 x86_64 x86_64 GNU/Linux"/>
    <Info name="Dir" value="/home/tasheng/bmva/TMVA/BP/train"/>
    <Info name="Training events" value="57215"/>
    <Info name="TrainingTime" value="1.55327441e+02"/>
    <Info name="AnalysisType" value="Classification"/>
  </GeneralInfo>
  <Options>
    <Option name="V" modified="Yes">True</Option>
    <Option name="VerbosityLevel" modified="No">Verbose</Option>
    <Option name="VarTransform" modified="Yes">N</Option>
    <Option name="H" modified="Yes">False</Option>
    <Option name="CreateMVAPdfs" modified="No">False</Option>
    <Option name="IgnoreNegWeightsInTraining" modified="No">False</Option>
    <Option name="Layout" modified="Yes">TANH|256,TANH|256,TANH|128,TANH|128,LINEAR</Option>
    <Option name="ErrorStrategy" modified="Yes">CROSSENTROPY</Option>
    <Option name="WeightInitialization" modified="Yes">XAVIERUNIFORM</Option>
    <Option name="Architecture" modified="Yes">CPU</Option>
    <Option name="TrainingStrategy" modified="Yes">LearningRate=1e-1,Momentum=0.9,Repetitions=1,ConvergenceSteps=20,BatchSize=256,TestRepetitions=10,WeightDecay=1e-4,Regularization=L2,DropConfig=0.0+0.5+0.5+0.5,</Option>
  </Options>
  <Variables NVar="6">
    <Variable VarIndex="0" Expression="Btrk1Pt" Label="Btrk1Pt" Title="Btrk1Pt" Unit="" Internal="Btrk1Pt" Type="F" Min="2.00013399e-01" Max="1.00547304e+01"/>
    <Variable VarIndex="1" Expression="abs(Btrk1Dz1/Btrk1DzError1)" Label="Trk1DCAz" Title="Trk1DCAz" Unit="" Internal="Trk1DCAz" Type="F" Min="4.01805992e-05" Max="8.23362500e+03"/>
    <Variable VarIndex="2" Expression="abs(Btrk1Dxy1/Btrk1DxyError1)" Label="Trk1DCAxy" Title="Trk1DCAxy" Unit="" Internal="Trk1DCAxy" Type="F" Min="9.54853531e-05" Max="2.27588608e+02"/>
    <Variable VarIndex="3" Expression="BsvpvDistance/BsvpvDisErr" Label="dls" Title="dls" Unit="" Internal="dls" Type="F" Min="2.00039959e+00" Max="9.31062891e+03"/>
    <Variable VarIndex="4" Expression="Balpha" Label="Balpha" Title="Balpha" Unit="" Internal="Balpha" Type="F" Min="4.76321657e-05" Max="3.14021730e+00"/>
    <Variable VarIndex="5" Expression="Bchi2cl" Label="Bchi2cl" Title="Bchi2cl" Unit="" Internal="Bchi2cl" Type="F" Min="5.00016920e-02" Max="9.99972939e-01"/>
  </Variables>
  <Spectators NSpec="0"/>
  <Classes NClass="2">
    <Class Name="Signal" Index="0"/>
    <Class Name="Background" Index="1"/>
  </Classes>
  <Transformations NTransformations="1">
    <Transform Name="Normalize">
      <Selection>
        <Input NInputs="6">
          <Input Type="Variable" Label="Btrk1Pt" Expression="Btrk1Pt"/>
          <Input Type="Variable" Label="Trk1DCAz" Expression="abs(Btrk1Dz1/Btrk1DzError1)"/>
          <Input Type="Variable" Label="Trk1DCAxy" Expression="abs(Btrk1Dxy1/Btrk1DxyError1)"/>
          <Input Type="Variable" Label="dls" Expression="BsvpvDistance/BsvpvDisErr"/>
          <Input Type="Variable" Label="Balpha" Expression="Balpha"/>
          <Input Type="Variable" Label="Bchi2cl" Expression="Bchi2cl"/>
        </Input>
        <Output NOutputs="6">
          <Output Type="Variable" Label="Btrk1Pt" Expression="Btrk1Pt"/>
          <Output Type="Variable" Label="Trk1DCAz" Expression="abs(Btrk1Dz1/Btrk1DzError1)"/>
          <Output Type="Variable" Label="Trk1DCAxy" Expression="abs(Btrk1Dxy1/Btrk1DxyError1)"/>
          <Output Type="Variable" Label="dls" Expression="BsvpvDistance/BsvpvDisErr"/>
          <Output Type="Variable" Label="Balpha" Expression="Balpha"/>
          <Output Type="Variable" Label="Bchi2cl" Expression="Bchi2cl"/>
        </Output>
      </Selection>
      <Class ClassIndex="0">
        <Ranges>
          <Range Index="0" Min="2.0055849850177765e-01" Max="1.0054730415344238e+01"/>
          <Range Index="1" Min="4.0180599171435460e-05" Max="8.2336250000000000e+03"/>
          <Range Index="2" Min="3.2792278216220438e-04" Max="2.2758860778808594e+02"/>
          <Range Index="3" Min="2.0009975433349609e+00" Max="9.3106289062500000e+03"/>
          <Range Index="4" Min="4.7632165660616010e-05" Max="3.0939915180206299e+00"/>
          <Range Index="5" Min="5.0001692026853561e-02" Max="9.9997293949127197e-01"/>
        </Ranges>
      </Class>
      <Class ClassIndex="1">
        <Ranges>
          <Range Index="0" Min="2.0001339912414551e-01" Max="9.5628461837768555e+00"/>
          <Range Index="1" Min="8.4410829003900290e-04" Max="3.2567260742187500e+03"/>
          <Range Index="2" Min="9.5485353085678071e-05" Max="3.1622268676757812e+01"/>
          <Range Index="3" Min="2.0003995895385742e+00" Max="7.5661132812500000e+03"/>
          <Range Index="4" Min="7.7949196565896273e-04" Max="3.1402173042297363e+00"/>
          <Range Index="5" Min="5.0018373876810074e-02" Max="9.9996358156204224e-01"/>
        </Ranges>
      </Class>
      <Class ClassIndex="2">
        <Ranges>
          <Range Index="0" Min="2.0001339912414551e-01" Max="1.0054730415344238e+01"/>
          <Range Index="1" Min="4.0180599171435460e-05" Max="8.2336250000000000e+03"/>
          <Range Index="2" Min="9.5485353085678071e-05" Max="2.2758860778808594e+02"/>
          <Range Index="3" Min="2.0003995895385742e+00" Max="9.3106289062500000e+03"/>
          <Range Index="4" Min="4.7632165660616010e-05" Max="3.1402173042297363e+00"/>
          <Range Index="5" Min="5.0001692026853561e-02" Max="9.9997293949127197e-01"/>
        </Ranges>
      </Class>
    </Transform>
  </Transformations>
  <MVAPdfs/>
  <Weights InputWidth="6" Depth="5" LossFunction="C" OutputFunction="S">
    <Layer ActivationFunction="3">
      <Weights rows="256" cols="6">
        4.4417526572942734e-02 6.6987469792366028e-02 -7.2210468351840973e-02 5.8665145188570023e-03 7.5919948518276215e-02 2.9204036109149456e-03 5.2489649504423141e-02 5.0444819033145905e-02 -3.6594235897064209e-01 4.0265079587697983e-03 1.3696952164173126e-01 7.6074793934822083e-02 4.4460684061050415e-01 4.9222607165575027e-02 2.8132021427154541e-01 9.9520906805992126e-02 -7.9151518642902374e-02 6.5383128821849823e-02 1.0338624566793442e-01 -6.6488459706306458e-02 4.2061459273099899e-02 -6.0501676052808762e-02 -1.8214079318568110e-03 -7.8809686005115509e-02 1.0393061488866806e-01 -4.5480251312255859e-02 -4.6454718708992004e-01 -6.1798453330993652e-02 1.0280662029981613e-01 -2.2502930369228125e-03 -3.8418072462081909e-01 9.6210032701492310e-02 3.4130102396011353e-01 1.9833931699395180e-02 5.0809849053621292e-02 -1.7186438664793968e-02 -2.8870362043380737e-01 3.8944128900766373e-02 -6.7783665657043457e-01 4.2929486371576786e-03 5.8999102562665939e-02 4.2635016143321991e-02 -6.8197853863239288e-02 6.5941117703914642e-02 1.0112861394882202e+00 9.2730671167373657e-02 -4.3817892670631409e-02 -8.4375170990824699e-04 3.2421475648880005e-01 -3.7995759397745132e-02 -4.1064116358757019e-01 6.8134486675262451e-02 9.8064333200454712e-02 -1.2263022363185883e-02 3.0245843529701233e-01 -6.0827722772955894e-03 4.4368824362754822e-01 5.3213972598314285e-02 -2.2163267433643341e-01 -2.4658203125000000e-02 1.2405177205801010e-01 -8.0882348120212555e-02 1.2639345228672028e-01 1.2045346200466156e-02 -1.4196093380451202e-01 -2.6677865535020828e-02 -3.4587985277175903e-01 2.9664658010005951e-02 -5.3396606445312500e-01 -1.4058448374271393e-01 1.1184630542993546e-01 -4.4614013284444809e-02 -1.5566220879554749e-01 1.7799779772758484e-02 -8.4357380867004395e-01 3.1033646315336227e-02 2.1496208012104034e-01 -1.4885346405208111e-02 -3.0361115932464600e-01 2.9637314379215240e-02 -9.3210715055465698e-01 -5.3043331950902939e-02 1.1124762892723083e-01 -4.0975447744131088e-02 -8.2114666700363159e-02 4.6002078801393509e-02 2.7728888392448425e-01 8.0209344625473022e-02 -1.0577742010354996e-01 1.0954626649618149e-01 -1.4239342510700226e-01 8.7209723889827728e-02 2.8058990836143494e-01 -2.9117073863744736e-02 1.3447703421115875e-01 -5.0670569762587547e-03 3.7489116191864014e-01 8.0465935170650482e-03 7.5901287794113159e-01 9.0425983071327209e-02 -1.7237129807472229e-01 -2.8187835589051247e-02 7.0263117551803589e-01 -2.5289412587881088e-02 1.1066150665283203e+00 2.7820038795471191e-01 -1.2920812368392944e+00 2.1790299564599991e-02 3.1554660201072693e-01 4.3699372559785843e-02 7.8510588407516479e-01 1.1963294446468353e-01 -1.0513500124216080e-01 2.9650952666997910e-02 5.6870721280574799e-02 1.7192626371979713e-02 9.7648471593856812e-02 5.6320916861295700e-02 7.3986776173114777e-02 2.8231246396899223e-02 -3.1415754556655884e-01 1.3689348101615906e-01 5.2401053905487061e-01 9.9824607372283936e-02 2.6758110150694847e-02 4.5371431857347488e-02 3.5427480936050415e-01 -3.7781510502099991e-02 -5.9777534008026123e-01 -1.4919321984052658e-02 -4.9142178148031235e-02 2.0713707432150841e-02 -4.8338776826858521e-01 7.5039044022560120e-02 -7.3776465654373169e-01 1.8952565267682076e-02 -2.6153679937124252e-02 3.4597557038068771e-02 -1.4960899949073792e-01 -2.7865214273333549e-02 -1.2326678037643433e+00 -8.2416925579309464e-03 1.2464177608489990e-01 -1.0272776708006859e-02 1.6049501299858093e-01 1.2810002267360687e-01 1.0237600803375244e+00 2.9723381996154785e-01 -2.2018982097506523e-02 4.3495759367942810e-02 -1.8031783401966095e-02 -5.8651532977819443e-02 -4.2670235037803650e-01 -1.2219631113111973e-02 3.2334219664335251e-02 -2.1955445408821106e-02 -7.3128715157508850e-02 1.8563623726367950e-01 2.3056843876838684e-01 1.5368030965328217e-01 1.2450803071260452e-01 5.2587606012821198e-02 4.3108904361724854e-01 -2.5921151041984558e-02 8.6182320117950439e-01 1.1477227509021759e-01 -8.9662708342075348e-02 1.9693031208589673e-04 -7.5791284441947937e-02 -1.3528201729059219e-02 -4.5998193323612213e-02 -6.6016487777233124e-02 -2.2636801004409790e-02 5.3079139441251755e-02 6.3332295417785645e-01 -5.9492271393537521e-02 7.5786989927291870e-01 2.0395489037036896e-01 -1.7249725759029388e-01 9.2998608946800232e-02 2.8056216239929199e-01 -3.3602714538574219e-02 6.4809322357177734e-02 -4.7025620937347412e-02 6.1173605918884277e-01 6.4575746655464172e-02 -1.0687230527400970e-01 7.3977343738079071e-02 4.3620240688323975e-01 -3.2609645277261734e-02 -1.7019614577293396e-02 1.4828261919319630e-02 2.2840125486254692e-02 2.3402763530611992e-02 -4.8597402870655060e-02 2.5523249059915543e-02 -7.8880392014980316e-02 2.6367211714386940e-02 -3.1017652153968811e-01 7.5449928641319275e-02 3.2373631000518799e-01 6.1670966446399689e-02 -4.5095440000295639e-02 -2.0798562094569206e-02 -3.1796631217002869e-01 1.8969083204865456e-02 -6.6172516345977783e-01 -1.7499274015426636e-01 1.2616507709026337e-01 -1.0299627669155598e-02 2.5586767122149467e-02 -9.8592907190322876e-02 -7.7592976391315460e-02 2.8641306562349200e-04 -2.2579836845397949e-01 2.7950840070843697e-02 2.8909069299697876e-01 -9.7149334847927094e-02 4.0412491559982300e-01 1.7739864066243172e-02 -1.9717344641685486e-01 -7.8923828899860382e-02 6.9143332540988922e-02 1.2882463634014130e-01 -1.2023113667964935e-02 1.3044716417789459e-01 5.8976717293262482e-02 8.6855880916118622e-02 5.9099271893501282e-02 2.3879054933786392e-02 4.3386700749397278e-01 2.2102002985775471e-03 -4.9583446234464645e-02 -3.9749283343553543e-02 3.3740141987800598e-01 -8.2805544137954712e-02 -1.4481325447559357e-01 1.0215339809656143e-01 -1.5703675150871277e-01 8.2592129707336426e-02 -3.2941499352455139e-01 3.6424871534109116e-02 -7.9840910434722900e-01 -2.6861108839511871e-02 6.6818684339523315e-01 -2.9632415622472763e-02 2.5685095787048340e-01 -6.4952589571475983e-02 -9.9260106682777405e-02 -1.1647392995655537e-02 2.6793595403432846e-02 1.6532506793737411e-02 9.1565668582916260e-02 -1.6162119805812836e-01 -5.2062368392944336e-01 -1.3018441200256348e-01 -4.6214569360017776e-02 -2.5960510596632957e-02 1.7457494139671326e-01 -9.8184712231159210e-02 3.2966428995132446e-01 1.0452076792716980e-02 -1.8042443692684174e-01 2.3983927443623543e-02 3.2089757919311523e-01 -5.6247133761644363e-02 9.5000311732292175e-02 1.9697640836238861e-01 -1.4460268616676331e-01 1.2718003988265991e-01 1.6858178377151489e-01 -7.9971507191658020e-02 9.7333037853240967e-01 3.3315844833850861e-02 -2.6466280221939087e-01 2.7031183242797852e-02 -5.0057731568813324e-03 -2.5842569768428802e-02 -2.4814665317535400e-01 -1.3549472391605377e-01 6.5498703718185425e-01 3.1146747991442680e-02 4.2066499590873718e-01 1.5441279392689466e-03 1.1170570850372314e+00 1.4687693119049072e-01 -1.0838033258914948e-01 3.2327927649021149e-02 8.8746547698974609e-02 -7.3752798140048981e-02 -1.5320408344268799e-01 -9.4191573560237885e-02 2.2271355986595154e-01 2.6140118017792702e-02 6.0366246849298477e-02 4.7413900494575500e-02 6.9944745302200317e-01 6.7434147000312805e-02 -4.5223068445920944e-02 -1.4579712413251400e-02 5.9251284599304199e-01 -3.1519163399934769e-02 1.1603231430053711e+00 2.0097124576568604e-01 -1.0973020792007446e+00 1.7946297302842140e-02 8.3765685558319092e-02 2.6267658919095993e-02 6.0455463826656342e-03 9.8167479038238525e-02 -2.7489304542541504e-01 6.3918277621269226e-02 -3.4620946645736694e-01 5.2459505386650562e-03 -1.1463007330894470e-01 -8.9220374822616577e-02 -1.8480068445205688e-01 -1.8260940909385681e-02 4.0059420466423035e-01 -9.3615993857383728e-02 1.0955295562744141e+00 1.1811344884335995e-02 -4.1762077808380127e-01 6.9814771413803101e-02 1.9731386005878448e-01 5.2658226341009140e-02 7.1225583553314209e-01 -2.1192559972405434e-02 5.7485733181238174e-02 7.5290392851457000e-04 -3.6629363894462585e-01 -2.7084220200777054e-02 -9.2238909006118774e-01 -1.3416653871536255e-01 9.7654849290847778e-02 -6.0328900814056396e-02 -5.4550260305404663e-01 -1.2103965505957603e-02 -1.6074454784393311e+00 -1.2284119427204132e-01 1.0782634466886520e-01 -2.4706922471523285e-02 8.4123231470584869e-02 9.4342581927776337e-02 5.9702754020690918e-01 9.9306134507060051e-03 -1.1899685487151146e-02 2.8150480240583420e-02 -4.9455776810646057e-02 6.0558863915503025e-03 -5.2396476268768311e-01 -1.7921689897775650e-02 4.6616807579994202e-01 -6.9612286984920502e-02 4.1635029017925262e-02 -2.3732881993055344e-02 9.5727539062500000e-01 3.9905518293380737e-02 -1.0449419170618057e-01 1.1183585040271282e-02 -4.5364725589752197e-01 -5.1943909376859665e-02 -2.1193899214267731e-01 -8.9519627392292023e-02 7.6930850744247437e-02 -7.3472075164318085e-02 -2.2887986898422241e-01 2.9319802299141884e-02 2.7070647478103638e-01 2.1795172244310379e-02 3.5411786288022995e-02 -2.8933132067322731e-02 1.9839538633823395e-01 -4.1771125048398972e-02 4.4537177681922913e-01 3.0840266495943069e-02 -2.0571655035018921e-01 -3.6857433617115021e-02 3.1236824393272400e-01 1.4622710645198822e-02 8.1066495180130005e-01 1.7011368274688721e-01 -1.6941724717617035e-01 1.4809624850749969e-01 1.0009836405515671e-01 -9.0938573703169823e-03 1.3586330413818359e-01 1.6403204202651978e-01 -1.9269888103008270e-01 5.7658262550830841e-02 1.2127119116485119e-02 -9.3359954655170441e-02 -2.6286748051643372e-01 -1.7357993125915527e-01 6.2531816959381104e-01 1.9133480265736580e-02 1.5635141730308533e-01 7.2426676750183105e-02 2.2730201482772827e-02 1.1772042512893677e-01 -1.2791992723941803e-01 9.4185963273048401e-02 2.5355000980198383e-03 -5.9477366507053375e-02 -7.7129416167736053e-03 4.9629867076873779e-02 -4.6671655029058456e-02 1.5889625996351242e-02 5.8656081557273865e-02 2.0642081275582314e-02 -3.2889547944068909e-01 1.1004981584846973e-02 2.3860546946525574e-01 6.2004134058952332e-02 1.5492341481149197e-03 9.5747329294681549e-02 8.4199154376983643e-01 -2.7487059123814106e-03 -5.8825988322496414e-02 3.3216720912605524e-03 -1.1965855211019516e-01 -2.8779484331607819e-02 -4.6029406785964966e-01 -2.0647688210010529e-01 6.1637442559003830e-02 -1.0907317698001862e-01 -3.2348416745662689e-02 -2.4618525058031082e-03 -4.6495001763105392e-02 -8.9091405272483826e-02 1.0819499939680099e-01 -9.8443113267421722e-02 -3.8205003738403320e-01 5.6761517189443111e-03 7.8333569690585136e-03 -9.6218712627887726e-02 8.6674131453037262e-02 -7.1184098720550537e-02 8.1024296581745148e-02 -4.5583043247461319e-03 8.1033319234848022e-01 1.0306929796934128e-01 -9.7129702568054199e-02 4.0197215974330902e-02 2.5069981813430786e-01 -1.4208024740219116e-01 -5.7761180400848389e-01 -9.9038705229759216e-02 -5.3085971623659134e-02 -4.9169357866048813e-02 -5.9536937624216080e-02 -1.0498717427253723e-02 8.5698001086711884e-02 -6.0954071581363678e-02 2.1037130057811737e-01 8.1937722861766815e-03 -6.9123236462473869e-03 6.1811719089746475e-02 1.6118672490119934e-01 2.8066428378224373e-02 1.4673821628093719e-01 -3.9679106324911118e-02 4.2853677272796631e-01 -2.3952310904860497e-02 1.3875769376754761e+00 1.4054095745086670e-01 -9.3919917941093445e-02 1.3647004030644894e-02 -1.4586246013641357e-01 5.9262547641992569e-02 5.7113492488861084e-01 1.9346782937645912e-02 1.8009713292121887e-01 2.4780711159110069e-02 5.3006321191787720e-01 -1.6568608582019806e-01 7.6772457361221313e-01 -1.5627089142799377e-01 1.4523704349994659e-01 -1.4284682273864746e-01 4.0124878287315369e-02 6.7017875611782074e-02 -1.3634236156940460e-01 6.4751587808132172e-02 6.7862235009670258e-02 1.1234088800847530e-02 -6.8685986101627350e-02 4.1108977049589157e-02 1.9423373043537140e-01 5.3935158066451550e-03 8.4798708558082581e-02 -3.0007019639015198e-02 1.4878189563751221e-01 -4.0555234998464584e-02 -3.1577745079994202e-01 8.1275897100567818e-03 8.1200405955314636e-02 5.5743552744388580e-02 8.5122182965278625e-02 5.5018365383148193e-02 3.5677382349967957e-01 7.0088103413581848e-02 1.9218425452709198e-01 3.2928567379713058e-02 2.5172847509384155e-01 4.3366227298974991e-02 -2.4428963661193848e-01 6.2592819333076477e-02 1.8687206506729126e-01 7.2166316211223602e-02 3.3129081130027771e-01 -1.8275392055511475e-01 3.1952214241027832e-01 -4.3277150392532349e-01 6.9075280427932739e-01 1.0545741766691208e-02 -3.7740433216094971e-01 1.0837015509605408e-01 -1.0014820098876953e-01 -2.1625803783535957e-02 3.9844354987144470e-01 3.9917416870594025e-02 -9.9011123180389404e-02 1.6568961739540100e-01 6.7836123704910278e-01 1.6836990416049957e-01 3.2402865588665009e-02 2.2487487643957138e-02 4.2389643192291260e-01 -1.5647326409816742e-01 -4.2158064246177673e-01 -6.9792866706848145e-02 -9.1498091816902161e-02 -1.5388376079499722e-02 -9.3167491257190704e-02 5.7524822652339935e-02 5.0621762871742249e-02 3.6111187189817429e-02 9.0426750481128693e-02 4.9451407045125961e-02 -1.1561752110719681e-01 -8.8364474475383759e-02 -5.0078904628753662e-01 -1.9139817357063293e-01 3.7142869085073471e-02 -4.3564695864915848e-02 8.1974603235721588e-02 2.0389374345541000e-02 -5.0508505105972290e-01 -1.3565420173108578e-02 -7.9127410426735878e-03 -2.2447478026151657e-02 5.2383750677108765e-01 -1.4751027524471283e-01 1.0331786870956421e+00 1.1027397215366364e-01 -3.3680418133735657e-01 7.1779005229473114e-02 -2.2915774583816528e-01 8.6882762610912323e-02 4.2942714691162109e-01 -6.5397478640079498e-02 -2.6196420658379793e-03 3.7402529269456863e-02 -1.4842914044857025e-01 4.2992141097784042e-02 -2.8286522137932479e-05 1.0728490352630615e-01 -3.8632556796073914e-01 -3.5044115036725998e-02 1.7346456646919250e-01 -8.1625416874885559e-02 5.7309126853942871e-01 2.3538291454315186e-02 -3.9472028613090515e-01 -2.1211784332990646e-02 -4.4352033734321594e-01 -3.5412423312664032e-02 -1.0442894697189331e+00 -8.3917893469333649e-02 1.1863553524017334e-01 -3.0719364061951637e-02 6.5863572061061859e-02 -5.6083746254444122e-02 3.0472612380981445e-01 -8.8365212082862854e-02 -2.9202190041542053e-01 -6.4365006983280182e-02 -1.0508990287780762e-01 1.1307975277304649e-02 -2.1617116034030914e-01 1.7073331773281097e-01 -2.3289838433265686e-01 8.8608920574188232e-02 2.0314952731132507e-01 -4.6049125492572784e-02 7.5996237993240356e-01 -1.5586629742756486e-03 -1.5489313006401062e-01 -1.2954245321452618e-02 3.5768097639083862e-01 -4.2691651731729507e-02 6.6498988866806030e-01 8.8169753551483154e-02 -6.1875534057617188e-01 2.8586324304342270e-02 3.1148788332939148e-01 2.9998380690813065e-02 1.3356779813766479e+00 7.1741677820682526e-02 -8.6864434182643890e-02 2.4841293692588806e-02 -3.3424293994903564e-01 1.2184021761640906e-03 -5.5244106054306030e-01 -1.7306657135486603e-01 7.1849071979522705e-01 -1.1997678084298968e-03 -3.8616165518760681e-01 7.6013510115444660e-03 2.0497603714466095e-01 -2.9251961037516594e-02 4.2084660381078720e-02 5.3513597697019577e-02 -1.1623385548591614e-01 3.0664483085274696e-02 -7.4799323081970215e-01 -1.0705497860908508e-01 1.4689333736896515e-01 -5.9405386447906494e-02 -7.3653094470500946e-02 3.9907842874526978e-02 -5.0672686100006104e-01 9.0541988611221313e-02 1.8967263400554657e-02 7.5628757476806641e-02 -1.8258085846900940e-01 1.8780294060707092e-01 -7.3514521121978760e-02 3.3155846595764160e-01 -6.0051476955413818e-01 4.3503537774085999e-02 6.1763785779476166e-02 -1.8368273973464966e-02 5.9718114137649536e-01 -1.2510414235293865e-02 -2.0687271654605865e-01 1.7387611791491508e-02 -4.2215000838041306e-02 9.6090734004974365e-03 -1.0060573816299438e+00 -3.5807548556476831e-03 6.4709939062595367e-02 1.0569450678303838e-03 1.8361373245716095e-01 -9.4157189130783081e-02 -3.3818593621253967e-01 -1.1776151508092880e-01 8.5627911612391472e-03 -5.7972375303506851e-02 1.3639029860496521e-01 -3.5580933094024658e-02 -9.3256187438964844e-01 -4.6014364808797836e-02 5.6273799389600754e-02 -8.3257397636771202e-04 1.2998887337744236e-02 -5.9360478073358536e-02 -6.6213721036911011e-01 -3.6442298442125320e-02 9.2851035296916962e-02 1.7907295376062393e-02 -1.5499405562877655e-03 7.0998989976942539e-03 6.2512062489986420e-02 6.1392385512590408e-02 -2.4941915273666382e-01 -9.2504406347870827e-03 2.1757827699184418e-01 -2.0545791834592819e-02 5.1994687318801880e-01 1.5031376481056213e-01 -9.4863042235374451e-02 2.3714464157819748e-02 -2.4870218709111214e-02 2.9359174892306328e-02 1.6551625728607178e-01 1.2248650938272476e-01 -6.5721523761749268e-01 -9.7296483814716339e-02 6.5420910716056824e-02 -1.0155845433473587e-01 -1.4857329428195953e-01 -1.9174581393599510e-03 -1.9606465101242065e-01 3.9556056261062622e-02 5.3671252727508545e-01 9.1524105519056320e-03 3.8719233870506287e-01 2.3288062214851379e-01 -9.9649094045162201e-02 3.1405471265316010e-02 3.7383295595645905e-02 1.4500028453767300e-02 -5.2644497156143188e-01 -7.9522527754306793e-02 6.8112067878246307e-02 -3.7279739975929260e-02 3.4010750055313110e-01 -7.2285281494259834e-03 6.4882630109786987e-01 7.9685263335704803e-02 -1.3094845414161682e-01 1.3510692864656448e-02 -4.1113552451133728e-01 -2.0267577841877937e-02 -4.9760270118713379e-01 -3.7869922816753387e-02 -1.8705135211348534e-02 -4.6025989577174187e-03 -1.5378066897392273e-01 5.3980443626642227e-02 1.7062626779079437e-01 -1.1577956378459930e-02 -5.4269295185804367e-02 -4.6909216325730085e-04 2.7267020940780640e-01 5.4905854165554047e-02 5.9870135784149170e-01 2.2377954795956612e-02 -1.3601019978523254e-01 1.2882945127785206e-02 9.5169834792613983e-02 -5.6707505136728287e-02 -1.2349433451890945e-01 -1.1738126724958420e-01 1.4118582010269165e-01 -6.1424512416124344e-02 -3.1703695654869080e-01 -1.7904853448271751e-02 -4.5010510087013245e-01 -2.2428825497627258e-01 6.7659956216812134e-01 -3.8621585816144943e-02 -5.4099154472351074e-01 2.9791338369250298e-02 -5.4654008150100708e-01 -2.3009614646434784e-01 1.0266009718179703e-01 -5.5786203593015671e-02 -4.0061745047569275e-01 1.1105979979038239e-01 1.3816994428634644e-01 -8.0052902922034264e-03 1.4161121845245361e-01 -3.5333860665559769e-02 9.0209111571311951e-02 2.5608733296394348e-02 1.2289639711380005e+00 7.6277047395706177e-02 -6.1599507927894592e-02 9.9492035806179047e-03 1.8484797328710556e-02 2.4869021028280258e-02 3.1376978754997253e-01 -4.0760155767202377e-02 7.0554949343204498e-02 8.2813212648034096e-03 -1.4533798396587372e-01 3.2548595219850540e-02 6.4162296056747437e-01 4.3950859457254410e-02 1.4034127816557884e-02 -1.5392705798149109e-02 3.9208370447158813e-01 -2.1892942488193512e-02 1.2064466476440430e+00 7.3830775916576385e-02 -1.2903904914855957e-01 2.4654738605022430e-02 3.5502213239669800e-01 3.3307880163192749e-02 7.4899405241012573e-01 1.1153370887041092e-01 -1.6908968985080719e-01 4.0339916944503784e-02 2.6680171489715576e-01 8.5965774953365326e-02 2.4939480423927307e-01 1.7993056774139404e-01 -6.8978488445281982e-02 6.3775576651096344e-02 -2.0643845200538635e-01 -4.9148052930831909e-02 5.9377199411392212e-01 6.2523870728909969e-03 -1.2598465383052826e-01 -2.2051231935620308e-02 6.6862322390079498e-02 8.0320583656430244e-03 6.8319666385650635e-01 -4.6854566782712936e-02 -5.8748174458742142e-02 -2.0794460549950600e-02 4.6180915832519531e-01 -1.8990829586982727e-02 9.6236169338226318e-01 3.6767285317182541e-02 -1.7006272077560425e-01 2.3985240608453751e-02 2.1016875281929970e-02 -2.6898965239524841e-02 -5.1984190940856934e-01 -6.8166233599185944e-02 4.8781011253595352e-02 -2.0807655528187752e-03 -1.5629039704799652e-01 9.2547245323657990e-02 -7.0879775285720825e-01 -4.4127963483333588e-02 2.9727968573570251e-01 -5.1699024625122547e-03 -1.2554378807544708e-01 -9.8058469593524933e-02 -1.9350486993789673e+00 -1.3583031296730042e-01 1.9499925896525383e-02 -1.3341202400624752e-02 -5.9687756001949310e-02 -6.5375968813896179e-02 -4.8795178532600403e-01 -1.9117716699838638e-02 1.3041114807128906e-01 -2.6505719870328903e-04 -1.2845788896083832e-01 -2.5084385648369789e-02 1.5256096422672272e-01 -3.8943260908126831e-02 -4.0898635983467102e-02 -1.6440581530332565e-02 -3.5787272453308105e-01 1.1657017469406128e-01 -2.9055389761924744e-01 6.3605293631553650e-02 5.5779919028282166e-02 5.8164689689874649e-02 -7.9897835850715637e-02 -4.0067284135147929e-04 7.5633063912391663e-02 -2.4256762117147446e-02 -7.3182418942451477e-02 -4.5876413583755493e-02 2.8430753946304321e-01 -4.9835667014122009e-02 3.7600523233413696e-01 9.8037362098693848e-02 -4.6950286626815796e-01 -3.1840100884437561e-02 -3.9161171764135361e-02 5.4069389589130878e-03 -5.1741528511047363e-01 -6.2000867910683155e-03 1.6585782170295715e-01 -5.4589118808507919e-02 5.6690216064453125e-01 -5.1178589463233948e-02 1.1285604238510132e+00 9.7823344171047211e-02 -1.0905497074127197e+00 2.6188325136899948e-02 -2.2465151548385620e-01 9.9533371627330780e-02 3.7669554352760315e-01 3.8788765668869019e-02 4.4499848037958145e-02 6.0020023956894875e-03 -1.6919660568237305e-01 1.5462100505828857e-01 3.9015650749206543e-02 1.6702413558959961e-01 1.2204005569219589e-01 1.2863494455814362e-01 -4.3334609270095825e-01 9.0023010969161987e-02 -6.5729272365570068e-01 -6.1366762965917587e-02 4.1368070244789124e-01 -2.4024080485105515e-02 -3.2767078280448914e-01 7.3938943445682526e-02 -3.2676377892494202e-01 9.1908819973468781e-02 -3.5032743215560913e-01 2.5192329660058022e-02 -9.5238961279392242e-02 -5.0882007926702499e-02 -1.0978350639343262e+00 4.4206026941537857e-03 1.0940749198198318e-01 -3.7148727569729090e-03 -3.0495899915695190e-01 5.6511797010898590e-03 -9.0821522474288940e-01 -2.5395199656486511e-02 1.7311760783195496e-01 -3.2007433474063873e-02 1.3194210827350616e-01 -8.9672490954399109e-02 4.6402633190155029e-01 -1.5341308712959290e-01 4.0635609626770020e-01 -5.5797364562749863e-02 -2.7961331605911255e-01 4.2999263852834702e-02 -1.8706363439559937e-01 -4.9156259745359421e-02 3.1130957603454590e-01 -6.3765272498130798e-02 -1.6138918697834015e-01 -1.1426816880702972e-01 -5.6766462326049805e-01 -9.6622757613658905e-02 -1.0751280933618546e-02 -1.7848536372184753e-02 -2.3047576844692230e-01 1.5301986597478390e-02 -5.3188842535018921e-01 -1.3134376704692841e-01 4.7742429375648499e-01 -8.6773917078971863e-02 2.9906195402145386e-01 -6.5107844769954681e-02 -1.5379543602466583e-01 -1.5945779159665108e-02 3.2065577805042267e-02 1.1081878095865250e-02 -1.3286478817462921e-01 2.6493474841117859e-02 8.8585174083709717e-01 5.0839286297559738e-02 -7.5669527053833008e-02 -9.1138938441872597e-03 -1.5831684693694115e-02 -1.4837926626205444e-01 8.0569140613079071e-02 -1.4351302385330200e-01 -6.1441268771886826e-02 -1.0328539460897446e-01 3.0571949481964111e-01 3.5126246511936188e-02 4.3614259362220764e-01 3.0877046287059784e-02 -2.2186918556690216e-01 2.1090991795063019e-02 1.3150218874216080e-02 -2.3294594138860703e-02 -6.3166785240173340e-01 -3.4574322402477264e-02 1.0431968420743942e-01 -6.8605793640017509e-03 -4.2681828141212463e-01 1.0937073081731796e-01 -1.1384943723678589e+00 -9.9222302436828613e-02 2.1254713833332062e-01 -6.4906060695648193e-02 1.3849838078022003e-01 -1.8454188480973244e-02 6.0835576057434082e-01 3.9294496178627014e-02 -1.7335812747478485e-01 9.2333257198333740e-03 2.3243269324302673e-01 -2.3485315963625908e-02 7.2835117578506470e-01 1.1230222135782242e-01 -1.2132665514945984e-01 8.7776128202676773e-03 3.6465391516685486e-01 -1.0290845483541489e-01 8.0239498615264893e-01 1.3101023435592651e-01 -4.2021724581718445e-01 6.7117668688297272e-02 2.3800699412822723e-01 -2.7920592576265335e-02 -1.1456964537501335e-02 2.8228314593434334e-02 9.3632102012634277e-02 -1.6133371740579605e-02 5.1730245351791382e-01 6.2431309372186661e-02 1.3348370790481567e+00 3.4504559636116028e-01 -7.9603098332881927e-02 4.7192513942718506e-02 1.5443028509616852e-01 -2.9553929343819618e-02 -2.2453148663043976e-01 -2.0540958270430565e-02 -1.1148890852928162e-01 -4.4545326381921768e-02 -1.5062579512596130e-01 2.2027610242366791e-01 4.3116714805364609e-02 5.1247441768646240e-01 -8.1612902879714966e-01 1.1633561551570892e-01 2.9148325324058533e-01 -6.8706095218658447e-02 -2.2239767014980316e-01 2.9530288651585579e-02 -1.1884164810180664e-01 -2.6388984173536301e-02 3.7679600715637207e-01 -3.6237224936485291e-02 1.0080395936965942e+00 1.3474823534488678e-01 -1.3049167394638062e-01 5.1865372806787491e-03 2.7006503939628601e-01 6.4490064978599548e-02 9.5409387350082397e-01 9.1106072068214417e-02 -9.4493001699447632e-02 1.4945538714528084e-02 1.2746192514896393e-01 3.6189984530210495e-02 1.1710464209318161e-01 1.5531069040298462e-01 -4.3582048267126083e-02 9.8437815904617310e-02 -1.9736753404140472e-01 -1.0101766139268875e-01 -7.4005502462387085e-01 -4.5476987957954407e-02 7.1395620703697205e-02 -7.5918594375252724e-03 5.0886482000350952e-02 -7.7358588576316833e-02 -3.2119527459144592e-01 -1.5712918713688850e-02 1.0958960652351379e-01 -5.1978640258312225e-02 2.1093407273292542e-01 -5.0683442503213882e-02 5.8052510023117065e-01 -1.2074812501668930e-01 2.0835137367248535e-01 -7.6931469142436981e-02 -2.1506094932556152e-01 -6.8606898188591003e-02 -1.3968067169189453e+00 -7.9583980143070221e-02 -4.9675675109028816e-03 1.8175496952608228e-03 -3.9925426244735718e-01 5.0042387098073959e-02 -1.1609343290328979e+00 -8.3203129470348358e-02 1.8008068203926086e-01 -2.5450831279158592e-02 -1.1056214570999146e-01 3.1131584197282791e-02 -3.7924036383628845e-01 -1.8791343271732330e-01 6.7686372995376587e-01 -1.1576585471630096e-01 -9.5894776284694672e-02 4.4927343726158142e-02 2.5646242499351501e-01 -1.7308242619037628e-02 -3.3305298537015915e-02 -1.0566536802798510e-03 5.0841946154832840e-02 -4.8215527087450027e-02 5.8900171518325806e-01 9.1745391488075256e-02 -1.3547322154045105e-01 5.9675378724932671e-03 -3.9232388138771057e-01 -4.6951165422797203e-03 -5.2151751518249512e-01 -2.4563550949096680e-01 7.8598594665527344e-01 2.0669633522629738e-03 -1.3358932733535767e-01 -6.3938736915588379e-02 3.3935237675905228e-02 -6.6259711980819702e-02 -3.7781171500682831e-02 1.2399088591337204e-02 -2.2656413912773132e-01 7.2229653596878052e-02 5.1882910728454590e-01 4.9208149313926697e-02 -1.3416451402008533e-02 3.0583657324314117e-02 -2.0776372402906418e-02 -8.4038905799388885e-02 -1.0787302255630493e+00 -3.9767965674400330e-02 8.9942678809165955e-02 -2.0603505894541740e-02 1.6754402220249176e-01 -9.7426444292068481e-02 -5.8808273077011108e-01 1.9792409613728523e-02 6.1718784272670746e-02 -2.8871903195977211e-02 -8.3297463133931160e-03 -1.7200641334056854e-02 -3.4336701035499573e-01 3.1554386019706726e-02 1.2421720661222935e-02 4.8614896833896637e-02 -2.0171424746513367e-01 -6.2127456068992615e-02 -3.9498302340507507e-01 -1.3620187342166901e-01 6.9904759526252747e-02 -4.8029258847236633e-02 -2.4463556706905365e-01 -2.6830822229385376e-02 -4.6560421586036682e-01 -4.1115272790193558e-02 1.2461907416582108e-01 2.2747751325368881e-02 3.7929511070251465e-01 -2.2253960371017456e-02 1.0560345649719238e+00 1.2607227265834808e-01 -1.2981122732162476e-01 3.6271378397941589e-02 1.4249524474143982e-01 -3.9827898144721985e-03 -7.5580644607543945e-01 8.6196791380643845e-03 6.7327320575714111e-02 3.1720973551273346e-02 3.3324891328811646e-01 7.3219379410147667e-03 -5.9394005686044693e-02 2.5765347527340055e-04 -2.4356590583920479e-02 -4.5253012329339981e-02 -4.9736034870147705e-01 1.0478824377059937e-01 -6.6140830516815186e-01 -4.0872879326343536e-02 1.6995887458324432e-01 3.0549438670277596e-02 -3.3146834373474121e-01 1.9060617685317993e-01 -2.8026589751243591e-01 3.5377556085586548e-01 -6.5666049718856812e-01 4.1345924139022827e-02 2.8609814122319221e-02 -2.0589813590049744e-02 4.3997374176979065e-01 -8.8945873081684113e-02 2.7348279953002930e-01 -1.0711057111620903e-02 -3.6259311437606812e-01 -2.4963203817605972e-02 -1.4224721193313599e+00 -7.1553289890289307e-02 1.0715112090110779e-01 -1.6455896198749542e-02 4.5385312288999557e-02 -8.5060998797416687e-02 3.2255390286445618e-01 4.5986946672201157e-02 -3.2382264733314514e-01 -5.8842163532972336e-02 2.5383955240249634e-01 -4.8017721623182297e-02 -2.3355412483215332e-01 6.6612772643566132e-02 3.8592442870140076e-02 8.1354632973670959e-02 -2.4359531700611115e-02 5.7204879820346832e-02 5.3757268190383911e-01 -1.0619217529892921e-02 -7.9405739903450012e-02 -2.5275729596614838e-02 -1.5969528257846832e-01 -8.2190670073032379e-03 -1.6654214262962341e-01 -1.4521591365337372e-01 2.1054512262344360e-01 -1.3125273585319519e-01 6.0608129948377609e-02 -4.2273201048374176e-02 1.1035868525505066e-01 -3.5616043955087662e-02 -9.5053449273109436e-02 1.5001779422163963e-02 1.3281196355819702e-01 6.3797901384532452e-03 -2.7985064312815666e-02 -1.9446517527103424e-01 4.6506464481353760e-01 -8.7749939411878586e-03 2.8275944292545319e-02 -2.0405411720275879e-02 -3.4468454122543335e-01 -1.4064691960811615e-02 -8.8828466832637787e-02 2.5900389999151230e-02 1.1341533809900284e-01 -1.7474246025085449e-01 -1.2164761871099472e-01 -3.2296830415725708e-01 7.7744239568710327e-01 8.7361820042133331e-02 -7.7026389539241791e-02 4.9323786050081253e-02 -1.1342928744852543e-02 7.3403500020503998e-02 1.2985058128833771e-01 4.7736734151840210e-02 -3.6017969250679016e-01 -1.3201108202338219e-02 -7.2819387912750244e-01 -1.7052201926708221e-01 9.9790334701538086e-02 -3.1404320150613785e-02 -8.7432160973548889e-02 8.6692705750465393e-02 3.6713472008705139e-01 1.0723297484219074e-02 8.3776131272315979e-02 -6.4386050216853619e-03 3.1443840265274048e-01 -1.8329924345016479e-01 2.4376076459884644e-01 -3.7174427509307861e-01 6.5492254495620728e-01 -1.0440015466883779e-04 1.0131604224443436e-01 4.3237898498773575e-02 1.2104348093271255e-01 -4.5377068221569061e-02 2.8706440702080727e-02 1.5524510294198990e-02 -3.5600239038467407e-01 -1.4900853857398033e-02 -8.0682152509689331e-01 -8.2706250250339508e-02 9.7455158829689026e-02 -3.3752694725990295e-02 -3.3592882752418518e-01 1.9549581408500671e-01 5.4961454868316650e-01 1.2553702294826508e-01 7.6169118285179138e-02 5.0157818943262100e-02 -1.2541908025741577e-01 5.5728744715452194e-02 3.0210560560226440e-01 6.8053908646106720e-02 -1.4079178869724274e-01 -1.8260503187775612e-02 -7.7637834474444389e-03 5.0659343600273132e-02 8.8266992568969727e-01 1.2999592721462250e-01 -9.8636157810688019e-02 2.7531435713171959e-02 1.9814668595790863e-01 -1.6625796258449554e-01 -1.0282620191574097e+00 -6.5478630363941193e-02 -2.5177346542477608e-02 5.6684482842683792e-03 3.3815868664532900e-03 1.1523890495300293e-01 -1.2461125850677490e-01 2.2761094570159912e-01 -4.5498329401016235e-01 -8.2301739603281021e-03 4.1316741704940796e-01 -5.7429224252700806e-03 7.6846116781234741e-01 2.0899412035942078e-01 -3.4819584339857101e-02 2.8466956689953804e-02 7.0775255560874939e-02 5.4754605516791344e-03 5.7922583073377609e-02 5.4187741130590439e-02 -1.5615086257457733e-01 9.5020122826099396e-03 1.5923953056335449e-01 1.1763004213571548e-01 4.8903569579124451e-01 1.0401487350463867e-01 -7.5477980077266693e-02 4.6832036226987839e-02 1.5410163998603821e-01 -6.3950754702091217e-02 -5.3022867441177368e-01 9.7513660788536072e-02 -6.5264798700809479e-02 1.3077885843813419e-02 2.7874183654785156e-01 7.1593031287193298e-02 8.9019583538174629e-03 4.9586016684770584e-02 -4.5061176642775536e-03 6.6313154995441437e-02 -3.9159673452377319e-01 4.5821603387594223e-02 -1.7933860421180725e-01 -9.2830434441566467e-02 1.8867231905460358e-02 2.0742224529385567e-02 4.0443714708089828e-02 2.5924111250787973e-03 -2.3333018645644188e-02 -1.3882772065699100e-02 9.7186751663684845e-02 6.8777089472860098e-04 6.3950143754482269e-02 2.5787713006138802e-02 9.8619246482849121e-01 6.3563495874404907e-02 -1.5706734359264374e-01 1.0903699696063995e-01 -1.5645317733287811e-02 1.0588815808296204e-01 -2.9119765385985374e-02 1.6350001096725464e-02 6.9134280085563660e-02 -8.0363797023892403e-03 7.7500239014625549e-02 8.4099240601062775e-02 3.2537364959716797e-01 4.0971267968416214e-02 -9.6594691276550293e-02 8.0039553344249725e-02 -1.6882839798927307e-01 2.5923486799001694e-02 3.5807001590728760e-01 -4.6863975003361702e-03 -1.3240084052085876e-01 5.8422226458787918e-02 -1.7906709015369415e-01 2.4785412475466728e-02 -9.6686846017837524e-01 -1.2076296657323837e-01 9.7492188215255737e-02 -9.9144345149397850e-03 1.5052199363708496e-01 -2.6546044275164604e-02 3.8375869393348694e-01 3.4104820340871811e-02 -1.3705275952816010e-01 -7.1328453719615936e-02 2.7299430966377258e-01 -3.0409084632992744e-02 7.5921070575714111e-01 -4.5665707439184189e-03 -7.3390886187553406e-02 -2.0860960707068443e-02 -2.8712654113769531e-01 7.6453261077404022e-02 -1.2884920835494995e-01 -2.8104277327656746e-02 9.0263374149799347e-02 1.1405279859900475e-02 -4.4832322746515274e-02 -2.5240201503038406e-02 6.3415676355361938e-02 -5.9395849704742432e-02 3.2064488530158997e-01 4.4502094388008118e-02 -3.4792596101760864e-01 -4.8370864242315292e-02 -7.8665190935134888e-01 -8.3531133830547333e-02 1.3294504582881927e-01 -4.0967566892504692e-03 -2.2397093474864960e-01 1.9038856029510498e-02 3.1393247842788696e-01 -4.4711373746395111e-02 -4.8965107649564743e-02 -1.3484131544828415e-02 -1.1400343477725983e-01 8.2799203693866730e-02 -1.6973238438367844e-02 -4.6193944290280342e-03 5.0271522998809814e-01 9.0594805777072906e-02 3.3154213428497314e-01 -8.5368538275361061e-03 5.9473681449890137e-01 1.0788394138216972e-03 -1.1239629983901978e-01 -2.2013049572706223e-02 1.3229651749134064e-01 -1.2481576204299927e-01 -3.8933375477790833e-01 4.4531997293233871e-02 -9.9134594202041626e-02 -1.7484085634350777e-02 -1.7997102439403534e-01 9.7104080021381378e-02 -1.1970839649438858e-01 2.8207856416702271e-01 -6.4966452121734619e-01 -2.8799394145607948e-02 1.1872191913425922e-02 4.5814039185643196e-03 -2.4360394477844238e-01 -2.9154323041439056e-02 3.8985583186149597e-01 5.7013477198779583e-03 2.2999168932437897e-01 5.5046770721673965e-02 1.1334339380264282e+00 8.5570551455020905e-02 -6.6508352756500244e-02 1.5581686981022358e-02 -4.9909282475709915e-02 2.9930608347058296e-02 -1.9568367302417755e-01 5.9430627152323723e-03 2.1526433527469635e-01 -1.4439777471125126e-02 -4.1330680251121521e-01 5.7712841778993607e-02 -7.7815961837768555e-01 -1.1335242539644241e-02 8.8455773890018463e-02 2.5550322607159615e-02 -3.6710798740386963e-01 1.1490362137556076e-01 -6.5372508764266968e-01 9.5798328518867493e-02 -1.7627371847629547e-01 3.9232239127159119e-02 2.6846629381179810e-01 -1.0102901607751846e-01 -1.9622425734996796e-01 -2.9772870242595673e-02 2.5181686505675316e-02 -7.4563883244991302e-02 -3.2380402088165283e-02 3.8274358958005905e-02 4.6951347589492798e-01 -1.9890997558832169e-02 -1.0786818712949753e-01 2.5153284892439842e-02 -1.4648328721523285e-01 1.1733852326869965e-01 2.3828680813312531e-01 -4.7801699489355087e-02 1.6193813085556030e-01 -9.5677189528942108e-03 -2.5408527255058289e-01 1.1103480309247971e-01 -4.4989651441574097e-01 3.7336297333240509e-02 8.3924278616905212e-02 3.9862565696239471e-02 2.5515592098236084e-01 2.2389166057109833e-02 2.5481057167053223e-01 1.7624554038047791e-01 -4.2912995815277100e-01 4.4721096754074097e-02 -7.9982250928878784e-02 2.6044476777315140e-02 -2.5532094761729240e-02 -7.9332962632179260e-03 2.0190915092825890e-02 3.7233788520097733e-02 3.0239555239677429e-01 -3.9476402103900909e-02 8.5032850503921509e-01 9.8839864134788513e-02 -1.9641922414302826e-01 5.3259357810020447e-02 -7.6262511312961578e-02 -9.6213564276695251e-02 -4.8766970634460449e-01 -1.0268399119377136e-01 -3.2275654375553131e-02 -2.1070900838822126e-03 -1.2371585518121719e-01 -1.5696655213832855e-01 -2.0270949602127075e-01 -1.3510599732398987e-01 -1.0873068124055862e-01 -8.6905144155025482e-02 -9.8693393170833588e-02 2.5713259354233742e-02 5.2974903583526611e-01 -7.3502346873283386e-02 3.3086609095335007e-02 -1.2448527850210667e-02 -1.1848786473274231e-01 2.9836634173989296e-02 -6.6738945245742798e-01 -1.5268979594111443e-02 1.7016844451427460e-01 -2.2934803739190102e-02 3.3565202355384827e-01 1.5745786949992180e-02 4.5425504446029663e-01 9.0190574526786804e-02 -9.8986007273197174e-02 2.4203987792134285e-02 4.7609061002731323e-01 -7.7346347272396088e-02 3.4041050076484680e-01 1.1337896808981895e-02 7.6205193996429443e-02 1.1724722571671009e-02 8.1307470798492432e-02 3.8331203162670135e-02 -3.5107061266899109e-01 1.2345442920923233e-01 -3.2629260420799255e-01 -2.8197154402732849e-02 2.7458298206329346e-01 3.5222534090280533e-02 3.6942881345748901e-01 8.2413449883460999e-02 -2.4012264609336853e-01 5.9994518756866455e-02 
      </Weights>
      <Biases rows="256" cols="1">
        1.1941917240619659e-01 -1.2191242724657059e-01 7.3328834772109985e-01 2.1215746528469026e-04 -3.6682242155075073e-01 1.3643524050712585e-01 -7.9818344116210938e-01 1.0028891563415527e+00 4.5461598783731461e-03 5.3326165676116943e-01 3.1115630641579628e-02 -8.1391417980194092e-01 -6.9526463747024536e-01 -1.0601558685302734e+00 2.2620841860771179e-01 3.1303459405899048e-01 1.0053969621658325e+00 6.6137343645095825e-01 1.0945109128952026e+00 2.7695682644844055e-01 4.8204126954078674e-01 -3.4305566549301147e-01 -1.0449950695037842e+00 -1.2210420370101929e+00 1.5220246315002441e+00 -4.4797611236572266e-01 6.0838216543197632e-01 1.1974061727523804e+00 -2.0624740421772003e-01 1.2888253927230835e+00 7.7391964197158813e-01 3.3669534325599670e-01 -4.1190199553966522e-02 1.3992889225482941e-01 -9.5382905006408691e-01 -3.5127857327461243e-01 3.8625824451446533e-01 3.5682064294815063e-01 4.2699563503265381e-01 3.8909025490283966e-02 -3.8414242863655090e-01 7.0025376975536346e-02 -7.3265671730041504e-01 1.9186180830001831e-01 3.9216262102127075e-01 7.9829436540603638e-01 2.2037526965141296e-01 1.4804000854492188e+00 -4.1019365191459656e-02 7.7277874946594238e-01 7.1686536073684692e-01 -3.6583688110113144e-02 -6.4970880746841431e-01 9.5138764381408691e-01 9.0114879608154297e-01 -1.2730332612991333e+00 -2.0537190437316895e+00 7.1698051691055298e-01 -1.3331942260265350e-01 8.5750609636306763e-01 -6.7339801788330078e-01 1.3190697133541107e-01 3.9618074893951416e-01 1.1144318580627441e+00 1.9350038468837738e-01 5.0414610654115677e-02 2.4245685338973999e-01 -5.3680468350648880e-02 -1.7098121345043182e-02 8.2600831985473633e-01 -7.3317992687225342e-01 -6.8912364542484283e-02 -3.4072914719581604e-01 8.4185230731964111e-01 -6.0409247875213623e-01 1.4057427644729614e-01 3.5670909285545349e-01 1.7294660806655884e+00 6.1902534961700439e-01 1.0420637130737305e+00 1.1230195313692093e-01 2.3436518013477325e-01 -1.1577301472425461e-01 6.8481165170669556e-01 2.6500955224037170e-01 4.9707242846488953e-01 3.1429145485162735e-02 8.9931792020797729e-01 -3.3618375658988953e-01 1.4067266881465912e-01 -8.2065218687057495e-01 -3.8375332951545715e-01 1.1194999217987061e+00 2.2661969065666199e-01 -3.1649667024612427e-01 2.5152668356895447e-01 -1.3896063566207886e+00 -8.2979604601860046e-02 -3.0374863743782043e-01 7.0576864480972290e-01 3.8911068439483643e-01 1.5648169517517090e+00 -3.0430713295936584e-01 -1.3023798167705536e-01 -7.5797623395919800e-01 -3.9946854114532471e-01 -2.0541244745254517e-01 4.0920424461364746e-01 -9.1124850511550903e-01 -3.7131062150001526e-01 -7.9138892889022827e-01 -6.2267929315567017e-01 -9.4209246337413788e-02 7.2369134426116943e-01 -3.3301243185997009e-01 -3.7161788344383240e-01 9.9473226070404053e-01 -4.6691370010375977e-01 8.6780875921249390e-01 -8.8993370532989502e-01 2.1140092983841896e-02 7.5965511798858643e-01 -9.2021293938159943e-02 -3.0026483535766602e-01 -1.1003315448760986e+00 -3.7950086407363415e-03 1.2849267721176147e+00 3.4534826874732971e-01 5.5760276317596436e-01 1.4303799867630005e+00 1.0172765254974365e+00 6.7824196815490723e-01 2.3059745132923126e-01 5.9729802608489990e-01 1.1856601238250732e+00 -5.0731486082077026e-01 -4.8445838689804077e-01 -2.1508932113647461e+00 -4.8392796516418457e-01 -6.9917060434818268e-02 -3.4510141611099243e-01 -8.9665234088897705e-02 2.0794303715229034e-01 -3.7290537357330322e-01 5.4778683185577393e-01 3.2548406720161438e-01 3.3208173513412476e-01 -5.7944542169570923e-01 -7.4206113815307617e-01 -1.0644193887710571e+00 -9.8292285203933716e-01 6.3770699501037598e-01 -1.5225026011466980e-01 -8.8055860996246338e-01 -4.0412861108779907e-01 5.6882228702306747e-02 7.1675950288772583e-01 -2.8987425565719604e-01 5.6288719177246094e-01 -5.4378831386566162e-01 -1.2740356922149658e+00 5.6116205453872681e-01 8.7021839618682861e-01 7.3424196243286133e-01 2.7364510297775269e-01 2.0786950588226318e+00 -2.3077750205993652e-01 4.8176579177379608e-02 -1.0471086949110031e-01 1.2701352834701538e+00 1.2049964666366577e+00 3.8664519786834717e-01 -9.5133483409881592e-01 -2.6128694415092468e-01 7.2831356525421143e-01 -1.6340823173522949e+00 -1.3435648679733276e+00 1.2382986955344677e-02 1.5265326201915741e-01 5.1239925622940063e-01 -3.2524901628494263e-01 -2.4661597609519958e-01 3.9183244109153748e-01 -1.0823459625244141e+00 -4.3551886081695557e-01 -2.9379549622535706e-01 -6.8264633417129517e-01 -6.1218935251235962e-01 1.3196352720260620e+00 -5.0872159004211426e-01 2.2219796478748322e-01 -8.5095220804214478e-01 -5.2676397562026978e-01 5.5558496713638306e-01 -1.6641135215759277e+00 2.4533446412533522e-03 4.6129319816827774e-02 4.5959576964378357e-01 -2.8529170155525208e-01 -1.2974151410162449e-02 3.0948898196220398e-01 -4.0503501892089844e-01 1.1587100476026535e-01 1.5792486071586609e-01 -1.0978944301605225e+00 4.2396542429924011e-01 4.8132240772247314e-01 2.2565512359142303e-01 -1.0816973447799683e+00 6.1662262678146362e-01 1.8048860132694244e-01 9.2895090579986572e-01 -1.0432502031326294e+00 -1.7165097594261169e-01 1.2502422332763672e+00 3.4683123230934143e-02 7.6051008701324463e-01 -3.7589958310127258e-01 3.8217160105705261e-01 -5.3452903032302856e-01 8.7516412138938904e-02 9.5747691392898560e-01 1.5182642638683319e-01 4.2366558313369751e-01 1.0152193158864975e-01 -1.0678671598434448e+00 3.7270653247833252e-01 8.4864807128906250e-01 -2.3701195418834686e-01 2.1091121435165405e-01 -1.0602662563323975e+00 2.6642123237252235e-02 4.3254506587982178e-01 7.4721133708953857e-01 -4.0752375125885010e-01 -4.3327444791793823e-01 1.1887077987194061e-01 1.3362067937850952e+00 5.4971426725387573e-03 -9.6604770421981812e-01 -8.6343991756439209e-01 -6.8085998296737671e-02 3.3030608296394348e-01 3.0806344747543335e-01 -4.0980383753776550e-01 2.7409124374389648e-01 -5.4437797516584396e-02 9.7268509864807129e-01 -7.4618214368820190e-01 -6.8392741680145264e-01 3.8758867979049683e-01 -5.5474233627319336e-01 7.3209756612777710e-01 7.1459817886352539e-01 -3.7029126286506653e-01 5.0543683767318726e-01 
      </Biases>
    </Layer>
    <Layer ActivationFunction="3">
      <Weights rows="256" cols="256">
        -7.2950883768498898e-03 7.4651530012488365e-03 -1.6490072011947632e-02 -6.3167284242808819e-03 7.3093883693218231e-03 -1.4873203821480274e-02 3.5280968993902206e-02 -3.1309191137552261e-02 5.9603815898299217e-03 -1.0819204151630402e-02 5.5961087346076965e-03 2.9029713943600655e-02 3.5181224346160889e-02 4.3987110257148743e-02 -1.8468376249074936e-02 -1.9060095772147179e-02 -2.3835632950067520e-02 -1.5069417422637343e-03 -2.1021138876676559e-02 -6.1291479505598545e-03 -1.3751740567386150e-02 2.7986666187644005e-02 4.2894359678030014e-02 3.7211243063211441e-02 -4.0918912738561630e-02 1.5162508934736252e-02 -1.8294390290975571e-02 -4.2146477848291397e-02 4.5680822804570198e-03 -2.3103747516870499e-02 -3.4622814506292343e-02 -1.2188372202217579e-02 8.2859592512249947e-03 -6.4485432812944055e-04 3.1250111758708954e-02 9.3902964144945145e-03 -1.2526506558060646e-02 -2.6331548579037189e-03 -2.2942142561078072e-02 1.2991738505661488e-02 3.6768789868801832e-03 5.4697580635547638e-03 2.4263219907879829e-02 -1.0324185714125633e-02 7.0782969705760479e-03 -1.8515771254897118e-02 -4.6608154661953449e-03 -4.7055624425411224e-02 3.0421589035540819e-03 -3.0052904039621353e-02 -2.0867109298706055e-02 1.2628798373043537e-02 1.6925450414419174e-02 -3.1033443287014961e-02 -3.0594397336244583e-02 4.0500327944755554e-02 6.7797385156154633e-02 -2.6939591392874718e-02 -3.5873965825885534e-03 -4.5020338147878647e-02 1.3111493550240993e-02 -9.8490100353956223e-03 -3.4594347234815359e-03 -2.3222088813781738e-02 5.4685480426996946e-04 -1.6703994944691658e-02 6.1589141841977835e-04 9.0358462184667587e-03 4.5159347355365753e-03 -3.3081006258726120e-02 2.0999267697334290e-02 -2.6188686024397612e-03 -1.4944025315344334e-03 -3.5697735846042633e-02 2.2148652002215385e-02 -1.9654312636703253e-03 -8.5240397602319717e-03 -5.5085048079490662e-02 -3.7856068462133408e-02 -2.9212314635515213e-02 9.7036588704213500e-04 -5.5165481753647327e-03 9.8959850147366524e-03 -3.3603064715862274e-02 1.0065578389912844e-03 -4.6267591416835785e-02 -1.3531030155718327e-02 -2.9414996504783630e-02 1.5360647812485695e-02 -1.5676493057981133e-03 2.7752811089158058e-02 3.1611137092113495e-02 -2.8630325570702553e-02 -1.1982462368905544e-02 3.0313540250062943e-02 -1.0885393247008324e-02 5.0900813192129135e-02 -2.5275775697082281e-03 2.2288857027888298e-02 -2.2836357355117798e-02 -8.7446784600615501e-03 -6.4728878438472748e-02 2.7089717332273722e-03 -1.2345159426331520e-02 2.5276845321059227e-02 2.5230262428522110e-02 2.4896694347262383e-02 -7.3017729446291924e-03 5.0109017640352249e-02 1.4499224722385406e-02 3.8495201617479324e-02 2.4832045659422874e-02 4.1937208734452724e-03 -2.0860690623521805e-02 1.5613331459462643e-02 -2.5643392000347376e-03 -2.3268638178706169e-02 1.8296686932444572e-02 -2.8520075604319572e-02 2.4887647479772568e-02 -7.8156497329473495e-03 -1.6343124210834503e-02 3.9362534880638123e-03 7.0968447253108025e-03 2.3685948923230171e-02 -6.1547197401523590e-03 -4.2044859379529953e-02 -9.3307606875896454e-03 -3.5955898463726044e-02 -5.2829328924417496e-02 -3.4162115305662155e-02 -6.7844144068658352e-03 -2.4141049012541771e-02 -2.2945621982216835e-02 -3.6689631640911102e-02 3.1159022822976112e-02 1.3316794298589230e-02 8.1878811120986938e-02 9.0327542275190353e-03 -8.5573373362421989e-03 6.6560809500515461e-03 6.0417349450290203e-03 2.6403751689940691e-03 2.3176716640591621e-02 -7.7929012477397919e-03 -2.0049560815095901e-02 -2.7622359339147806e-03 2.6077156886458397e-02 2.1420592442154884e-02 3.6323171108961105e-02 3.2049309462308884e-02 -3.6737442016601562e-02 -2.7951661031693220e-03 2.8786765411496162e-02 -1.3946201652288437e-03 -6.9615879328921437e-04 -2.7020903304219246e-02 7.8201489523053169e-03 -8.8077457621693611e-03 3.2674603164196014e-02 4.4763702899217606e-02 -2.0933998748660088e-02 -1.7186781391501427e-02 -2.5689663365483284e-02 -5.1381755620241165e-03 -5.8453615754842758e-02 1.4981239102780819e-02 2.9011953622102737e-02 1.6260007396340370e-02 -3.2749287784099579e-02 -2.7914408594369888e-02 -3.7897462025284767e-03 3.5887449979782104e-02 1.4551251195371151e-02 -1.8929248675704002e-02 5.2717745304107666e-02 3.8545418530702591e-02 -1.3054744340479374e-03 -9.1633498668670654e-03 -1.1929686181247234e-02 1.1047616600990295e-02 -2.9105591238476336e-04 -2.6750510558485985e-02 4.7692432999610901e-02 2.6773298159241676e-02 3.3995721023529768e-03 1.5525271184742451e-02 1.9032321870326996e-02 -3.4056302160024643e-02 2.3572534322738647e-02 8.5678929463028908e-03 2.7232715860009193e-02 3.9419546723365784e-02 -3.1904965639114380e-02 4.9902725964784622e-02 -1.2993224896490574e-02 -1.0671576485037804e-02 -1.8839295953512192e-02 -4.3600676581263542e-03 -1.3394969573710114e-04 -1.6204139217734337e-02 2.8328770771622658e-02 -3.4414548426866531e-02 -1.1969412676990032e-02 2.1445563063025475e-02 -1.4842265285551548e-02 -3.1030107289552689e-02 -1.5521699562668800e-02 3.4512721002101898e-02 -1.4777974225580692e-02 -1.0880773887038231e-02 -3.6176305264234543e-02 4.6194553375244141e-02 1.8527517095208168e-02 -4.4152233749628067e-02 4.3397606350481510e-03 -1.4924257062375546e-02 1.8743870779871941e-02 2.5259356480091810e-03 8.0149155110120773e-03 -1.0268420912325382e-02 -4.6242162585258484e-02 1.7849821597337723e-03 -3.2088649459183216e-03 -1.3450424186885357e-02 4.2426005005836487e-02 -1.2949272058904171e-02 -2.7394168078899384e-02 7.4675097130239010e-03 -1.7191873863339424e-02 3.4479808062314987e-02 -8.7327128276228905e-03 -1.3230149634182453e-02 -2.5518655776977539e-02 2.4657946079969406e-02 3.2006755471229553e-02 -1.5596107579767704e-02 -4.5962832868099213e-02 -5.7013453915715218e-03 4.1957680135965347e-02 3.7906207144260406e-02 5.6718913838267326e-03 -2.2158307954668999e-02 -4.7737164422869682e-03 2.6041902601718903e-02 1.2724490079563111e-04 3.9547993801534176e-03 -3.0189299955964088e-02 1.8962977454066277e-02 1.3280452229082584e-02 -2.3342236876487732e-02 2.9465269297361374e-02 -1.9078241661190987e-02 -2.3759376257658005e-02 3.2067142426967621e-02 -5.7818130590021610e-03 4.0232492610812187e-03 1.9962077494710684e-03 5.2152518182992935e-02 3.7990644341334701e-04 -1.9508200930431485e-03 5.1335878670215607e-03 -4.0317893028259277e-02 4.3946001678705215e-02 1.2473923154175282e-02 2.1198831498622894e-02 -9.9232827778905630e-04 -3.8449823856353760e-02 -2.9360784217715263e-02 -4.6049565076828003e-02 5.8821109123528004e-03 1.1404966935515404e-03 5.0022069364786148e-02 1.6241652891039848e-02 4.9345117062330246e-02 1.5574852004647255e-02 1.2776888906955719e-02 -9.7800614312291145e-03 -6.9228366017341614e-02 -4.6492192894220352e-02 7.5209915637969971e-02 -1.9383804872632027e-02 2.3505838587880135e-02 5.7257957756519318e-02 -1.0070393793284893e-02 7.1133486926555634e-02 4.4203702360391617e-02 1.4255047775804996e-02 -1.8994220299646258e-03 -1.1189687997102737e-02 -4.4920571148395538e-02 -2.4974767118692398e-02 2.4858195334672928e-02 2.5646366178989410e-02 2.7102099731564522e-02 1.1070700362324715e-02 -2.7917644474655390e-03 1.0529221035540104e-02 -2.1169301122426987e-02 1.2054170481860638e-02 3.4383416175842285e-02 3.1846031546592712e-02 2.3152425885200500e-02 7.6862104237079620e-02 -6.4269471913576126e-03 2.6009717956185341e-02 1.8646003678441048e-02 -8.6943787755444646e-04 -3.3843278884887695e-02 4.0266744792461395e-02 3.6760624498128891e-02 -5.4320849478244781e-02 -1.0137002915143967e-01 3.3220712095499039e-02 1.8532505258917809e-02 3.2706208527088165e-02 -4.2752303183078766e-02 -1.1399736395105720e-03 2.6573294773697853e-02 4.4810943305492401e-02 2.8283152729272842e-02 1.6427364200353622e-02 4.8246998339891434e-03 3.1633472535759211e-03 5.5916979908943176e-03 3.5384248942136765e-02 -3.0453894287347794e-02 -9.1552790254354477e-03 -1.8475254997611046e-02 4.5391943305730820e-02 -3.1082093715667725e-02 1.4759679324924946e-02 1.6109187155961990e-02 8.8577315211296082e-02 2.8697619214653969e-02 4.2577277868986130e-02 -4.2198947630822659e-03 8.8453842326998711e-03 -8.7008643895387650e-03 4.2312175035476685e-02 1.6363430768251419e-02 5.8927897363901138e-02 4.3958211317658424e-03 4.4990789145231247e-02 5.1972450455650687e-04 -2.5389750953763723e-04 -3.6571964621543884e-02 -3.6393650807440281e-03 4.9225341528654099e-02 -1.1652547866106033e-02 -4.3087698519229889e-02 2.2246338427066803e-02 -6.3546083867549896e-02 1.2350801844149828e-03 -2.0587669685482979e-02 2.4571796879172325e-02 1.2162165716290474e-02 7.1769259870052338e-02 5.9799458831548691e-03 -6.9114593788981438e-03 -3.9690148085355759e-02 -1.7828494310379028e-02 -4.1822690516710281e-02 1.1893074028193951e-02 -2.9367299750447273e-02 -9.6656912937760353e-03 -3.6281429231166840e-02 -2.8481850400567055e-02 1.3723790179938078e-03 4.3822664767503738e-02 -2.1799061447381973e-02 -1.4180926606059074e-02 6.3301302492618561e-02 -1.8258303403854370e-02 4.5833963900804520e-02 -4.1189096868038177e-02 -9.9259484559297562e-03 2.5629652664065361e-02 1.1798838153481483e-02 -5.3768474608659744e-03 -6.7246980965137482e-02 3.1259639654308558e-03 5.1120139658451080e-02 2.3985145613551140e-02 1.5030575916171074e-02 6.3424445688724518e-02 4.6594142913818359e-02 4.2450886219739914e-02 -6.8467361852526665e-03 2.6413092389702797e-02 5.7243045419454575e-02 -3.5110451281070709e-02 -2.7291085571050644e-02 -9.4462059438228607e-02 -8.3178179338574409e-03 -4.7137914225459099e-03 -2.9773596674203873e-02 3.2184661831706762e-03 4.7112782485783100e-03 -7.9792011529207230e-03 6.7101456224918365e-03 1.6424059867858887e-02 5.7020719395950437e-04 -3.9891988039016724e-02 -3.0825441703200340e-02 -3.7261158227920532e-02 -4.4595003128051758e-02 4.8642862588167191e-02 -1.2768341694027185e-03 -4.1151564568281174e-02 -5.8394810184836388e-03 1.2866609729826450e-02 3.6584414541721344e-02 -2.6754450518637896e-03 1.6305722296237946e-02 -1.5827486291527748e-02 -5.3481228649616241e-02 1.7264865338802338e-02 4.0322199463844299e-02 2.3423360660672188e-02 2.2938931360840797e-02 1.0429480671882629e-01 6.0956394299864769e-03 -5.5948339402675629e-02 1.3984304852783680e-02 5.6804645806550980e-02 5.9191796928644180e-02 1.8881436437368393e-02 -3.7429787218570709e-02 -4.0469155646860600e-03 3.8926117122173309e-02 -8.0694705247879028e-02 -6.1337158083915710e-02 1.4445580542087555e-02 8.9816991239786148e-03 2.9469778761267662e-02 -2.6008577551692724e-03 -2.1559325978159904e-02 1.1275272816419601e-02 -4.3441124260425568e-02 2.1055096294730902e-03 -7.4850870296359062e-03 -3.8545817136764526e-02 -1.9886914640665054e-02 7.3863111436367035e-02 -2.1747896447777748e-02 1.1173279024660587e-02 -6.0539059340953827e-02 -6.2327288091182709e-02 2.2110391408205032e-02 -8.1904344260692596e-02 -1.5335532953031361e-04 1.0636922903358936e-02 6.8470048718154430e-03 -5.3602545522153378e-03 7.2141934651881456e-04 3.6995410919189453e-02 -1.2016925960779190e-02 6.3624262809753418e-02 9.8816221579909325e-03 -5.3851924836635590e-02 1.2757200747728348e-02 5.2035909146070480e-02 3.6175784189254045e-03 -4.7835592180490494e-02 1.9938986748456955e-02 -1.0934140300378203e-03 2.6150984689593315e-02 -4.0253754705190659e-02 -2.6700021699070930e-02 6.8043693900108337e-02 6.4600720070302486e-03 3.7524554878473282e-02 -3.3050971105694771e-03 2.7814961969852448e-02 -4.2491950094699860e-02 1.4832807704806328e-02 3.0480658635497093e-02 9.8857656121253967e-03 8.9152939617633820e-03 -2.2415103740058839e-04 -4.1706118732690811e-02 2.5514841079711914e-02 4.4650007039308548e-02 -1.7690496519207954e-02 2.7927415445446968e-02 -5.4421409964561462e-02 -8.9493468403816223e-03 1.7465574666857719e-02 3.7816807627677917e-02 -7.5439698994159698e-03 -5.5850163102149963e-02 1.6697887331247330e-02 6.2984898686408997e-02 -8.2116927951574326e-03 -5.9202589094638824e-02 -5.1458701491355896e-02 1.3263228349387646e-02 1.2838992290198803e-02 6.4844931475818157e-03 -3.0386805534362793e-02 1.2662686407566071e-02 -3.2534180209040642e-03 3.4798540174961090e-02 -2.3697288706898689e-02 -3.2865308225154877e-02 -3.8552869227714837e-04 -2.5173351168632507e-02 4.3297521770000458e-02 5.5888179689645767e-02 -1.3596303761005402e-02 1.7076764255762100e-02 4.8856106586754322e-03 2.0534547045826912e-02 2.9762074351310730e-02 6.0781161300837994e-03 3.1927045434713364e-02 -6.4525224268436432e-02 2.4563753977417946e-02 -7.5879700481891632e-02 6.2248259782791138e-02 -2.1566313225775957e-03 7.4995062313973904e-03 6.8686588201671839e-04 3.5135518759489059e-02 4.3692380189895630e-02 -2.4308482185006142e-02 -4.2425401508808136e-02 -6.6948882304131985e-03 2.2395934909582138e-02 -2.9462194070219994e-02 -7.4932668358087540e-03 -7.1955725550651550e-02 7.7627204358577728e-02 5.8661019429564476e-03 6.9475941359996796e-02 -5.6134145706892014e-02 2.7366233989596367e-02 -2.6406772434711456e-02 -1.0864311829209328e-02 -3.3926663454622030e-03 2.0472692325711250e-02 -7.3999061714857817e-04 -5.3882103413343430e-02 1.6589168459177017e-02 -4.5116953551769257e-02 1.7442354932427406e-02 2.5815328583121300e-02 3.0103377066552639e-03 3.6604793276637793e-03 -3.8597743958234787e-02 3.5903584212064743e-02 2.7062902227044106e-03 1.9062796607613564e-02 4.4779811054468155e-02 -2.5078647304326296e-03 2.5541691109538078e-02 -3.4541938453912735e-02 -1.3761681504547596e-02 -2.6192991062998772e-02 1.8878735601902008e-02 -4.9466148018836975e-02 8.9030480012297630e-03 2.3094387724995613e-02 -2.3187447339296341e-02 -2.2157903760671616e-02 -3.5950805991888046e-02 3.4754224121570587e-02 5.8629013597965240e-02 -4.2509719729423523e-02 2.2696031257510185e-02 -6.5633833408355713e-02 -2.7074823155999184e-02 -4.1592497378587723e-02 -1.5507163479924202e-02 -2.3375712335109711e-02 -3.0317753553390503e-03 -1.3297419995069504e-02 2.4605870246887207e-02 8.3471052348613739e-03 2.3206187412142754e-02 -6.4775325357913971e-02 1.3942910358309746e-02 -4.1669602505862713e-03 -2.9866822063922882e-02 -5.5272385478019714e-02 6.8931765854358673e-02 -2.8894968330860138e-02 -2.0139006897807121e-02 -6.8161293864250183e-02 -6.6794261336326599e-02 -1.0647790506482124e-02 6.2047308310866356e-03 -2.1050481125712395e-02 4.7697909176349640e-02 -3.6240797489881516e-02 4.8055093735456467e-02 -3.8683690130710602e-02 -3.2280746847391129e-02 -7.0440791547298431e-02 7.0237591862678528e-02 -1.1408062651753426e-02 3.1028354540467262e-02 3.8596522063016891e-02 -1.9404746592044830e-02 -5.0887294113636017e-02 5.5238953791558743e-03 -1.4397084712982178e-02 3.9054710417985916e-02 -2.5890007615089417e-02 2.8190361335873604e-02 -2.5743670761585236e-02 1.0680567473173141e-02 -6.7450039088726044e-02 -2.6230612769722939e-02 -5.7339571416378021e-02 3.9931811392307281e-02 2.2354366257786751e-02 2.5353018194437027e-02 -3.6372154951095581e-02 7.7165648341178894e-02 4.6477042138576508e-02 8.3845503628253937e-02 5.7460945099592209e-02 -7.8327825758606195e-04 -1.3655594084411860e-03 3.1935556326061487e-03 9.5100151374936104e-03 2.7914626523852348e-02 2.5530444458127022e-02 -1.0122255422174931e-02 7.4728615581989288e-03 -3.7072300910949707e-02 -1.3494773767888546e-02 6.4236703328788280e-03 -6.5228343009948730e-03 -1.9961712881922722e-02 -5.1702260971069336e-02 -7.8832358121871948e-02 -1.4622278511524200e-02 -6.7476987838745117e-02 -4.8323228955268860e-02 -1.9630836322903633e-02 1.3384901918470860e-02 -4.3899372220039368e-02 -4.7699820250272751e-02 -2.3561550304293633e-02 4.0577143430709839e-02 2.7518082410097122e-02 1.3076916337013245e-01 2.3814322426915169e-02 -1.4581823721528053e-02 -1.8135407939553261e-02 -1.4990596100687981e-02 7.1827857755124569e-03 2.8110975399613380e-02 -6.8024615757167339e-03 -6.5412804484367371e-02 -6.1907041817903519e-03 6.1344343703240156e-04 1.0746811516582966e-02 7.7466048300266266e-02 2.8021689504384995e-02 -3.7123192101716995e-02 -2.3413347080349922e-02 2.3912250995635986e-02 -2.1099068224430084e-02 3.0583959072828293e-02 -8.4479741752147675e-02 -1.5741741284728050e-02 5.9449803084135056e-03 5.0294060260057449e-02 3.5268548876047134e-02 -2.1063253283500671e-02 -1.8208174034953117e-02 3.9476896636188030e-03 1.7939390614628792e-02 -4.8373509198427200e-02 2.6293361559510231e-02 3.1607501208782196e-02 4.1796132922172546e-02 -2.1504957228899002e-02 -4.4224563986063004e-02 1.0369556024670601e-02 3.3784639090299606e-02 3.2144445925951004e-02 -2.6693135499954224e-02 7.4846424162387848e-02 2.8781749308109283e-02 -1.0973923839628696e-02 -3.0037762597203255e-02 -4.3831121176481247e-02 -7.5834775343537331e-03 -9.7202342003583908e-03 -6.5021827816963196e-02 7.8015111386775970e-02 6.5096072852611542e-02 3.3485110849142075e-02 -5.1135191461071372e-04 1.4336709864437580e-02 -4.1165459901094437e-02 5.8992002159357071e-02 2.9806271195411682e-02 -7.1839451265987009e-05 2.7715470641851425e-02 -4.0278065949678421e-02 7.0365332067012787e-02 -2.4243190884590149e-02 4.6113640069961548e-02 -4.4366210699081421e-02 -3.4638002980500460e-03 -1.8887128680944443e-03 -7.9235341399908066e-03 2.8088768944144249e-02 -2.5873517617583275e-02 -8.6608156561851501e-03 1.4133978635072708e-02 -4.1022405028343201e-02 -1.3096684589982033e-02 -4.5435242354869843e-03 1.8706280738115311e-02 -7.2794668376445770e-02 -2.5476604700088501e-02 -5.8339711278676987e-02 9.1774590313434601e-02 2.0944900810718536e-02 -1.2690043076872826e-02 1.2350897304713726e-02 -2.4384927004575729e-02 4.9601409584283829e-02 1.9368855282664299e-02 -2.0765891298651695e-02 1.1382597498595715e-02 -5.4942771792411804e-02 -2.9102698899805546e-03 -2.2916050627827644e-02 -2.9995109885931015e-02 4.6788785606622696e-02 -2.0788775756955147e-02 -3.1138433143496513e-02 -1.4936687424778938e-02 -2.3344550281763077e-02 3.6621622741222382e-02 -4.9253538250923157e-02 -2.3811740800738335e-02 -7.0742489770054817e-03 5.3600177168846130e-02 2.3208245635032654e-02 9.4071952626109123e-03 -5.8830786496400833e-02 2.9690237715840340e-03 3.0947409570217133e-02 2.1792029961943626e-02 3.6759782582521439e-02 -2.8047529980540276e-02 -4.0976803749799728e-02 1.2307175435125828e-02 1.0461034253239632e-02 5.6028184480965137e-03 -1.5067093074321747e-02 2.5878731161355972e-02 6.1821499839425087e-03 -4.4797241687774658e-02 4.6026933938264847e-02 -1.2971630785614252e-03 1.4141596853733063e-02 5.7612139731645584e-02 1.3358070515096188e-02 3.0907824111636728e-05 -4.0867633651942015e-04 1.0177318938076496e-02 6.7903855815529823e-03 7.1176844649016857e-03 -6.0871858149766922e-03 1.0952637530863285e-02 -4.9519008025527000e-03 6.7337295040488243e-03 -3.7972247228026390e-03 -3.1108593102544546e-03 3.9664236828684807e-04 8.1033706665039062e-03 1.1243606917560101e-02 -1.1054024798795581e-03 2.7260754723101854e-03 -1.1795488186180592e-02 -9.4233937561511993e-03 7.7518317848443985e-03 2.2436161525547504e-03 -5.7511632330715656e-03 1.0815139859914780e-02 2.3284081835299730e-03 8.3122393116354942e-03 -8.2126343622803688e-03 -7.9476572573184967e-03 1.1465756222605705e-02 6.5507018007338047e-04 1.9812048412859440e-03 -2.9647047631442547e-03 5.6590475142002106e-03 -1.8745259149000049e-03 3.7939113099128008e-03 -1.1332491412758827e-02 4.2237718589603901e-03 -3.9181527681648731e-03 3.8648562040179968e-03 5.2561797201633453e-03 -2.7770888991653919e-03 -5.4923878051340580e-03 3.0650882981717587e-03 -9.3314412515610456e-04 7.1285112062469125e-04 4.5864633284509182e-03 6.4841017592698336e-04 -9.7856912761926651e-03 5.0711343064904213e-03 -3.2728386577218771e-03 1.3535789912566543e-04 1.3387232320383191e-03 -1.4222004450857639e-02 -4.2477431707084179e-03 4.8198900185525417e-03 -2.4739580694586039e-03 -1.0029404424130917e-02 3.5083326511085033e-03 -2.3014836478978395e-03 -4.0883021429181099e-03 5.3908275440335274e-03 -4.3098190799355507e-03 -4.4181058183312416e-03 -1.0679699480533600e-02 -6.7478115670382977e-03 2.7483357116580009e-03 5.4813260212540627e-03 -4.8056803643703461e-04 1.7517056548967957e-03 -2.0707605872303247e-03 8.3773992955684662e-03 -5.8577912859618664e-03 -8.4297306602820754e-04 -4.8733046278357506e-03 -1.0055714286863804e-02 2.9712945688515902e-03 -2.9224723111838102e-03 1.0612247511744499e-02 -3.2130102626979351e-03 -5.4903299314901233e-04 -2.1467197220772505e-03 -2.7176882140338421e-03 1.1825403198599815e-02 4.9387314356863499e-03 8.5990438237786293e-03 -3.9329989813268185e-03 1.4847948215901852e-02 -3.8662499282509089e-03 7.9379612579941750e-03 6.2422133050858974e-03 -4.5309131965041161e-03 -8.3159152418375015e-03 8.4021703514736146e-05 4.5136935077607632e-03 -5.4280827753245831e-03 2.1021408028900623e-03 7.3708789423108101e-03 -1.1128047481179237e-02 1.1670512147247791e-02 -2.8179660439491272e-03 1.4610854908823967e-02 -1.2156841345131397e-02 -1.1547312140464783e-02 -3.0084422323852777e-03 4.2388308793306351e-03 6.2870634719729424e-03 8.0557959154248238e-03 1.4467036351561546e-02 6.1450726352632046e-03 -4.7113066539168358e-03 5.7377959601581097e-03 1.9812742248177528e-03 -1.1300217011012137e-05 1.1536256410181522e-02 7.5580081902444363e-03 8.0653484910726547e-03 -4.6291835606098175e-03 2.5586015544831753e-03 5.9094960306538269e-05 5.5689841974526644e-04 5.2848854102194309e-03 4.6078371815383434e-03 -9.6374396234750748e-03 4.3545882217586040e-03 1.0143337567569688e-04 -1.8615883309394121e-03 -8.1236809492111206e-03 4.3509680835995823e-05 -8.9709628373384476e-03 -1.0033083148300648e-02 -1.2780487537384033e-02 5.4362905211746693e-04 2.9252460226416588e-03 6.8864868953824043e-03 -8.8709611445665359e-03 -7.1670850738883018e-03 -4.8371315933763981e-03 1.0264402255415916e-02 4.6931388787925243e-03 7.4000898748636246e-03 7.6055112294852734e-03 -5.8667291887104511e-03 9.9855894222855568e-03 6.3857589848339558e-03 5.3796670399606228e-03 -6.0352850705385208e-03 -1.7848424613475800e-02 3.2014439348131418e-03 4.9656014889478683e-03 6.9421306252479553e-03 8.0402800813317299e-03 -1.2864687014371157e-03 -5.2840472199022770e-03 -1.3227369636297226e-02 2.0122433488722891e-04 -1.5297401696443558e-03 -8.1016467884182930e-03 8.7823709473013878e-03 -1.5294116456061602e-03 -3.4083051141351461e-03 -1.0905397357419133e-03 1.2749017914757133e-03 1.1815546080470085e-02 -6.5317009575664997e-03 4.2345509864389896e-03 -9.0346168726682663e-03 -8.8843926787376404e-03 -1.1180134490132332e-02 -2.4923644959926605e-03 9.5261689275503159e-03 -1.6823380719870329e-03 -4.1395709849894047e-03 4.6589593403041363e-03 1.1203367263078690e-02 -1.9668678578455001e-04 -3.9056567475199699e-03 -1.0031576268374920e-02 -2.1397315431386232e-03 1.3040027581155300e-02 -3.8025991525501013e-03 -2.7310114819556475e-04 -8.0248676240444183e-03 7.0341252721846104e-03 6.4776437357068062e-03 -2.6479354128241539e-03 -2.7124495245516300e-03 -4.1780541650950909e-03 -8.5239700274541974e-04 -3.1204540282487869e-03 -4.3626991100609303e-04 -9.9000576883554459e-03 1.7322555650025606e-03 2.1394593641161919e-03 4.5421090908348560e-03 -4.2230193503201008e-03 2.8048215899616480e-03 -1.1216147104278207e-03 -1.1809634976089001e-02 9.0663526207208633e-03 -1.0472293011844158e-02 1.9937343895435333e-03 1.9721083808690310e-03 7.1567855775356293e-03 4.9488320946693420e-03 1.8421916756778955e-03 -5.3768595680594444e-03 4.6530892141163349e-03 -5.7880827225744724e-03 4.4083390384912491e-03 5.4640676826238632e-03 -1.4168048510327935e-03 -3.4811112564057112e-03 1.8269980791956186e-03 -9.9403345957398415e-03 6.2650325708091259e-03 8.3636045455932617e-03 -7.8060459345579147e-03 -5.3931440925225616e-04 6.9781048223376274e-03 5.4157269187271595e-04 -3.3042943105101585e-03 7.6915189856663346e-04 8.1764173228293657e-04 -6.5291333012282848e-03 7.3435450904071331e-03 -4.8056654632091522e-03 -1.7254280392080545e-03 9.1663086786866188e-03 -6.1292205937206745e-03 -8.4490152075886726e-03 2.0472214091569185e-03 2.5760382413864136e-03 -3.5695713013410568e-03 -5.1362267695367336e-03 -2.8770710341632366e-03 -1.1018407531082630e-02 -3.3914137165993452e-03 4.5138075947761536e-03 3.9765229448676109e-03 3.6735509056597948e-03 -7.5186449103057384e-03 1.2275164946913719e-02 9.8218135535717010e-03 -1.6259208787232637e-03 -8.6615923792123795e-03 -2.3381952196359634e-03 -1.2030636426061392e-03 9.5111585687845945e-04 4.3606515973806381e-03 -8.1252437084913254e-03 4.7348672524094582e-03 2.9092049226164818e-03 -5.9836469590663910e-03 -6.0518383979797363e-03 5.0156028009951115e-03 2.3658308200538158e-03 4.5524770393967628e-03 -6.0121691785752773e-04 -8.0965990200638771e-03 1.1616718256846070e-03 2.5918630417436361e-03 -1.9816616550087929e-03 -1.4695888385176659e-03 5.8959843590855598e-03 3.4734699875116348e-03 3.6655941512435675e-03 -6.3992394134402275e-03 -1.1348883621394634e-02 -3.5247381310909986e-04 6.9299251772463322e-03 6.6060759127140045e-03 2.3196348920464516e-03 -2.1855236263945699e-04 -9.6746617928147316e-03 -7.1915215812623501e-03 -6.1379703693091869e-03 1.2395477388054132e-03 -8.9641995728015900e-03 1.8251829314976931e-03 2.0671423990279436e-03 1.0499983094632626e-02 1.5892386436462402e-03 1.7538393149152398e-03 -4.9779834225773811e-03 -8.5939802229404449e-03 1.7795492894947529e-03 -6.7636473104357719e-03 1.4892243780195713e-03 -3.2585202716290951e-03 4.0883556939661503e-03 -8.0952150747179985e-03 1.7016564961522818e-03 -2.3434860631823540e-03 4.2223441414535046e-04 2.4264608509838581e-03 6.5138200297951698e-03 -7.6794991036877036e-04 7.1453377604484558e-03 -3.9061135612428188e-04 -3.8215937092900276e-04 1.1152366176247597e-02 -7.5248256325721741e-03 1.0713397059589624e-03 -3.0552698299288750e-03 4.6102651394903660e-03 -8.3527937531471252e-03 1.3472960563376546e-03 -3.7742536514997482e-03 -1.1496713384985924e-02 -6.2405606731772423e-03 2.5850371457636356e-03 4.3245432898402214e-03 -6.0491114854812622e-03 -2.7129135560244322e-03 3.7469635717570782e-03 1.2928705473314039e-05 3.4068063832819462e-03 -9.1224908828735352e-03 9.4074914231896400e-03 -1.5006582252681255e-03 -9.2873582616448402e-03 -1.2489642947912216e-02 4.8421164974570274e-03 -6.8950926652178168e-04 1.0176362702623010e-03 4.1148117743432522e-03 -8.7687064660713077e-04 -4.1910437867045403e-03 8.7564671412110329e-03 3.7760995328426361e-03 1.4557179529219866e-03 2.2647092118859291e-03 1.8971614772453904e-03 -3.8286992348730564e-03 -4.6146870590746403e-03 -1.8823975697159767e-03 1.1010927846655250e-03 -9.2473300173878670e-03 6.1724274419248104e-03 -8.4928134456276894e-03 -5.2027492783963680e-03 5.2500595338642597e-03 4.8496010713279247e-03 -4.8636142164468765e-03 -5.2595888264477253e-03 -1.0280755348503590e-02 -7.2602559812366962e-03 -3.1446136999875307e-03 -3.3684740774333477e-03 8.2070399075746536e-03 -9.5952823758125305e-03 -5.0423420034348965e-03 2.9617554973810911e-03 -6.4293714240193367e-03 7.8684920445084572e-03 -2.2817952558398247e-03 -1.9892072305083275e-03 -8.0216135829687119e-03 -6.6053466871380806e-03 -2.2934558801352978e-03 5.0256163813173771e-03 4.9091144464910030e-03 8.5180858150124550e-03 -7.7535997843369842e-04 1.5541082248091698e-03 1.7351654241792858e-04 -2.9646083712577820e-03 2.1896357793593779e-05 5.4341838695108891e-03 7.4560246430337429e-03 -7.3020756244659424e-03 -2.8302050195634365e-03 -9.1337217018008232e-03 5.0026425160467625e-03 5.5695269256830215e-03 7.7135427854955196e-03 -1.1230479925870895e-02 -3.5901812370866537e-03 -5.0223516300320625e-03 -1.0332371108233929e-02 -7.8411903232336044e-03 1.0354381985962391e-02 -2.4342536926269531e-03 3.4875010605901480e-03 -1.0588384466245770e-03 7.4992752633988857e-03 -8.7497960776090622e-03 3.6791246384382248e-03 -1.6254539368674159e-03 6.7705255933105946e-03 -8.5400044918060303e-03 -4.9159559421241283e-03 -1.0532517917454243e-03 -1.3362689642235637e-03 1.1202038265764713e-02 8.4494575858116150e-03 1.2233137153089046e-02 -1.2989523820579052e-03 -6.9230045191943645e-03 -9.8176626488566399e-04 -9.3492595478892326e-03 6.9334884174168110e-03 -3.4567664843052626e-03 1.9715139642357826e-03 4.7445486416108906e-05 -3.7731009069830179e-03 7.8673558309674263e-03 8.3814663812518120e-03 -3.3510900102555752e-03 -1.1489395052194595e-02 3.3582658506929874e-03 -4.6255872584879398e-03 -5.6392955593764782e-03 -1.1866289423778653e-03 -3.3820676617324352e-03 8.4321387112140656e-03 1.6234875656664371e-03 9.7771771252155304e-03 1.1318353004753590e-02 -1.7324211075901985e-03 -5.9175626374781132e-03 -8.1637762486934662e-03 -3.2064602710306644e-03 -4.9334978684782982e-03 5.8585978113114834e-03 -7.5397528707981110e-03 7.9711880534887314e-03 -1.2073746882379055e-02 4.8008305020630360e-03 4.0913531556725502e-03 1.0092925280332565e-02 1.3615681091323495e-03 1.9769952632486820e-03 1.1915137991309166e-02 1.1908183805644512e-02 8.5796704515814781e-03 -4.8008486628532410e-03 -1.1416303925216198e-02 1.0435679927468300e-02 -3.9864159771241248e-04 -3.7137339822947979e-03 6.8308664485812187e-03 -1.4483476988971233e-03 -4.8833983018994331e-03 -5.9334598481655121e-03 3.9552636444568634e-03 -2.4718488566577435e-03 -3.8235702086240053e-03 -8.6460867896676064e-03 1.3787478674203157e-03 8.4988744929432869e-03 1.1264809872955084e-03 -7.9556100536137819e-04 -9.7924359142780304e-03 -8.0310823395848274e-03 -2.1351305767893791e-03 -5.0957123748958111e-03 4.8219882883131504e-03 -5.2119428291916847e-03 4.2356280609965324e-03 6.3996165990829468e-03 -7.7649164013564587e-03 6.3925846479833126e-03 1.1106866877526045e-03 2.7593786362558603e-03 7.0287878625094891e-03 5.8811777271330357e-03 6.8141636438667774e-04 7.7044228091835976e-03 -3.1744947191327810e-03 1.3464504852890968e-02 -4.3262573890388012e-03 5.2381207933649421e-04 -4.5871185138821602e-03 6.8262009881436825e-03 1.1153342202305794e-02 1.0586480610072613e-02 1.0115974582731724e-02 3.5308736842125654e-03 -8.5546402260661125e-03 4.6131913550198078e-03 4.6041691675782204e-03 -7.4744708836078644e-03 5.0734411925077438e-03 -3.8710124790668488e-03 -1.1315621668472886e-03 -3.8132586632855237e-04 -7.1335467509925365e-03 -3.6252331919968128e-03 5.4370341822504997e-03 8.0693615600466728e-03 5.2142958156764507e-03 6.4090355299413204e-03 4.7368393279612064e-03 -6.4200634369626641e-04 2.3235536646097898e-03 6.3857943750917912e-03 1.1197088286280632e-02 -3.1864556949585676e-03 -7.5791780836880207e-03 -2.2291624918580055e-03 -4.1543910629115999e-04 8.5046878084540367e-03 8.1534544005990028e-03 -2.8459504246711731e-03 -6.2246206216514111e-03 5.7875704951584339e-03 -4.9816295504570007e-03 -8.4201721474528313e-03 9.2347332974895835e-04 -5.0651817582547665e-03 1.3867437373846769e-03 3.2274834811687469e-03 8.0050397664308548e-03 -6.0529406182467937e-03 1.3143582036718726e-03 1.0742766782641411e-02 -8.4109473973512650e-03 -8.5876937955617905e-03 5.8622029609978199e-03 -2.5724142789840698e-02 4.9124501645565033e-02 -7.2611188516020775e-03 2.0558465272188187e-02 5.4754693992435932e-03 -1.5995362773537636e-02 -2.2970829159021378e-02 -3.2250799238681793e-02 1.2697568163275719e-02 1.9808460026979446e-02 2.8643526136875153e-02 1.2271924875676632e-02 3.0036149546504021e-02 7.5015015900135040e-03 2.4538051337003708e-02 -1.8614999949932098e-02 -3.4156303852796555e-02 -4.6858146786689758e-02 4.0496569126844406e-02 -8.0296667292714119e-03 1.3115875422954559e-02 3.0428299680352211e-02 2.6413970626890659e-03 3.8414075970649719e-02 1.4855281449854374e-02 1.3480255380272865e-02 -2.9625140596181154e-03 1.7905322834849358e-02 -3.0953275039792061e-02 -8.8238399475812912e-03 1.1542769148945808e-02 8.2593793049454689e-03 1.7576921731233597e-02 9.8166987299919128e-05 -9.5146745443344116e-03 -7.4127502739429474e-03 -3.6952536553144455e-02 2.4177504237741232e-03 7.5126029551029205e-03 2.3142509162425995e-02 7.8459288924932480e-03 4.8732280731201172e-02 1.0382455773651600e-02 3.1982015818357468e-02 2.2656102664768696e-03 5.2004624158143997e-03 -2.0516987890005112e-02 3.2098375260829926e-02 2.3614488542079926e-02 -4.8465024679899216e-02 -7.1111373603343964e-02 2.2243391722440720e-02 -7.5485539855435491e-04 4.2485460638999939e-02 -1.1085831560194492e-02 5.4929973557591438e-03 9.8598217591643333e-03 3.8786105811595917e-02 -3.0418054666370153e-04 1.4980587176978588e-02 7.3231915012001991e-03 -4.2562820017337799e-03 -9.1331358999013901e-03 4.0989637374877930e-02 -2.6785483583807945e-02 9.0168807655572891e-03 -8.2956813275814056e-03 2.8197402134537697e-02 -3.3426504582166672e-02 6.5713133662939072e-03 1.2345268391072750e-02 5.5598162114620209e-02 3.0091155320405960e-02 2.9240464791655540e-02 -4.0095914155244827e-03 -5.8027337217936292e-05 -8.8957194238901138e-03 2.2925779223442078e-02 6.8256603553891182e-03 3.1272381544113159e-02 1.7313968390226364e-02 3.5314116626977921e-02 -2.6186050847172737e-02 8.4014199674129486e-03 -2.5156579911708832e-02 -1.9213436171412468e-02 3.1851813197135925e-02 1.6048036515712738e-02 -2.5178752839565277e-02 2.5434999261051416e-03 -4.9529202282428741e-02 1.7970197368413210e-03 -1.4668389223515987e-02 2.6511952280998230e-02 -5.9539894573390484e-03 4.4536925852298737e-02 1.0597538203001022e-03 9.2104375362396240e-03 -2.1688647568225861e-02 -6.4301039092242718e-03 -3.4340552985668182e-02 1.0269026271998882e-02 -3.1169483438134193e-02 -1.7573632299900055e-02 -3.4900322556495667e-02 -2.3618193343281746e-02 -5.4990677163004875e-03 2.6700250804424286e-02 -1.6682846471667290e-02 -1.0160217061638832e-03 2.9065214097499847e-02 -1.9099598750472069e-02 3.0273454263806343e-02 -2.1763026714324951e-02 7.5260396115481853e-03 1.4248904772102833e-02 -2.7325670234858990e-03 -5.5742571130394936e-03 -3.1517650932073593e-02 6.1191935092210770e-03 4.9873046576976776e-02 1.8599096685647964e-02 2.0913193002343178e-02 4.2858850210905075e-02 2.1083250641822815e-02 1.2793780304491520e-02 1.7349541187286377e-02 2.7365040034055710e-02 2.3201847448945045e-02 -2.9182691127061844e-02 -1.3781501911580563e-02 -8.3991423249244690e-02 -1.8084714189171791e-02 5.9638712555170059e-03 -2.2715914528816938e-03 -5.3247489267960191e-04 1.0322337038815022e-02 -8.4375534206628799e-03 1.3823472894728184e-02 2.2162124514579773e-02 3.0852616764605045e-03 -1.7096877098083496e-02 -1.6637276858091354e-02 -4.2856771498918533e-02 -3.5219341516494751e-02 3.5933855921030045e-02 4.0981294587254524e-03 -3.4480888396501541e-02 -7.0634391158819199e-03 -2.4789466988295317e-03 2.9946465045213699e-02 1.2443973682820797e-03 3.1191317830234766e-03 -1.8507454544305801e-02 -4.7455180436372757e-02 2.9308110475540161e-02 2.1146394312381744e-02 2.2989271208643913e-02 -9.1227097436785698e-04 5.1175668835639954e-02 -4.7250348143279552e-03 -3.8013182580471039e-02 -1.6840444877743721e-02 3.6851935088634491e-02 3.7078589200973511e-02 -1.4558462426066399e-03 -2.9204627498984337e-02 -5.0051063299179077e-03 2.8830328956246376e-02 -6.2311694025993347e-02 -3.6877196282148361e-02 1.1050240136682987e-02 9.0082762762904167e-03 3.1008251011371613e-02 -9.2287710867822170e-04 -6.7822597920894623e-03 3.2035905867815018e-02 -3.7948388606309891e-02 -2.4736441671848297e-02 -2.3824891541153193e-03 -2.6869257912039757e-02 -8.5160955786705017e-03 4.1697815060615540e-02 -2.1927515044808388e-02 2.9861202929168940e-03 -1.5341689810156822e-02 -3.4638840705156326e-02 3.6343026906251907e-02 -6.0447067022323608e-02 3.5451194271445274e-03 8.7200634879991412e-04 2.6633676141500473e-02 -7.6526938937604427e-04 9.8703624680638313e-03 2.3935103788971901e-02 -9.7751719877123833e-03 3.5941295325756073e-02 6.9690967211499810e-04 -3.3108234405517578e-02 1.9293261691927910e-02 2.3784112185239792e-02 1.0286344215273857e-02 -4.2680066078901291e-02 2.5312902405858040e-02 7.5239469297230244e-03 2.8196269646286964e-02 -4.7010794281959534e-02 -1.0911817662417889e-02 2.9314262792468071e-02 -5.7031717151403427e-03 2.6114488020539284e-02 -2.6014240458607674e-02 -2.7225917438045144e-04 -1.7578588798642159e-02 4.4225566089153290e-03 3.9649117738008499e-02 7.8335497528314590e-03 1.0885915718972683e-02 1.6552621498703957e-02 -2.9426412656903267e-02 9.0679191052913666e-03 2.4218460544943810e-02 -1.1486081406474113e-02 1.8610225990414619e-02 -2.7958381921052933e-02 4.3046637438237667e-03 2.2978991270065308e-02 2.1024981513619423e-02 -2.2554196417331696e-02 -3.9888482540845871e-02 4.7887125983834267e-03 5.3559586405754089e-02 6.3148741610348225e-03 -3.8011986762285233e-02 -3.5368036478757858e-02 -1.3492657802999020e-02 2.1378140896558762e-02 1.7816396430134773e-02 -1.5454676002264023e-02 6.6188764758408070e-03 -5.4411549353972077e-04 2.4749148637056351e-02 -3.0246144160628319e-02 -2.6909044012427330e-02 2.3427052423357964e-02 -2.0322853699326515e-02 1.8659709021449089e-02 1.6257442533969879e-02 -3.2504327595233917e-02 1.1837003752589226e-02 -5.2804397419095039e-03 1.8927843775600195e-03 -2.3521954193711281e-02 -1.3770996883977205e-04 1.3895324431359768e-02 -1.8075071275234222e-02 1.6506141051650047e-02 -3.3707018941640854e-02 9.3759410083293915e-03 -2.3122033104300499e-02 1.5073142712935805e-03 1.9084544852375984e-02 2.2921105846762657e-02 3.6239024251699448e-02 -1.6259761527180672e-02 -8.3836792036890984e-03 -1.9582096487283707e-02 4.8289559781551361e-03 -2.8184039518237114e-02 -1.5604004263877869e-02 -2.0515173673629761e-02 2.2818718105554581e-02 2.4766843765974045e-02 3.0669301748275757e-02 -4.0867563337087631e-02 2.2201400250196457e-02 -1.0851850733160973e-02 -3.7243936210870743e-02 9.7659062594175339e-03 -2.9991989955306053e-02 -2.6415325701236725e-02 -2.2487822920084000e-02 2.0815483294427395e-03 -1.8319746479392052e-02 2.4118365719914436e-02 1.7249569296836853e-02 -5.5559338070452213e-03 -2.5037273298949003e-03 -1.7214529216289520e-02 -3.3172313123941422e-03 4.6197930350899696e-03 -5.0464170053601265e-03 2.3155467584729195e-02 -2.9022670350968838e-03 -1.2674335390329361e-02 -1.1073724366724491e-02 -7.8609207412227988e-04 -3.2554674893617630e-02 7.9440865665674210e-03 -2.2474236786365509e-02 -8.1291375681757927e-03 -1.8383509013801813e-03 1.7312958836555481e-02 -2.1671805530786514e-02 -2.7244411408901215e-02 3.4662768244743347e-02 5.1216732710599899e-02 -1.9777419045567513e-02 -1.0082396678626537e-02 -2.2890310734510422e-02 1.5542639419436455e-02 -4.0335538797080517e-03 -8.3240279927849770e-03 -2.6624452322721481e-02 -4.2335586622357368e-03 -2.0977465435862541e-02 -7.1239648386836052e-03 4.6431771479547024e-03 1.4694605022668839e-02 -3.5332202911376953e-02 2.4897053837776184e-02 -1.3892633141949773e-03 1.3113002292811871e-02 -2.8744334354996681e-02 2.9767444357275963e-02 -1.0344598442316055e-02 -1.6742922365665436e-02 -5.6027825921773911e-02 -1.4201150275766850e-02 -1.5605703927576542e-02 -3.7938926834613085e-04 -1.3969830470159650e-03 1.5074415132403374e-02 -2.7036486193537712e-02 1.2256890768185258e-03 -3.8839969784021378e-02 -1.0878044180572033e-02 -3.2959312200546265e-02 1.8732784315943718e-02 -1.8714129691943526e-03 2.6062408462166786e-02 6.5047801472246647e-03 -3.0981833115220070e-02 -6.4402131829410791e-04 9.1836350038647652e-03 -6.4640399068593979e-03 3.2795969396829605e-02 -1.1091714724898338e-02 1.7504587769508362e-02 -1.6040118411183357e-02 5.8075389824807644e-03 -3.5250239074230194e-02 -3.6996570415794849e-03 -5.2613466978073120e-03 2.3217551410198212e-02 1.6565980389714241e-02 3.4831106662750244e-02 -1.4762233011424541e-02 2.7188705280423164e-02 1.4774416573345661e-02 3.8552545011043549e-02 3.0838239938020706e-02 9.3393037095665932e-03 -2.8529692441225052e-02 9.5918551087379456e-03 7.3161683976650238e-03 -2.7515154331922531e-02 1.4840304851531982e-02 -3.0419768765568733e-02 1.6189273446798325e-02 -9.9363019689917564e-03 -2.6968548074364662e-02 1.4786750543862581e-03 8.8012451305985451e-03 3.3609766513109207e-02 3.6914055817760527e-04 -4.2578645050525665e-02 -1.8209006637334824e-02 -2.4683117866516113e-02 -5.1172863692045212e-02 -3.6899078637361526e-02 -1.2433976866304874e-02 -1.0903795249760151e-02 -2.6612397283315659e-02 -3.4003496170043945e-02 1.6329282894730568e-02 1.4869539067149162e-02 6.6776648163795471e-02 2.2159779444336891e-02 -4.3901884928345680e-03 1.2866078875958920e-02 2.4612941779196262e-03 -1.2236156500875950e-02 9.2396978288888931e-03 -1.6507281688973308e-03 -4.8103984445333481e-03 -3.3068330958485603e-03 1.5467829070985317e-02 2.0798718556761742e-02 2.8205733746290207e-02 2.7390891686081886e-02 -3.2296109944581985e-02 2.3466371931135654e-03 2.4304179474711418e-02 -1.1775963939726353e-02 1.3113352470099926e-02 -2.3350458592176437e-02 8.8878329843282700e-03 -1.4269066974520683e-02 1.5896216034889221e-02 3.6322768777608871e-02 -2.4923639371991158e-02 -2.7888972312211990e-02 -1.9240787252783775e-02 -6.5918024629354477e-03 -6.3210897147655487e-02 -1.3098798226565123e-03 3.3443979918956757e-02 -5.5308789014816284e-03 -4.2068757116794586e-02 -3.5993415862321854e-02 -6.9515649229288101e-03 2.6926128193736076e-02 5.0742495805025101e-03 -2.3048799484968185e-02 5.8233540505170822e-02 4.0954180061817169e-02 -1.3205979950726032e-02 -9.1259330511093140e-03 -2.2478988394141197e-02 -6.5596937201917171e-03 1.8136739730834961e-02 -8.0133490264415741e-03 2.4699186906218529e-02 4.5838765799999237e-03 7.5210393406450748e-03 2.3445535451173782e-02 1.8112698569893837e-02 -4.3269142508506775e-02 2.4287089705467224e-02 -1.1799918487668037e-02 2.3019686341285706e-02 3.4361734986305237e-02 -3.0591849237680435e-02 4.5147869735956192e-02 -3.9940904825925827e-03 7.3973834514617920e-03 -1.6943341121077538e-02 -2.2277559619396925e-03 -5.6066056713461876e-03 -1.2624843046069145e-02 1.5067789703607559e-02 -3.7042375653982162e-02 -3.8707747589796782e-03 2.3932794108986855e-02 -2.2507311776280403e-02 -2.1669853478670120e-02 -8.6873667314648628e-03 3.1861450523138046e-02 -1.6016541048884392e-02 -1.8025161698460579e-02 -2.4310665205121040e-02 3.2869871705770493e-02 5.1198685541749001e-03 -3.0448479577898979e-02 -3.8694795221090317e-03 -2.1663887426257133e-02 2.5346413254737854e-02 -1.2482988648116589e-02 6.7804967984557152e-03 -5.9527494013309479e-03 -2.5505930185317993e-02 -9.6300645964220166e-04 -1.8208183348178864e-02 1.0993331670761108e-03 2.4675270542502403e-02 -9.9409604445099831e-03 -1.2416504323482513e-02 2.5036032311618328e-03 -9.6777575090527534e-03 3.1459078192710876e-02 -1.0835519060492516e-02 -1.8718887120485306e-02 -2.1054752171039581e-02 1.1109077371656895e-02 2.5686858221888542e-02 -3.7915480788797140e-03 -4.3993126600980759e-02 4.4458969496190548e-03 2.2882919758558273e-02 3.5092208534479141e-02 -1.3020529877394438e-04 -1.6702120192348957e-03 -2.9692533425986767e-03 1.0028323158621788e-02 -7.7910814434289932e-03 6.2693180516362190e-03 -2.2376457229256630e-02 1.6276592388749123e-02 2.6504537090659142e-02 -7.5523355044424534e-03 2.8635215014219284e-02 -1.2900932691991329e-02 -2.3642996326088905e-02 1.8916426226496696e-02 -1.5645278617739677e-02 -1.6371384263038635e-03 1.1776881292462349e-02 3.3196907490491867e-02 6.8137506023049355e-03 4.3397508561611176e-03 -1.3966040685772896e-02 -1.6936523839831352e-02 1.4309635385870934e-02 1.8542151898145676e-02 1.2844170443713665e-02 1.1212594108656049e-03 -3.5181537270545959e-02 -1.4396061189472675e-02 -4.2839080095291138e-02 -7.5887455604970455e-03 5.4154689423739910e-03 3.2938573509454727e-02 2.2592321038246155e-02 2.9958844184875488e-02 1.1232079006731510e-02 -5.7177534326910973e-03 1.2566328048706055e-02 -3.9025507867336273e-02 -2.9573326930403709e-02 3.7220880389213562e-02 -1.2982781045138836e-02 9.5223663374781609e-03 4.4852450489997864e-02 -5.3034266456961632e-03 4.8120148479938507e-02 3.7286888808012009e-02 8.1713283434510231e-03 -6.4970701932907104e-03 -1.2911405414342880e-02 -1.9588433206081390e-02 -6.2428978271782398e-03 1.0997672565281391e-02 7.9962294548749924e-03 7.6940599828958511e-03 1.7281994223594666e-02 -6.9100549444556236e-03 1.6831291839480400e-02 -1.2633250094950199e-02 2.0402804017066956e-02 1.9810477271676064e-02 1.7681704834103584e-02 1.3198066502809525e-02 4.4894050806760788e-02 9.5135169103741646e-03 2.3601587861776352e-02 2.0916417241096497e-02 -9.4213346019387245e-03 -3.1864110380411148e-02 2.5585206225514412e-02 1.9315704703330994e-02 -4.6407017856836319e-02 -6.2655381858348846e-02 2.5561116635799408e-02 1.0862738825380802e-02 1.7814710736274719e-02 -2.7717340737581253e-02 -1.3611471280455589e-02 1.2011996470391750e-02 3.0781241133809090e-02 5.4272087290883064e-03 8.9791975915431976e-03 8.0111483111977577e-03 5.8257160708308220e-03 1.2447028420865536e-02 1.1278348043560982e-02 -2.8561685234308243e-02 -7.2259397711604834e-04 -3.0052397400140762e-02 2.7660446241497993e-02 1.2439107522368431e-03 8.7033892050385475e-03 1.7805337905883789e-02 5.3145490586757660e-02 2.0892372354865074e-02 5.0101786851882935e-02 -4.6860175207257271e-03 -6.7563210614025593e-03 6.0898833908140659e-03 1.3125736266374588e-02 1.1183344759047031e-02 3.9698403328657150e-02 -1.9649118185043335e-03 1.0208432562649250e-02 2.3711144924163818e-02 -5.8431932702660561e-03 -1.7421785742044449e-02 -1.6435612924396992e-03 3.1712520867586136e-02 -4.1792267002165318e-03 -3.3459689468145370e-02 3.7324985023587942e-03 -4.7089658677577972e-02 -4.6898233704268932e-03 -1.9960600882768631e-02 2.7091229334473610e-02 1.4216553419828415e-02 5.1968041807413101e-02 -8.9322365820407867e-03 -1.2106044217944145e-02 -2.5526478886604309e-02 1.0402877815067768e-03 -3.6856908351182938e-02 -6.0677686706185341e-03 -1.0751583613455296e-02 -4.2429384775459766e-03 -1.4113719807937741e-03 -1.4955435879528522e-02 -1.2930456548929214e-02 1.2528386898338795e-02 -2.6538634672760963e-02 7.7083767391741276e-03 3.7010330706834793e-02 -1.2041713111102581e-02 2.9811758548021317e-02 -3.3282496035099030e-02 -1.1783524416387081e-02 3.0001968145370483e-02 3.3477630931884050e-03 -4.2158421128988266e-03 -4.1853811591863632e-02 -7.2640050202608109e-03 3.0479237437248230e-02 2.0733647048473358e-02 -6.6360733471810818e-03 4.3624207377433777e-02 3.1341608613729477e-02 3.1609602272510529e-02 -1.0106515139341354e-02 2.2725515067577362e-02 3.9152301847934723e-02 -1.3524614274501801e-02 -1.0271191596984863e-02 -5.2900828421115875e-02 -9.8753105849027634e-03 -2.5965287350118160e-03 -2.9914405196905136e-02 -1.4154616743326187e-02 1.1902937665581703e-02 -2.9172010254114866e-03 9.9616693332791328e-03 -8.9596109464764595e-03 -4.4241715222597122e-03 -3.0555637553334236e-02 -2.2876027971506119e-02 -1.7093067988753319e-02 -3.1259614974260330e-02 2.8673864901065826e-02 -1.4245211146771908e-02 -2.2458255290985107e-02 3.5066902637481689e-03 1.7641725018620491e-02 7.0375637151300907e-03 1.0342175373807549e-03 5.2425828762352467e-03 5.3859315812587738e-04 -3.9592456072568893e-02 9.9522694945335388e-03 2.2981591522693634e-02 2.2152718156576157e-02 9.0022245422005653e-03 5.1403973251581192e-02 -6.9246995262801647e-03 -3.2475434243679047e-02 7.4484911747276783e-03 4.0402613580226898e-02 3.2476626336574554e-02 2.1943969652056694e-02 -2.9760560020804405e-02 6.4689386636018753e-03 2.1299820393323898e-02 -3.1589575111865997e-02 -2.8278889134526253e-02 5.8564986102283001e-03 -1.0019446723163128e-02 1.8223181366920471e-02 -1.1923918500542641e-02 -8.9925527572631836e-03 -4.9504963681101799e-03 -2.4307627230882645e-02 -2.8996227774769068e-03 -8.1244781613349915e-03 -2.9074616730213165e-02 -2.2691633552312851e-02 3.8655102252960205e-02 -8.1867612898349762e-03 1.1460768990218639e-02 -4.0498197078704834e-02 -4.1482109576463699e-02 1.6692129895091057e-02 -5.0434861332178116e-02 -7.5734336860477924e-03 1.6070144250988960e-02 -5.3286147303879261e-03 -9.8852710798382759e-03 4.2313155718147755e-03 1.8360840156674385e-02 -1.0945648886263371e-02 3.3468015491962433e-02 1.0347123257815838e-02 -4.0255252271890640e-02 1.7535660415887833e-02 4.0924742817878723e-02 6.1672725714743137e-03 -4.2043205350637436e-02 -4.3428856879472733e-03 -3.4886850044131279e-03 1.9970372319221497e-02 -1.5914462506771088e-02 -2.0926477387547493e-02 5.1067996770143509e-02 7.3632672429084778e-03 1.2954500503838062e-02 -1.0375067591667175e-02 1.3191875070333481e-02 -2.1740529686212540e-02 6.8260775879025459e-03 3.2042860984802246e-02 8.4395986050367355e-03 1.1193122714757919e-02 -7.7436710707843304e-03 -2.2489482536911964e-02 5.5074230767786503e-03 3.2883130013942719e-02 -2.3393517360091209e-02 6.7532313987612724e-03 -2.5153543800115585e-02 -1.0782058350741863e-02 1.0313209146261215e-02 2.8784655034542084e-02 -2.1468449849635363e-03 -3.6698274314403534e-02 9.2579117044806480e-03 3.2504647970199585e-02 3.7904439959675074e-03 -4.3338309973478317e-02 -3.7083793431520462e-02 8.4943184629082680e-03 9.0347090736031532e-03 3.7541624624282122e-03 -1.8183108419179916e-02 4.6167597174644470e-03 -5.9598670341074467e-03 2.9655748978257179e-02 -1.6058912500739098e-02 -1.9129037857055664e-02 2.3568647447973490e-03 -7.6857553794980049e-03 3.0286114662885666e-02 4.1194323450326920e-02 -1.2559125199913979e-02 9.0931048616766930e-03 4.3433150858618319e-04 -7.9388218000531197e-03 2.0068036392331123e-02 -6.5571145387366414e-04 -1.8928438425064087e-02 5.6659441906958818e-04 -4.3536785989999771e-02 4.7020357102155685e-02 -5.5395509116351604e-03 3.2046187669038773e-02 -5.3009949624538422e-03 -3.9981864392757416e-02 -3.7237498909235001e-02 -5.7299986481666565e-02 5.7299882173538208e-03 1.3495746999979019e-02 4.0843922644853592e-02 1.4757364057004452e-02 5.0743926316499710e-02 1.4899945817887783e-02 1.1021276004612446e-02 -2.6708142831921577e-02 -7.2141140699386597e-02 -7.0425398647785187e-02 6.4250983297824860e-02 -1.9105641171336174e-02 1.8962468951940536e-02 6.0813516378402710e-02 -7.7982293441891670e-03 5.1888756453990936e-02 3.4437205642461777e-02 2.4564186111092567e-02 -3.7969204131513834e-03 1.0154893621802330e-02 -4.1407652199268341e-02 -1.4052340760827065e-02 1.0884373448789120e-02 3.1230689492076635e-03 2.0663896575570107e-02 2.7774381451308727e-03 -9.4286845996975899e-03 -4.7725588083267212e-03 -3.0825646594166756e-02 1.3177796266973019e-02 1.4156878925859928e-02 3.8188677281141281e-02 1.4707772992551327e-02 7.0579856634140015e-02 -4.2050722986459732e-03 3.8887992501258850e-02 1.8632974475622177e-02 -2.1206378936767578e-02 -2.8396759182214737e-02 4.1282281279563904e-02 5.6053012609481812e-02 -5.9593949466943741e-02 -9.9580317735671997e-02 2.5335084646940231e-02 5.3924876265227795e-03 4.2696349322795868e-02 -1.0192276909947395e-02 3.8080650847405195e-03 1.6424532979726791e-02 4.4899467378854752e-02 8.4681045264005661e-03 1.6701646149158478e-02 -8.2355299964547157e-03 -2.5197775103151798e-03 -1.0796959511935711e-02 5.0172429531812668e-02 -3.0659232288599014e-02 -4.4043720699846745e-03 -1.2153010815382004e-02 3.4577589482069016e-02 -3.0437123030424118e-02 1.8943069502711296e-02 2.0751290023326874e-02 8.9426130056381226e-02 4.6948287636041641e-02 6.3345067203044891e-02 -1.4205760322511196e-02 4.0886071510612965e-03 -1.5674317255616188e-02 4.1684698313474655e-02 -8.8606225326657295e-03 6.2881916761398315e-02 1.3696985319256783e-02 4.5916594564914703e-02 -2.5850992649793625e-02 -1.9049663096666336e-03 -3.6998149007558823e-02 -3.2360225915908813e-02 4.7584250569343567e-02 7.5970380567014217e-03 -4.0849935263395309e-02 1.9710531458258629e-02 -7.6436318457126617e-02 9.2620579525828362e-03 -3.7002559751272202e-02 3.9921790361404419e-02 6.9967210292816162e-03 7.2697050869464874e-02 1.4238443225622177e-02 4.4887480325996876e-03 -3.8850393146276474e-02 -3.1169848516583443e-02 -5.8583177626132965e-02 1.5839347615838051e-02 -4.6349022537469864e-02 3.3291352447122335e-03 -5.4040614515542984e-02 -2.7970673516392708e-02 -1.1269968003034592e-02 3.5049084573984146e-02 -1.9460888579487801e-02 -1.0080919601023197e-02 3.7526376545429230e-02 -2.1612811833620071e-02 3.7285946309566498e-02 -2.9524454846978188e-02 -5.1784142851829529e-03 3.0410820618271828e-02 1.2068429030478001e-02 -8.8514192029833794e-03 -4.5468129217624664e-02 1.1803268454968929e-02 7.6451577246189117e-02 1.4902157709002495e-02 3.5031486302614212e-02 7.2495013475418091e-02 3.4285452216863632e-02 2.0810734480619431e-02 1.3990742154419422e-02 4.6629305928945541e-02 5.1800657063722610e-02 -3.8283135741949081e-02 -3.3969867974519730e-02 -1.0269293934106827e-01 -1.2631706893444061e-02 1.9327675690874457e-03 -4.1120532900094986e-02 -4.3661778909154236e-04 1.4453201554715633e-02 -2.1736579015851021e-02 2.6507612317800522e-02 9.4405245035886765e-03 -6.2045329250395298e-03 -3.8710433989763260e-02 -2.5156609714031219e-02 -6.4323276281356812e-02 -5.4357096552848816e-02 5.7810407131910324e-02 2.6699535083025694e-03 -4.1486248373985291e-02 6.1540734022855759e-03 3.6317133344709873e-03 